3000 128
<pad> 0.837948 -1.510381 1.644754 0.041006 1.672016 0.911649 0.312558 0.113909 -0.980451 -0.860085 -0.357511 0.732705 -1.111802 1.778420 0.436374 -1.089112 0.233735 -0.923722 -0.512060 -3.377371 0.891636 -0.468569 -2.256960 0.193428 0.915407 -1.221479 -1.724788 -0.869022 0.638134 -1.224629 -0.547983 1.016369 -0.875745 -1.141523 -1.967509 -0.397329 -1.309727 -0.432841 0.654880 -0.454611 -0.151725 0.529888 0.769888 -0.644911 0.095568 0.053503 -1.134315 -1.013346 -0.018284 -0.022780 1.589402 -1.449879 1.400393 0.750131 -0.187008 -1.129352 -2.938622 -0.683849 -0.136078 1.051942 -0.422822 1.301641 -0.061520 -0.061527 -0.146688 -0.486116 0.986599 0.230332 -0.880187 0.509855 -0.361000 2.612154 -0.074088 -0.962472 0.436925 0.183529 -0.151384 0.320822 1.592746 0.981379 1.419797 -0.619318 1.486189 -0.325847 0.484707 -0.161500 -0.821707 0.420551 -0.288709 -1.068549 -0.189874 -2.177868 -0.293294 0.474903 -0.377887 0.279696 0.077234 0.564532 -1.220179 -0.748466 0.830430 1.376222 -0.426846 0.111118 -0.278027 0.369420 -0.107676 -0.405558 0.418268 0.214884 2.143195 1.224337 0.680915 1.282026 -1.158973 -0.322948 0.054071 2.452256 -0.391453 1.779551 0.089797 0.221212 0.887988 -0.983127 -0.109018 -0.591776 -0.762767 0.048439
<start> -0.445369 1.136166 -0.604783 -1.325084 -1.302964 -0.851386 -0.836507 1.762436 0.353958 0.029515 -0.003631 -0.113500 0.058222 0.282146 -1.058463 1.172057 1.074746 1.316517 0.046869 0.342583 1.048163 -0.439293 -1.035851 0.882366 -0.410548 0.835082 -0.181498 -0.779650 0.846920 0.689621 -0.950149 -0.456938 0.418115 -0.325751 0.467239 0.928377 0.891347 1.567952 1.643700 -0.858733 -1.354715 -0.310573 0.875560 0.267508 0.649984 -1.508024 0.118064 -0.691473 -1.014338 -1.826662 -1.741143 0.841371 -0.687823 -0.133642 1.583693 -0.650441 -0.073870 0.705036 -0.866901 1.189666 -1.529966 0.242056 1.286666 0.105739 1.454182 0.189361 0.235974 -1.494895 -0.590805 0.004252 -0.691103 -0.244606 0.763106 -0.061329 1.069838 1.850833 0.230633 -1.203150 0.300008 -0.697009 -0.975479 -0.985706 -0.926700 -0.596330 0.124743 -2.215563 0.210688 -0.461630 1.701122 -0.177221 0.180311 -0.213739 -2.249348 -0.597249 -0.132846 1.363616 1.088748 -0.853641 -0.348104 0.836556 -0.776757 0.108536 0.958226 -0.392293 -0.285841 0.533750 1.136381 -0.741258 0.374800 -1.046985 0.148218 0.223971 0.251126 1.503668 1.451485 -0.292606 0.980335 -1.416377 1.666640 -0.091536 0.680208 0.558289 -0.443346 0.164650 -1.586391 0.624726 1.384452 0.878972
<end> -0.744336 0.985346 -0.681450 0.170832 -1.520080 0.034604 0.821683 0.222970 0.249454 1.205895 -0.133462 0.278895 0.959375 -0.649205 0.037185 -1.593338 0.544526 1.594493 0.308929 -2.047469 1.444740 0.748423 0.982938 0.105993 1.544907 0.988340 0.640262 -0.216550 0.109648 -0.464578 -0.071554 0.791460 -0.932769 0.453584 -1.085528 0.836517 1.250225 0.359959 -1.918841 -0.631885 0.352707 -0.428129 -0.324179 1.481714 -0.077842 -1.088682 2.381208 0.960002 0.391150 -0.310384 1.208446 -0.951792 0.926762 0.710754 -0.203811 -1.106522 0.638751 -2.014001 0.168570 0.936382 0.428205 1.751330 0.830807 1.266107 0.096366 0.535524 0.816015 -0.435540 -0.447633 0.938293 -1.291685 0.019115 -1.578969 0.875578 0.989291 0.065026 -0.655289 0.135648 -1.249542 0.314243 -0.678334 1.452952 0.384503 0.336966 0.632007 1.508758 -0.341272 0.184167 -0.963259 0.062376 -0.650631 0.198764 -0.826478 0.767626 0.357612 0.881802 -0.211829 1.061149 -0.859318 1.864770 -0.266937 -0.058969 -0.752837 1.121238 -0.885137 0.772790 -0.249029 0.712326 0.364079 1.789671 -1.703671 0.094207 -1.471221 0.282236 1.706790 0.359689 -0.028681 0.073589 0.952448 -0.125734 -0.512025 0.545392 -0.508489 0.757566 -0.103947 0.237450 2.294493 1.337606
<unk> -0.007680 0.964034 0.308510 -0.900098 1.413340 -0.930408 -0.056096 0.798468 -1.091681 -0.099798 -1.357645 0.057737 -0.606939 -0.859592 0.088020 -1.082007 0.227925 -0.734178 -1.389134 0.373671 -0.782797 0.664839 -0.661061 -1.108113 -0.350837 -0.524799 0.638047 -1.004598 1.318476 0.534529 0.428763 0.599502 -1.155014 -0.191063 -0.205803 -0.923467 -1.302395 -0.307494 0.337259 -0.059311 0.303696 0.396869 0.704013 -0.090334 -0.200408 0.299503 -0.426236 -0.740928 -0.450159 -1.037945 -0.151678 0.136910 -0.473930 0.911513 0.088016 0.535254 -0.784401 -1.180960 0.723110 -0.197748 -0.366066 0.156235 -0.320257 -0.264609 -0.369196 0.646990 1.891193 0.634714 0.055560 0.230332 -0.238344 -0.416905 -1.365674 -0.168554 0.297598 0.666166 0.292683 1.625125 1.008074 1.381113 -0.630339 0.181336 -0.439087 -0.837499 0.664099 -0.926188 0.578379 -0.973307 0.130904 0.067908 -0.350940 -0.815661 -0.030895 -0.202610 -0.536387 0.408211 0.292129 -0.052197 -0.564820 0.578681 -0.260903 0.443561 0.563825 0.226408 -0.629054 1.227394 -0.838120 0.058591 0.005314 -0.722743 0.441807 -0.602157 -0.727984 -0.500384 0.345149 0.565383 -0.039058 0.025132 1.080735 -0.593690 1.451101 -0.870802 -0.250090 0.513548 0.433963 0.046065 0.750667 0.419661
the 0.370876 -0.326565 0.483321 -0.670413 -1.727235 -2.022472 -0.256575 0.960193 -0.790956 -1.185939 0.463911 -0.673754 0.057794 0.731701 0.849841 1.514542 0.861536 0.137616 0.611117 -1.337381 -0.152815 -1.265743 -0.914942 -0.433326 0.514199 -1.100776 -0.649257 0.094495 -0.038592 1.045774 1.399404 2.137190 0.141932 -0.165299 -0.443369 -0.250582 1.220206 1.303082 -0.089133 0.754152 -0.432237 -0.068869 -0.859577 -0.330769 -0.230216 -0.141874 0.993598 -0.823641 0.187188 -0.103314 -0.541693 0.772614 0.111478 0.242498 -0.626164 2.184470 -0.893491 -0.267073 0.446648 -0.494774 0.286776 -0.399028 1.537693 1.359129 0.540142 -0.200815 -0.204482 -0.210923 -0.850708 0.082294 1.412965 0.331345 -1.897273 1.676261 0.037386 -0.716563 -0.579919 -0.478880 -0.786815 -1.574383 -1.958612 -0.270288 0.176874 -0.884399 -0.694459 -1.678845 0.724355 1.089816 -0.067153 -1.211962 0.445013 -1.012593 0.139155 -0.618976 -0.970616 0.946485 0.849137 1.005058 -0.188523 -0.151974 -0.729404 1.677423 -0.398472 0.989565 -1.086022 0.180662 -0.979039 0.777242 -0.536472 -0.925874 1.221979 1.163458 -0.000473 0.465258 1.145839 0.149268 -1.195865 -0.162902 0.899646 -0.131786 0.495941 0.433052 0.271901 -0.221806 -1.405021 0.020480 -1.159499 -1.626141
and -0.472878 -0.372381 1.017404 -0.340203 0.723947 0.167032 1.533013 0.363700 -0.467975 0.182282 0.784559 -0.688797 -1.173362 1.344781 -1.799928 -0.901107 -0.314302 0.084451 0.283247 -0.137447 -0.922651 0.386918 0.794994 -0.993283 0.186403 0.797445 -1.577235 2.092600 1.631934 0.277527 0.660532 -0.850979 -1.095920 0.302428 -0.214740 0.130825 -0.309637 0.697290 -0.802842 -1.138793 -0.362484 -1.056905 -1.464743 0.242342 -0.472317 0.554704 -1.261745 1.741734 1.053113 -0.974554 -1.899890 -2.355428 -1.921729 0.737185 -1.421367 -0.263035 -0.357097 0.533598 -1.523616 0.771032 -0.024583 -0.537022 0.923231 2.172694 0.160910 0.180358 -0.114413 0.274860 -0.352403 0.283833 0.284012 0.320624 -0.473440 -0.903090 -0.498488 -1.393511 -1.341390 -0.468034 1.007890 0.424584 0.230393 -0.935186 0.699589 0.914574 0.231877 -0.855715 -1.911175 0.729127 -1.346192 0.209484 -1.517738 1.442741 0.083604 -0.303343 -0.743052 -0.543519 -0.431761 -0.546587 1.759159 0.458698 1.354253 1.523861 -0.247658 0.013198 0.585483 -0.401693 -0.616191 -0.031985 0.114665 0.356770 -0.054471 -0.723121 -0.013679 -0.335804 0.143595 1.481326 -0.063863 0.358061 -1.473187 0.350700 0.456038 0.889332 -0.061075 -0.604194 -0.041482 1.237287 0.674731 0.131619
of -1.252977 -0.325946 0.074447 2.071804 0.913544 0.430282 -0.120727 1.099654 0.086535 0.523795 1.407377 -0.378378 0.357403 1.591239 -1.837978 -0.040773 0.703091 -0.320046 -0.967649 1.865396 -0.001978 -1.355842 -0.391134 -0.393682 0.619818 -0.663326 0.192890 -0.496938 0.765431 0.626572 -2.414159 0.029085 0.752893 -0.875418 0.546995 -0.515765 1.815398 0.866947 -1.623870 0.568807 0.582322 -2.593806 -0.656755 0.614543 0.376293 -0.735369 0.558458 1.291348 2.289715 1.484531 0.421584 -0.926142 -0.688086 -0.805724 0.772935 -0.855464 -1.468887 0.070291 -0.549800 0.162444 2.045343 -2.262058 -0.939175 1.197500 1.310493 -2.070528 0.093048 0.783438 -0.229731 1.779685 0.136569 0.418926 -0.538371 1.560403 -0.815581 -0.754040 0.225473 0.984608 -1.298699 -1.543572 -1.083914 1.020584 -0.429435 -2.140794 0.088336 0.973649 0.833543 0.738094 0.382729 1.311246 0.977233 0.548130 -1.002667 -1.666661 -0.893130 1.055784 0.033455 0.211635 -0.685629 -1.057206 0.664989 -0.779235 0.529467 -0.916634 0.783846 1.698839 0.048958 1.896237 0.802377 -0.213344 0.733844 0.630625 0.919827 0.137286 1.578467 -1.192892 -0.803963 -1.359523 1.340370 0.084412 1.188904 -0.268881 -0.405923 0.521210 -0.494278 0.608733 -1.000374 0.290966
to -0.029518 -1.278737 1.709524 -0.313263 0.707735 -0.018333 0.379142 0.538748 -0.002021 -0.740947 0.476774 -1.022554 0.675765 0.329865 -0.496823 0.535134 -1.156663 1.177183 1.568536 -0.838238 -0.305153 0.164050 0.828936 1.407043 -0.329192 0.753762 0.715663 0.321745 -0.156365 0.574778 -0.282533 -0.862472 1.595857 0.389289 0.429829 0.617144 0.166532 -1.148003 0.389149 0.410336 -2.191345 -0.198610 0.155246 -0.050147 -0.319415 -0.456426 -0.203169 0.143161 -1.236702 -1.142734 -1.155408 -4.152647 0.243560 0.906119 -0.891914 0.835049 -2.033632 0.394924 0.479163 -0.796270 0.165832 0.251685 1.096340 1.880909 1.259215 -1.452743 -0.538265 0.926105 -0.173010 0.025065 -0.115695 -0.440978 -0.066986 -0.842279 -0.987688 -0.434772 -0.117032 -0.023307 1.752663 0.298405 0.584365 1.189222 1.343996 -2.482933 0.687424 0.295107 -0.074292 0.607010 -0.083845 1.602789 0.849579 -1.400025 -0.442405 -0.129309 1.861231 -0.856090 -0.540413 1.426622 -0.529922 -0.512245 0.310964 1.370000 -1.123194 -0.718174 -1.402300 1.535316 -1.188637 1.683410 0.559318 0.971859 -0.010533 1.721433 0.011474 2.757686 0.040918 -0.080181 -0.837849 -0.041277 1.925445 -0.851161 1.449620 -1.378583 -2.019578 1.250340 -0.279701 0.395464 0.902504 -0.797758
a -0.244344 -1.534696 -0.497443 0.963597 -0.598655 -0.524931 -1.053971 0.909959 -1.066370 -0.140381 -1.336326 -0.563270 -0.620869 -1.168444 -1.086480 -0.346910 1.885668 -0.594622 -1.431247 1.693025 -1.239581 -2.113137 -1.618467 -1.071430 -1.028628 0.917775 0.466112 0.705050 1.203410 -0.443016 0.557306 0.224102 0.490474 -1.453174 0.883934 0.208353 -1.332059 -0.358472 0.259826 0.295867 0.352922 -1.361006 0.881358 -1.705317 -1.150110 0.532018 -0.763104 -1.878552 0.481388 -1.117857 1.209593 0.509128 -2.374739 0.498318 -0.815188 0.500061 0.682294 -1.133448 -1.266178 -1.038062 0.141865 -0.000771 1.435857 0.778377 -0.144107 -0.689208 -2.451049 2.441796 -0.688961 0.630324 0.351906 0.116009 0.056589 0.332453 -1.386035 -0.042013 0.645610 0.002546 -0.685265 -0.893214 0.851612 0.684943 -0.526847 0.136234 -1.115260 0.474189 -1.476088 -2.377915 1.598637 1.206053 0.182717 -1.132566 1.177562 -1.739404 0.971502 1.063648 0.498606 0.026339 0.399937 -0.608687 -0.624964 1.161466 -0.146067 0.635408 0.357320 2.048579 -0.283376 -1.575357 -0.950191 0.688893 0.515214 -2.002559 -0.261939 -2.420336 -2.671427 -0.049952 -0.979761 -0.601893 -0.598768 0.420293 -0.283922 -0.243783 -0.094731 0.219114 -1.108153 0.987052 0.368024 -0.473469
in -0.898682 0.527293 1.215202 -0.622665 -0.729945 -1.373824 0.546234 1.091538 -0.550047 1.704870 0.508030 1.902230 0.053456 1.124774 0.131841 -2.622406 -0.305650 0.640555 0.452365 1.056506 0.315978 -1.126143 0.868938 -0.185536 0.692452 0.204057 0.169500 1.967838 -0.392106 0.121662 1.052210 -0.829649 -0.824260 -1.428270 0.376862 0.448444 -0.958265 0.977445 -0.847454 -0.343004 0.001807 0.002257 1.028608 -1.979336 0.163023 -2.170285 0.047207 -0.524981 0.303929 -0.798419 -0.444194 -0.715909 0.051497 0.463560 -0.337421 0.562205 -1.306497 -0.923911 -0.342950 -0.907580 0.019475 2.337218 -1.921686 0.123237 0.476025 -0.002016 0.462573 -0.412534 -0.531972 1.470087 -0.157991 -0.155688 -1.936995 -0.569844 -0.086996 -0.468771 -0.399132 1.135355 1.036641 -1.555816 -0.874151 -1.026505 0.882988 -2.371307 0.718159 0.219847 -0.893675 0.381382 -3.494361 0.952278 -0.568686 -0.464268 -0.143883 -0.750611 -0.318304 -0.034672 -1.271193 1.790145 -0.780485 0.631546 0.660836 -0.719853 0.803381 0.902910 0.125089 -1.693844 -0.224140 -0.383718 0.399066 -0.033939 -0.103797 -0.802709 0.959991 0.645025 -0.963976 1.131864 -0.747532 -0.088436 2.075408 0.061437 -0.421054 0.114195 0.518512 0.780885 -1.971988 -0.176739 -0.689273 -0.988489
i 2.398845 2.337006 -0.054248 -1.728357 1.813646 0.291583 0.404665 -2.792498 1.017012 0.124738 0.278089 -0.972916 -2.402959 0.690702 1.090227 0.194983 -0.707748 0.739079 0.115354 -0.643818 -1.078397 -0.268219 0.462269 0.366298 -1.314767 2.096354 0.798351 0.261775 -1.141673 -1.131473 0.191193 0.932230 0.575231 -1.373124 0.376764 0.876317 0.913714 -0.475192 -0.880216 1.523334 0.360355 -0.878018 -0.574766 0.426520 -0.581408 0.517563 0.542182 -0.041312 -1.296586 0.507822 -1.734965 0.048132 -0.725532 0.277292 -1.024161 -0.898155 -0.120687 0.237158 -0.072249 0.553185 1.082369 -0.526836 -1.545460 2.073214 0.374556 -1.792507 0.172711 0.207272 -0.595393 0.953077 1.517232 0.400421 0.536649 0.345145 0.703012 -0.099224 -2.112044 -0.912985 -0.842144 -0.178228 -1.209717 -0.484835 0.202678 0.572163 -0.817382 -1.578889 -1.259159 -0.762528 -0.009419 0.595367 -0.137126 -1.338976 0.638581 -1.077309 0.187275 1.215447 -0.822417 -0.332112 1.542850 3.692332 0.410179 -1.430751 0.399668 -0.831490 0.823533 0.464515 -0.492948 1.530829 -2.614239 -0.066599 -3.238052 0.442330 -0.432412 1.709703 1.076440 -1.780337 -1.654831 0.081650 0.929847 0.293270 0.032390 0.116716 -0.226395 0.676053 1.861752 2.289869 0.569127 -1.389095
he 0.362184 0.506904 1.975723 -0.778418 -0.314705 0.009296 0.151093 -1.311317 0.447004 1.070241 -1.819796 -0.364875 1.235897 -0.429763 -0.247743 0.652959 -2.746041 2.212254 0.346378 0.673312 1.033253 -0.770830 -0.148905 -1.048645 0.336414 -1.417213 0.537467 -0.263885 0.825337 1.030205 0.266863 1.119929 -0.666409 -0.601806 0.653659 0.478233 -0.320519 -0.255658 -0.762950 1.354077 0.804429 0.197654 1.501013 0.145456 -0.045824 0.234289 1.198502 -0.939202 -1.658429 1.703772 -0.054369 -2.559684 -0.573978 1.500096 1.060189 -0.097529 -0.271751 1.384864 -2.248232 -0.390683 -0.060436 -0.634257 -1.257708 1.006595 -0.026676 0.435207 -1.102858 1.718756 0.758380 -1.367964 1.513041 -0.336929 -0.962811 -1.561370 3.184327 0.418795 -0.352744 0.551309 0.158136 -0.461376 0.214632 -1.088764 0.360141 -0.211663 -0.346467 -1.884594 0.098878 0.244288 -0.269324 -0.767038 -0.348640 1.439496 -1.555006 -2.372062 0.103228 0.607128 0.227889 -0.016099 -2.072684 2.335540 -0.531037 0.343806 1.570013 1.112731 -1.619554 1.530332 1.139717 -0.580906 -0.070033 -0.411390 -1.268610 0.375072 -1.394748 0.668995 0.202405 -1.555962 0.890017 0.259125 -0.733384 1.420668 -0.660482 -1.298747 -0.704063 -0.883786 1.994168 1.108063 1.086408 -0.340539
that -0.425329 -2.437673 0.826781 -1.058527 0.425306 -0.256342 1.235392 -0.338906 0.402372 -0.106301 0.871485 -1.217688 1.291649 -0.888968 -0.164746 -0.494760 -0.304484 0.754651 -1.060090 0.100421 1.633494 0.595960 1.213128 -0.118683 -2.524506 0.228073 0.301249 -0.101784 -0.968312 -0.681151 -0.923395 1.055474 1.620259 -0.438068 -0.651566 1.273224 1.911495 -1.648417 -0.703003 -0.258770 1.902515 -1.230247 -1.302519 0.100028 0.188069 1.633378 0.052500 0.093593 -0.374409 -2.058507 -1.132563 -0.941435 -0.371718 0.224164 0.486376 0.425348 -0.433424 -0.520374 -1.656987 -1.143728 0.939290 -0.983765 0.996377 -0.961484 -0.061082 -0.017575 -0.541435 -1.377831 -2.105111 0.151135 0.525754 -1.334104 -0.797347 -1.967359 0.608426 -1.048219 -1.266611 -0.760783 -0.057146 0.915154 -1.401721 0.890702 -0.549017 0.411683 0.074225 1.473840 -0.963109 1.877021 -0.000514 0.370957 -0.391345 -1.888509 0.596553 -0.798712 1.243809 1.966718 1.434171 -0.082379 -0.818126 -0.301314 1.098010 -0.333263 -0.808152 0.532799 1.866103 0.814700 -0.921999 -0.880749 0.122028 -1.422101 -1.490460 -0.221339 0.381719 0.943228 -1.022317 1.399966 0.294735 -0.743949 0.573520 1.226961 -1.726283 1.757159 -1.847636 -1.319160 0.511268 -0.018612 0.965191 -1.437384
his -0.859869 1.438988 1.128364 -1.413142 -0.112707 0.893151 -0.133689 0.684911 -0.825045 -1.119999 -0.276706 -0.883899 1.174853 0.368617 2.075559 -1.532760 -0.909506 1.891625 -0.748616 0.196096 0.350301 -1.194767 -1.488375 1.205815 -2.505056 -0.756933 -0.607157 -0.508148 2.167785 -0.840068 1.106990 0.304370 0.026645 1.041606 1.178365 -0.745136 -0.266505 -0.643298 -0.036675 0.397564 -1.549371 -0.969409 -0.164738 1.107231 -0.432878 1.294083 0.838133 -2.511483 0.489651 1.400649 -1.482679 -0.048079 0.217695 -1.392105 0.710611 -0.322846 0.299203 -0.291065 -2.873410 -0.018510 -1.586819 -0.165014 0.599961 0.163630 -0.588827 0.927102 -0.217193 0.903092 -0.067687 0.386580 2.020936 0.948331 1.412478 -1.053963 -0.454168 -0.817924 0.253778 0.945381 0.529391 -2.004218 -0.072138 0.193739 -1.169866 -1.729212 -2.367009 -0.766625 -0.531883 1.191533 0.220353 0.449004 1.517704 0.847906 -0.485674 -1.399227 -0.413895 1.377465 -0.347393 -0.210796 0.314987 0.928275 0.783931 -0.774903 2.102091 0.025362 -0.524733 -0.212236 0.032670 0.844269 -0.098462 -0.219645 0.497440 -0.594333 -0.986169 2.186448 -1.239747 0.605029 -0.096030 -0.853861 -1.850425 -2.132694 -0.020273 0.785217 1.216295 -0.154147 0.321544 -0.624519 0.376476 0.519827
was 0.654526 0.713302 0.389243 -1.143751 -0.343482 -1.284303 0.406929 -0.482768 0.052843 0.128751 0.776213 -0.646608 0.765710 -0.190319 0.443274 1.463249 2.960090 -1.831903 -1.979176 0.100796 0.411149 -1.062024 1.082514 -0.273149 -1.438567 -0.342416 -0.757748 0.258080 0.588592 0.494504 -0.014478 -0.756768 -0.217608 -3.675928 1.507950 -0.401954 -0.263480 0.045529 0.644421 0.172842 -0.256049 -0.829285 -0.258855 1.359622 0.772809 0.282243 0.303470 -0.238560 1.695141 -1.422964 -1.189640 1.327760 1.226041 1.629575 -1.607629 -1.511170 -1.474772 -0.175650 0.288603 0.929350 -0.879552 -1.450218 -0.497688 0.717465 -2.507376 0.167912 -2.639613 -1.892748 0.167440 -0.731703 0.308202 -0.136170 1.164000 1.295233 1.287772 -2.031624 -1.075694 -1.057139 -1.072441 0.262167 1.340375 -0.983612 1.312636 -0.525760 0.375502 0.527576 -1.926384 0.227037 0.763818 -1.239062 -0.338793 1.929050 -0.064173 -1.440540 0.430502 -1.287969 -3.228740 0.309808 2.061281 1.536190 -0.014378 0.726860 1.783282 0.107998 0.026003 -1.088817 -0.338409 -1.166375 1.889214 -1.888538 0.755141 -0.696333 0.244339 1.739413 0.321371 -1.331642 -0.894367 -0.442806 0.876504 0.205052 1.819941 0.980764 0.115336 0.732509 0.732658 -0.342303 1.238218 1.383461
it 1.971249 0.079348 0.231941 0.043382 -0.122164 0.614579 -0.197600 -0.872084 -0.843813 -1.385780 0.534355 1.349676 -0.077361 1.447230 0.274547 -0.592023 -1.567689 -0.311432 -0.038782 0.894895 -0.490978 0.939934 -0.813980 -0.522219 -0.873978 1.028106 0.280793 0.424726 0.154652 -1.289540 -1.849893 -0.043155 0.087079 -1.838465 -0.198671 1.381336 1.355799 1.403062 0.594468 0.461365 0.738426 0.546532 1.112076 -0.536283 0.006708 -1.110238 0.614798 -0.119579 -0.082735 0.159911 -0.211822 -0.265937 -1.675780 -0.845500 -1.652519 0.170778 -1.089568 -0.827874 -1.453433 0.500238 1.838325 0.788082 0.579311 0.429085 -0.618843 -0.371135 -0.843974 -0.389585 0.049796 1.564650 0.308333 0.477143 1.208844 -0.256808 1.027004 0.973747 -1.166439 1.603216 -0.034587 -0.212801 0.505802 -0.710283 0.044834 0.936370 -0.761314 -1.757898 -0.499533 -0.848083 0.678493 1.203851 1.398730 -0.381454 1.862839 0.967133 -1.481109 -0.289378 -0.497705 -0.426969 -2.509664 0.753457 -1.433041 -1.112738 0.303898 2.522868 1.468499 0.409081 -0.240424 0.373435 0.133109 1.466600 -1.472884 -0.633606 1.654331 0.417875 -0.197666 2.103265 -0.579534 -2.202064 0.941968 0.611593 2.207133 -0.852438 0.754310 -0.670344 -2.367405 -1.759304 0.574515 -1.554770
you 0.198455 -0.481971 2.637302 0.335539 0.970263 0.811187 -0.640622 -0.284798 -1.103834 -1.116614 0.293075 2.087885 -0.788854 -0.984964 0.576921 -1.064900 -0.022653 -0.133823 -1.554880 -0.508721 0.839123 0.578239 -0.900602 0.380525 0.814252 1.156154 -0.817107 -0.850939 -0.628749 1.215870 -0.521301 -1.551829 0.937084 0.833921 -1.312790 -0.360752 -0.017925 -0.048723 -0.216076 -1.550257 1.289532 -0.987314 0.660823 1.389825 -0.067989 -0.226205 -1.099305 -0.515866 1.551345 -0.494958 -1.035563 -1.186633 -0.796017 -0.691777 0.933596 -0.385978 -0.524194 1.097456 -0.693891 1.751198 0.322021 -1.712039 0.881525 -0.109368 -1.667689 0.956804 -0.711745 1.448143 1.832334 1.713590 -0.976367 -0.171233 0.022910 -0.748966 -1.090637 1.689521 -1.449338 0.909677 -0.768945 0.589778 1.117830 -0.253957 1.012565 1.035051 0.537000 -0.358930 -0.088425 -0.654436 2.798550 -1.055011 0.337412 -1.614707 0.571594 0.427611 -0.472710 0.357909 -1.827427 0.951084 -1.532285 2.026321 -1.517404 0.972154 0.678263 -0.991237 -0.530095 -1.937268 0.314485 -1.149920 0.217645 -0.293958 -0.790390 0.624913 0.617252 1.781573 -0.335031 -1.226114 -1.146176 0.502693 0.100467 -1.090905 -0.699282 0.539225 -1.551800 -0.088102 0.057249 0.762352 -1.868864 -1.015018
with 0.538723 -0.980690 0.241512 -1.273897 0.337737 -0.975083 -2.577056 0.537574 0.869648 -0.260044 -0.898124 -1.185350 0.211648 1.414883 -0.277602 -0.475628 0.340665 1.305774 0.170398 0.072674 1.334528 -1.585501 1.352056 -2.920109 0.018859 -0.710814 0.064265 1.432173 -0.686246 0.877234 -2.034016 0.624023 0.993301 -0.946743 0.067222 -0.254727 -0.222820 1.622205 1.030830 -0.463712 -0.075500 1.937427 -0.484879 1.153245 0.397628 -1.174630 -0.068888 -0.493448 0.828622 -0.697039 -0.699008 0.693732 -0.331708 -2.165152 -0.030136 -0.304042 -0.534552 -1.620212 0.912438 1.999668 0.832436 -0.221698 -0.797631 -1.113504 -1.073387 0.077150 1.584270 2.042845 -0.333427 1.892165 0.194552 -0.606574 -1.350000 1.179454 -0.070804 -0.904869 -0.747925 -1.421519 -0.140870 0.336054 0.527679 -0.327907 0.891642 -1.290425 1.377273 -1.148542 -1.722597 0.942254 -1.002599 -0.240316 0.493344 0.148971 -0.877859 -0.866945 0.367747 1.019958 -0.063486 -1.984868 0.175283 -1.110286 1.718307 -0.433301 -1.378003 -1.365600 -0.484939 0.516071 -0.764171 -0.702432 -2.081981 -1.444940 1.361485 -0.509161 -0.496029 -0.253415 0.357724 1.685915 -2.244930 -1.744267 0.111286 -0.283424 0.239684 0.046090 -0.330830 -0.936351 1.630841 -1.150771 0.053549 0.303959
is -0.372830 0.069266 2.160335 -1.024531 -0.603605 -0.312729 -0.556841 -2.078773 0.265286 -0.222565 -0.927423 -0.136283 -0.275738 -1.415627 -1.278279 -1.293128 0.037762 0.512910 -0.085979 -0.786094 -0.979347 -1.309448 -1.715223 0.628839 1.067979 0.769207 0.402850 0.383161 -0.278201 1.313637 0.724077 -0.229214 -0.108791 -1.091235 1.231653 -0.137351 -0.505412 -0.948031 -1.512564 -0.594521 0.572725 1.516636 1.877614 -0.069022 1.675176 -0.165342 -1.559408 -0.190549 1.180703 -1.336338 0.437263 -0.752374 -1.538771 1.344522 -0.191797 0.036087 0.002962 0.002238 0.362701 -0.485544 0.451428 1.914651 0.388981 1.703904 -0.670237 -0.918186 -2.047839 -1.933017 -2.678091 -0.130774 -0.796814 -0.691218 -0.004961 -2.018072 1.967576 0.849034 -1.019473 -2.381752 1.397693 -2.305383 -1.388086 -0.706637 -2.030972 -2.151392 1.720545 -0.158255 -0.693795 0.394475 0.711529 -0.319010 -1.085152 0.707120 0.259652 0.732184 -0.835396 -1.090060 -0.768715 -1.207455 -1.449062 0.534155 0.039062 0.891591 1.326482 0.391792 0.755980 1.925798 0.159453 0.983819 0.535095 0.066658 -0.383461 0.527474 1.799608 1.894775 0.240326 -1.713021 0.424476 0.847624 2.795689 0.555030 -0.917511 0.624557 0.716048 2.259159 1.046157 1.051616 0.175405 1.161143
as 0.480866 0.771846 -0.344033 -2.499149 0.025775 -0.519741 0.620418 -1.496453 -0.614638 -1.663404 -0.047161 0.019463 -0.987975 -0.930038 0.432254 -1.492493 0.340246 0.823223 0.384040 0.642897 -2.903378 1.184865 2.475718 -2.160119 -1.908604 -2.818734 -1.651665 0.273838 1.106470 -1.067940 0.447567 1.000442 0.016102 0.128036 -0.649862 -1.378367 1.585605 0.200203 -1.409489 2.172215 0.449187 1.814412 -0.902925 0.855329 0.869740 -0.188868 -1.247869 0.038168 1.553543 -1.171741 -1.765825 -1.133290 -0.465537 0.775583 0.594185 1.554067 -0.306808 1.329076 0.757085 0.021129 -0.833456 1.291710 -0.620965 0.107290 0.782127 -0.229844 1.249581 1.503584 0.821323 0.418602 -0.532367 0.711798 1.373993 1.608074 0.979288 -0.559117 -0.306607 0.117819 -0.797442 -0.687207 -0.592270 -1.252774 -0.534437 0.405129 0.154747 -0.700014 -0.215536 1.613886 0.323509 0.536632 -1.600626 -0.727724 0.786645 -0.170448 1.548737 0.355963 2.162030 -1.956901 1.499623 0.569745 1.588607 1.198051 0.414308 -0.287208 0.184237 0.187112 1.308871 1.116617 -0.720039 0.190768 0.958343 0.711171 0.653182 0.187666 -1.214161 -1.105259 0.245905 0.595095 -1.101467 -1.915419 0.034742 0.568773 0.203597 -0.679444 -1.674894 1.233042 -0.941916 0.315512
not -1.325262 -3.255958 -0.449355 -0.705603 -0.626066 -1.917941 0.330709 -0.186560 -0.106992 -1.045694 0.328243 0.568901 1.174735 0.102306 -0.520832 1.192795 -0.835814 1.785724 -2.709272 0.917148 0.760425 -0.933896 1.162497 -0.402093 -2.303547 -0.039654 -0.642174 0.144092 1.928318 0.650991 -0.758123 2.802778 2.131488 -0.669339 -0.429941 1.405106 0.069609 -0.550960 2.465039 0.250747 -0.227165 0.774527 -1.031091 0.810203 2.065555 -0.207498 -0.783250 -0.962301 0.410382 -0.477969 0.072705 -0.154605 -1.115378 0.252683 -0.165943 -0.449409 1.274563 1.634048 -0.358314 -2.300382 -0.286950 1.805591 -2.837272 -0.606096 -1.216042 -0.575058 1.196072 1.128813 0.341767 -0.233208 -0.591078 1.154507 -1.459537 -0.204283 0.678898 2.256600 0.253084 1.267158 -0.060773 0.982595 -0.916850 -0.354939 0.176180 0.286586 0.091922 -1.452717 -0.677616 -1.039553 0.534192 -0.401835 -0.441097 -0.724876 0.226493 -0.766942 -1.704096 -1.280483 0.306542 -1.201113 -2.003469 -0.985736 -0.064513 0.489295 -1.112251 -1.969587 0.175518 -0.199877 0.852963 0.617096 -0.722736 0.603374 -0.979289 -1.188649 -0.740044 1.338236 0.930302 0.499669 -1.757088 -0.912621 -1.553171 0.015906 -0.591601 1.403804 0.832478 -0.827764 0.119126 -1.475148 -0.281494 0.059550
for 1.503850 -0.809303 2.108853 0.493999 0.695377 1.983191 0.213215 0.893568 -1.956272 1.405969 0.675880 -0.466907 -0.870495 1.712801 1.309262 -0.440485 -0.383551 1.428813 -0.416231 -0.802706 0.109693 -2.095618 1.168093 -1.328383 1.088948 0.441073 -0.974633 0.214950 -0.619236 1.765331 -0.258890 1.867611 1.271531 -0.692603 0.109142 -1.103813 -0.551222 -0.653821 -0.631021 -0.320986 0.385255 -0.382198 -0.413928 0.418191 0.029374 -0.779890 -0.061828 -0.346783 -0.712581 -0.873418 -1.556768 0.161122 -0.096438 0.403677 -0.020075 -0.889885 -0.871723 -1.766335 -0.671480 2.609203 -0.702140 0.263826 -1.498064 -0.248998 0.679012 -1.631502 -1.312818 0.524559 -0.399429 1.813160 0.374360 0.247152 2.484563 -0.313525 -0.846929 1.549782 0.265028 0.573547 1.066963 0.008702 -1.978768 1.136964 -0.302734 0.581237 2.123415 -0.672249 -1.372082 -0.086930 -0.493974 0.176774 -0.699679 0.022308 -0.528456 -1.787245 1.869082 -0.294271 1.160063 1.208202 0.478445 -1.797037 0.864002 1.472364 1.858144 0.225997 0.381044 0.533511 -0.283420 -0.426201 0.113922 0.502939 0.300612 1.893778 1.096080 0.351084 -0.719295 -0.683844 0.650893 -0.369764 0.961361 -0.772661 0.737593 0.071118 0.274732 0.896254 -0.775664 -2.515370 -0.695040 0.110392
had 0.277944 -0.443752 -1.726617 -0.793091 -0.377151 -0.986750 -0.060097 0.221037 -1.058404 -0.204055 -0.660100 0.537245 1.532588 -0.272311 -0.457542 1.339441 0.958071 -1.733297 0.459358 0.333570 0.733159 -0.782956 0.155515 1.097604 -1.178481 0.726728 0.782138 0.980329 -1.572445 -0.089593 -1.998952 1.001347 1.408336 -2.141402 1.561194 -0.095971 0.454068 1.129455 1.078261 2.237849 -2.048656 2.220808 -0.930622 0.534751 2.427434 0.496996 -2.638661 1.602368 0.001047 1.273064 0.258157 -2.233097 -0.579038 0.472098 -2.307958 0.700805 -1.658792 -0.616172 -0.192337 2.138953 0.264282 -0.803324 -0.989287 0.123785 0.962993 0.841658 -0.004687 -0.303156 -1.589301 0.044873 -0.292315 -0.490500 -2.220063 -0.384948 -0.688210 0.856399 -0.958587 -0.292476 -0.059615 -0.610706 -0.382939 -0.303197 -1.745202 -2.028929 -0.598849 -0.666820 0.390138 -0.310804 0.814588 -0.494628 -2.203525 0.843614 1.663794 0.003340 -0.143312 -0.482121 -0.172298 1.019590 -0.736912 1.563254 -1.426814 1.195844 2.333941 2.297054 -0.072540 0.487664 1.122334 -1.986068 -0.286719 -1.386294 0.308527 -0.172179 -1.784267 1.468162 -0.426189 0.266298 -1.927412 -0.116555 -0.640381 -0.388186 -0.485032 0.968354 -0.547198 -1.169053 -0.167490 -0.591776 1.399504 1.412263
but 0.105430 -1.824512 0.720939 0.483835 -0.514303 -0.616841 -0.227233 2.245201 0.139818 0.082444 -1.463551 -0.534344 -0.461516 0.289944 0.550785 0.311918 0.596848 -0.240565 0.394141 -0.077535 -1.564327 0.151317 1.634220 -2.693905 -0.838652 0.926419 -0.791078 0.807105 0.013541 -0.698302 0.488252 -0.291345 -1.199235 -0.951978 -0.205386 -1.103691 0.604306 -0.380776 0.784844 1.343969 0.098800 -0.915179 0.723383 -0.080640 -0.091908 -0.309599 0.005302 -0.216467 0.765599 0.153949 -0.417964 -0.257791 -2.118150 -1.605942 0.776244 0.695250 -1.133104 -0.098717 -1.539696 1.568274 -0.093240 -2.658247 -0.000151 -0.061492 -1.965932 -2.046825 -0.378984 0.264378 -0.442927 1.647019 -1.771123 -1.315673 -1.035023 -0.129638 0.122274 1.496080 1.629892 -0.457978 0.070196 -0.367146 -0.196911 -0.386456 0.620873 0.141826 -0.651685 1.395748 0.964296 0.080290 -1.922824 -0.011537 0.211725 -0.285942 0.512323 -0.835432 -1.519804 0.060842 0.619968 0.185639 0.876430 -1.695405 0.195342 2.178246 -0.173598 0.309894 0.110238 0.609786 -0.730108 0.704749 -0.565293 0.323797 -2.052249 1.527940 0.480456 1.101128 0.685920 -0.010447 -0.430995 1.061795 -0.384779 -1.786960 0.029926 0.598923 -0.217779 -1.173655 0.061504 -0.270114 -0.400771 -0.319849
at -1.592925 0.335833 1.843551 -0.282190 -0.737549 0.918644 0.206472 0.845132 0.723866 0.581114 0.748718 1.391592 0.511291 -0.874841 -0.303346 1.553277 0.606842 0.626245 -3.106827 1.374470 -0.396305 -0.604403 -1.005907 -0.029659 0.844914 1.420627 1.333978 0.379134 -1.992336 -1.453694 -1.085562 -0.683282 0.506463 -3.263685 -0.554259 -0.723898 0.696308 -1.014927 -0.972334 -0.531335 -0.157837 0.462947 1.252288 -0.129916 -0.460162 0.689477 -1.140504 -1.329089 0.504647 -1.313367 -0.612013 -1.107647 -0.653820 1.172540 0.517860 1.067766 -0.474895 -0.142996 -0.942081 -2.801319 -0.015862 0.933240 -2.500089 0.465031 0.155665 -1.045198 1.736595 2.427575 0.379892 -1.070276 -1.079981 0.148433 0.700492 -2.853623 -3.084062 0.272819 0.255302 -0.955048 0.082860 0.320309 -0.614560 -0.248119 0.818708 1.035733 2.040983 -0.090683 1.078500 0.389531 -0.402418 0.024459 1.758575 0.775725 1.894871 -1.401657 0.168313 -0.619660 0.975456 0.074796 0.415754 0.048478 -0.957629 0.755468 1.787599 -0.676470 1.117114 0.113694 -0.417127 -1.418434 0.270242 -0.989729 -2.502853 -0.133941 0.323279 -2.446569 1.423026 0.550793 0.407873 -0.899846 0.326580 -0.107470 0.267068 -0.196106 0.142690 -0.607033 1.037228 0.355976 1.423504 -1.036697
be 0.322572 0.105909 3.131436 -1.805510 -0.326262 -2.947554 1.553645 0.742802 0.386925 1.796965 -0.573683 -0.060219 -1.216547 -1.646586 0.397684 -1.393153 -1.177160 -1.316687 -3.312212 0.730047 -0.607570 1.606356 0.588884 0.098318 -1.670800 1.095283 1.868340 -0.383715 1.888178 0.503994 -1.529080 0.041833 0.104475 -0.242719 -1.401438 -0.630383 1.001576 -0.089675 1.270310 -0.036627 0.988083 -0.090358 0.425668 0.915355 0.337337 0.337732 -2.119318 -0.631838 0.566453 0.784734 1.268314 1.328119 0.873443 -1.489366 -0.194293 0.239875 0.876880 -0.814943 -1.097348 0.311871 -0.160286 -1.362687 0.233155 -0.591882 -0.011675 1.903356 -1.239944 -0.015791 0.527593 -0.352746 -0.764356 0.759887 1.759916 -0.090583 -0.629231 -0.131192 -0.315304 -0.045625 0.750842 0.104105 -1.764592 0.920926 -0.383660 0.746821 -0.557885 -0.406774 -0.411195 1.522705 -0.669620 -1.696054 0.990659 1.203100 1.242961 -1.466087 1.596112 1.066822 -1.957584 1.383050 -1.753065 0.435373 -0.884824 1.060959 -1.992664 1.331045 0.873167 -1.170949 2.700289 -1.382520 -0.205498 0.013718 -1.095820 -0.646136 1.020667 -0.027193 -0.913551 0.619201 -1.083379 -0.758753 0.922774 0.190707 0.137701 -2.065814 -0.053939 -0.603316 0.515896 2.548459 0.026223 -0.612333
on 0.803233 1.389710 0.156224 -0.813615 0.549352 -0.656225 -1.282828 0.214817 -0.197224 0.537635 -0.413125 -0.084648 1.501987 -0.565254 -0.134732 -1.158111 1.114311 0.538059 -0.149565 0.077946 0.283237 -1.437873 0.950666 -1.260280 -1.323619 0.092461 -0.937833 0.237010 -0.450246 -1.425994 -1.279030 -0.622710 1.779585 -0.861230 0.605845 -0.058424 0.747466 -0.256233 -0.070617 -0.614703 0.745149 0.449139 0.741007 -0.630214 0.917454 3.453486 1.791282 -0.945214 3.215108 -2.325708 1.100049 -0.534837 -0.463756 -0.211083 -0.059269 -0.940967 2.340539 -0.419986 0.638084 -0.280877 -0.525331 -0.026787 0.001572 1.285660 1.578286 -0.993182 1.743114 1.170690 1.195680 1.275788 1.491138 0.206807 0.008958 0.986877 -0.785580 -0.212505 -0.177191 1.757167 0.993845 1.651706 0.562665 -0.897631 1.571107 -0.418143 -0.559903 -0.242406 1.101038 -0.632867 -0.756218 -1.729741 -0.031075 -0.053510 1.157884 0.385070 -0.332825 -1.124274 0.194478 -0.898529 0.968861 0.334831 -1.741279 0.645027 0.264272 0.309818 -0.513119 1.070402 0.909334 -0.353579 -0.595524 0.695315 1.154750 -0.739983 -0.169440 0.630256 0.728967 -0.559380 0.172593 0.208599 0.667558 0.519815 1.267484 -2.162015 -0.312148 -2.301455 -0.281707 0.117265 1.218271 -1.807677
her -1.754163 -1.277665 -0.220860 -1.071179 0.154125 -0.074389 -1.465976 0.149735 -0.534883 0.636375 -1.660988 -0.317598 -3.303444 -0.193486 -1.180825 -0.965897 -0.112902 -0.770765 0.298204 0.753975 -0.984772 -1.246655 0.584645 0.700907 -1.281104 1.402904 -1.090791 -0.346896 1.697248 -2.303043 1.371668 -0.365910 1.918935 -0.624372 0.980852 -0.812455 0.447473 1.020246 1.072248 -0.782997 1.989572 -1.210544 2.602996 -0.358160 1.717906 -0.731612 1.407069 -1.663777 -0.365906 -1.136110 -2.519529 -2.089029 1.187945 -0.941945 -1.051616 0.175770 0.169843 -0.022115 0.512974 1.827006 0.472299 -0.582329 0.572952 0.719469 -1.204185 1.931018 -1.636507 -1.039342 0.614020 -0.870894 -0.238437 -0.056465 -0.222398 -0.570811 -0.916489 -0.930428 -0.530728 -1.024489 -0.314613 -0.409465 -1.352214 1.194491 0.982474 0.493573 -0.322367 0.643993 -0.909451 -0.635464 0.323101 0.706502 1.066145 0.354442 -0.797671 0.977863 -1.149122 -0.159155 1.790340 -0.890483 1.826983 -1.034558 0.982165 -0.855112 0.746084 -0.909381 -1.049098 0.716031 0.615559 -0.287054 -0.846650 -3.038177 -0.257337 -0.709727 -0.780610 0.864506 0.034723 -0.186119 -0.339742 -1.657189 -2.252544 0.822224 1.002974 -0.871623 -0.071471 0.591400 1.816014 1.004984 0.260034 -0.650719
my -1.318963 0.146874 1.863860 -1.289161 -1.215781 1.396664 0.976592 -0.079570 -2.884375 1.040280 1.687434 2.336956 -2.078673 1.297663 -0.578755 -0.069385 -0.492258 0.515921 0.704465 -1.100798 0.371095 -0.760023 -1.254506 -0.082438 -1.592723 -0.208399 -0.360581 -1.260369 -0.194662 -0.238052 -0.870445 0.838096 0.403144 -0.066413 0.321128 -0.394397 -0.132394 1.017203 0.657650 -0.842026 -1.485924 -2.443611 -1.146006 -0.413697 -0.677629 -1.023726 -0.808387 -1.307215 -0.702473 0.413276 -1.675956 0.189273 -0.470759 1.108968 0.208044 -0.725939 -0.662189 1.140558 -2.209802 1.296464 -0.039514 -0.226112 1.102850 -0.534435 -0.489220 -0.476367 -1.256979 0.974131 -1.586817 1.276295 0.884502 0.335306 -1.854050 1.200791 -1.206838 2.021952 0.208444 0.366773 0.854903 1.913338 1.182617 0.192318 1.168068 -0.048211 -0.872231 0.442699 0.280155 0.000763 1.286338 -3.001624 -0.013930 -0.100451 0.093773 -1.015461 2.318634 1.585455 -1.604143 1.274973 0.775606 0.826449 1.466848 -1.290153 0.188297 -0.854098 -0.131358 1.104602 -0.959026 0.831576 -0.357708 -0.141897 0.596228 2.487692 0.802407 1.325274 0.464598 1.366344 -0.176164 -1.301786 0.727988 0.815922 0.332467 -0.173351 -1.083681 1.439063 -0.111763 1.272007 -0.464125 -1.193272
him -0.254110 0.744138 -0.239105 -0.050364 0.856107 -0.937194 -0.717086 -0.444933 -0.441529 -0.178469 -0.882653 0.052346 1.566445 -1.649996 -0.028583 0.365526 -0.300260 0.058298 -0.768594 0.341303 -0.143202 0.442027 -0.277073 0.105235 0.740268 -0.006915 -0.465066 0.781726 1.309751 -0.722910 -1.228430 -0.142733 -0.672312 0.722448 0.332094 0.348018 -0.199502 0.186673 1.760366 0.753648 0.976549 -1.866578 -0.041244 -0.283239 0.322950 -0.087427 0.923935 -0.751219 1.016292 -0.469496 -0.784368 -0.883809 -0.185110 -0.039633 0.161385 1.023608 0.687728 -0.941607 -1.561071 0.921113 -0.886242 -1.821243 -0.204526 1.289939 -0.615209 1.506743 -0.363756 0.890790 -0.418639 -0.211442 -0.508930 -0.479370 1.687111 0.364535 0.189663 1.057935 1.800770 -0.091506 -1.532366 -0.894689 0.093864 0.461991 0.990809 0.138005 -0.027324 -0.375841 -0.283399 -1.964271 0.241043 0.852750 0.434665 -0.562436 1.193000 -0.757137 0.962880 0.777756 0.903554 -0.408838 -0.031051 2.130831 0.724584 1.018929 -0.171622 0.092075 -0.762976 2.022500 0.536177 -0.523585 -1.606730 -0.393298 -0.767846 1.022217 1.202597 1.267663 -1.326093 1.485082 -1.133983 -1.525771 -0.259364 -1.278271 -0.341813 1.175525 0.995498 0.775999 0.809414 0.177520 0.182689 0.106583
have 2.059639 -1.179744 0.194045 -1.331856 -0.065849 -1.699193 -0.277814 0.325862 0.403813 0.034322 -1.175187 1.357532 -0.209400 -0.747937 -2.968538 0.722267 -1.709002 -1.437495 -1.483711 0.023310 1.420921 1.274435 -0.324425 0.775628 -1.303482 -0.742655 -0.033672 -0.199916 0.160172 0.072559 0.498849 -0.000721 1.676939 -1.029743 1.733207 1.228305 0.090495 1.527498 0.172350 -1.476005 -0.909301 -1.264323 0.926047 -0.503935 0.256560 1.746317 -0.752373 -0.472326 1.486714 0.325462 -0.822237 -1.836210 0.547391 0.561325 -0.451332 0.047315 0.126138 1.187287 -0.072853 0.731026 -1.576004 -0.662811 -1.285533 -0.081701 0.787873 0.379680 -0.393098 -0.111054 -0.791030 0.333172 0.637519 -1.611181 0.676545 0.041284 -0.152308 -1.578959 -1.152530 -0.840191 2.388408 0.051699 -3.146691 0.009361 -0.120671 0.598173 0.765679 -1.956801 0.725749 2.591034 -0.782311 -0.877586 -3.055960 0.565169 0.546098 -0.465595 0.457276 -1.255552 -0.496192 2.328124 0.092526 0.546452 0.584029 -0.774536 1.299484 -0.675195 0.101637 -0.396913 2.127275 -0.973672 -1.564713 1.006588 0.082478 0.995397 1.135666 -1.357654 2.245817 1.100343 -0.026814 0.214599 0.691668 -0.215814 -0.178681 1.590160 0.185414 0.969781 0.155911 0.089470 1.706332 1.106314
by -1.078304 -1.990534 0.636252 -1.155586 0.848347 -0.952260 -1.487209 0.043967 1.795675 -1.257185 1.319019 -0.176276 0.624218 1.201510 -1.295620 3.036249 0.876126 -0.066244 0.482114 -1.493008 -1.168661 -2.067431 0.463069 0.771389 1.236924 0.288557 -2.357200 -0.949912 0.926412 -1.522026 -1.230350 -0.367375 0.112590 2.030292 1.372001 -0.299654 -0.403453 0.277957 1.338850 0.006620 0.188999 -1.229586 -0.265667 -0.510459 -0.815546 1.585330 -1.327794 -0.802932 -1.169279 -0.518542 2.484476 0.165704 -0.056803 -0.011071 2.022507 0.885954 -0.493498 -0.889384 -0.667562 1.303370 -0.364770 0.541538 -1.205601 0.417727 0.377808 -0.027836 0.538815 1.872106 -0.890902 2.690345 2.642466 1.259436 -0.854077 -0.990328 0.268053 0.372071 0.608948 -0.411825 0.587834 -1.073263 -1.315271 -0.108496 0.975756 -1.132541 0.292040 1.054149 1.132929 -1.150135 1.015844 0.989886 0.259792 -0.481061 -0.745198 -1.243615 -0.985536 1.018242 0.368876 2.221053 0.930200 -1.128521 1.392840 1.136685 0.199961 0.729418 -0.373362 -1.310551 1.056926 -0.710234 -1.710228 -0.049576 0.298566 -0.110735 -0.525080 0.278427 1.150840 1.349170 -0.871164 0.938140 2.354507 -0.176743 1.823967 0.080996 -1.821135 0.106897 0.823888 -0.543476 0.178607 0.025310
this -0.256781 -1.392364 -0.193165 0.566810 -0.359999 -0.605019 -0.116391 1.413687 -2.270010 -0.693936 1.251756 0.033837 -2.086645 -0.703365 0.814191 -0.153037 1.186355 -0.777830 -0.183915 0.086342 1.023667 -0.629797 -0.900837 0.585216 0.780423 0.060808 -0.986783 -0.878373 -0.061608 -0.388225 -1.204142 0.823471 -0.226309 0.112272 -0.489608 -2.859220 1.477937 -0.328233 -0.224324 0.269587 -0.543810 0.265443 0.151589 -2.204622 1.029916 1.654169 -0.151545 0.897129 -0.306555 -0.050059 -1.577176 -0.844984 0.088408 1.547608 -1.371199 0.167377 -0.513291 -0.381920 -0.385967 -1.445549 -1.650575 -0.506120 -1.102762 2.362309 0.271516 1.240468 -2.793441 0.675295 1.244670 0.823661 -0.975960 0.154813 1.885782 -0.182810 2.018428 -0.595788 0.029654 0.548714 0.489663 -0.479748 -2.828539 2.473008 0.773063 0.877599 -0.255642 1.597057 -1.124002 -0.871812 -1.256856 -2.133389 -0.272030 -0.367302 0.641526 -0.065454 -0.117331 -0.333908 -0.697317 -0.063067 -2.216443 2.824468 -0.495601 -0.384321 1.249168 1.719784 1.004034 -0.631245 -1.081038 -0.139698 0.149172 -1.466402 -1.153866 -0.565306 0.312665 0.524001 -0.946958 0.332196 -0.017411 1.266708 0.880461 0.861832 0.562804 0.447845 -1.600373 0.994342 0.628237 -1.029688 -0.869306 -0.713712
which -0.966351 -0.199376 0.168617 0.403649 -1.137317 -1.499858 0.975022 0.012353 0.375402 1.666558 1.404780 -0.647717 -0.348010 -2.573880 0.470921 -0.073675 -1.094754 -0.951784 -1.049332 0.331893 -0.002837 -0.252513 1.997761 0.448283 -0.664515 -0.060091 -1.843729 -1.715639 0.261485 1.000145 -0.169608 -1.616699 -0.133673 -1.035546 0.523588 -0.308908 0.993622 0.746978 0.000854 1.144444 -0.105089 0.030650 -2.240540 -0.156992 0.767080 -0.520755 0.545908 -0.050245 0.633197 0.927364 0.084866 1.714428 -1.506738 -0.682252 -0.016967 -1.568624 -0.221784 -1.319594 -2.942018 0.314830 -2.035794 0.695338 2.301679 1.899374 -2.411980 0.961139 -1.566439 1.005214 1.333803 0.579867 -1.476345 0.055577 -1.063384 1.871813 1.545225 -0.215202 -2.226766 -0.448580 -0.889432 -0.989661 -0.272776 -1.196326 -0.941521 -0.049515 -0.343128 0.133243 -0.767034 1.206532 -1.755136 1.954532 0.027883 -1.162963 2.291830 0.522703 0.899576 0.529031 2.062994 -0.351896 -0.019099 1.014483 0.370726 0.651800 -0.635012 -0.149190 0.119641 0.377395 -0.875150 0.387184 -0.432977 -0.848905 -0.233975 2.031074 -1.193598 -1.080653 -1.097292 -0.164623 -2.242751 -0.580964 0.758224 -0.739529 1.811916 -0.230975 -0.730976 1.808550 -0.204684 -0.906553 1.215906 -1.411963
me 1.324117 -1.079711 -0.158342 0.338110 1.677269 1.225095 0.181359 0.271737 -0.730076 -1.240560 -2.551841 0.356772 -0.397414 0.168201 -1.045512 0.277458 1.630550 -1.496712 0.227418 -1.742292 -0.855247 -0.123268 -0.849032 -1.868148 -0.890447 -0.124293 0.043673 -0.609428 -1.007400 0.161961 0.155258 0.526602 0.296826 0.107694 1.799024 -1.733021 -0.043060 0.955594 2.224105 -1.162519 -0.044800 0.794445 1.188847 -0.831933 2.930896 0.768055 -0.544309 0.750441 -0.818744 0.934853 -1.880111 -1.727333 -0.253051 0.366092 1.316629 0.380033 -0.630926 -0.729197 -0.500392 1.494623 -0.268415 0.578543 1.162415 -0.460402 0.561194 0.977304 -1.370151 -1.182591 1.824971 0.560941 -0.879927 -0.130617 0.021147 1.189827 0.274491 0.831429 -0.670690 0.201006 -0.934451 0.133375 -2.114985 -0.932872 0.257799 -0.668279 0.269307 -0.647310 0.153554 -0.536678 -0.030838 0.269342 1.314596 0.491613 1.721299 -2.158500 0.409113 1.940157 -0.224178 -0.448384 -0.334738 1.264301 -0.959476 -1.109284 -0.678190 -0.082041 -0.703121 1.817065 -0.304145 1.943804 -0.730588 1.799193 -0.461254 -0.122775 0.014513 1.833459 1.163190 0.365571 -0.228288 -1.292304 -0.675902 -0.464678 -0.205244 -0.236846 0.380929 -1.363775 -1.847813 0.182415 -0.837631 -1.199328
all 0.013796 0.814256 0.089653 -0.863708 0.011443 -2.212251 -1.270837 0.402780 -0.456714 0.640377 0.817791 -0.767048 0.467886 -0.517290 1.143909 -2.039937 1.346272 -0.857360 -0.984343 -1.536298 -0.994699 0.884430 -0.510969 0.125326 1.858942 -2.063102 -0.542251 -0.681810 -2.829526 1.143603 0.608257 -0.766995 -0.684170 0.940682 2.123355 0.499447 0.098555 -0.804633 -0.348623 -0.405982 1.042905 0.441673 -0.150923 -0.663976 0.646522 -2.536677 0.366699 -0.981312 -1.317446 -1.603007 -0.651293 -0.922288 -0.050870 0.345507 -0.357769 0.718899 0.994707 -1.061541 -1.426799 0.190164 0.184023 0.249865 1.317306 0.048501 2.009238 -1.750747 -0.663064 -0.579058 0.219232 2.936540 -0.415722 0.854071 -1.734548 0.105459 0.077541 1.610367 0.256533 1.586978 -0.615621 -0.087508 -0.982886 -0.212029 -0.360820 -0.698901 -0.761633 -1.538167 0.274465 -1.097008 -0.649573 -1.145577 -0.177840 -0.420791 1.372055 -0.619430 0.880739 -0.747562 -1.339710 -0.067454 0.622749 0.444648 -0.526083 2.117175 0.636997 -0.401838 -1.546301 -0.280967 1.006302 -1.810086 2.007423 -0.794082 0.435961 -1.137811 -0.159494 -0.762680 1.030786 0.514096 -2.119486 -0.925409 0.299693 -0.152774 1.580834 -0.535957 -2.112981 -0.076023 0.536585 1.766828 1.461959 -2.009582
said 1.532228 1.184053 -0.379821 0.585245 0.941615 -0.484467 0.978770 0.103087 0.469142 -0.952592 -0.213499 -1.420866 -0.518223 -0.112419 0.213142 0.755999 -0.335549 0.074422 -0.011104 0.962921 0.045053 -2.626303 -0.638364 1.162780 0.650104 0.800360 -1.842502 1.701234 1.249729 -0.221578 1.631771 0.332871 1.009122 -0.722882 -1.904847 -0.197809 0.343914 0.083095 0.331652 -1.110725 -0.784832 1.249257 -2.530853 0.563627 0.437607 0.072412 -2.205945 -0.406211 -0.599442 -0.917830 -1.242865 -0.566410 0.610863 -0.134197 0.030768 0.184091 -0.474632 -0.154087 -0.681458 -0.252685 -1.472474 -1.262255 -1.806628 -0.719981 -1.739519 0.400161 -0.970590 -1.188331 0.743187 0.573459 -0.607595 1.596479 0.253128 1.061259 -0.121466 0.556214 -0.748447 0.024317 1.585970 0.627890 -1.192910 -0.917822 1.204575 -0.541397 0.625270 -0.601763 1.777395 -1.245060 -0.374513 -1.462118 -0.001152 -1.798273 -1.714428 -0.474677 -1.123984 0.638849 -2.316698 -2.291554 1.060193 0.833779 -0.677008 0.330749 -1.078615 0.297970 0.652499 0.568121 0.995593 -0.490953 1.928132 0.973712 -1.886862 0.038370 1.226433 1.382996 -1.191620 1.263167 0.760680 1.410177 -0.511780 -1.815611 0.649793 -0.893514 -0.794939 1.631013 -1.903744 0.674032 -1.302997 0.238520
she 0.946850 0.133609 1.414814 -1.735121 3.952227 0.672546 -0.532558 -1.023874 -1.105821 0.283392 -0.965351 1.202937 -1.257819 -2.156521 -0.065714 -0.263491 -0.680264 1.385257 -0.285805 1.486137 0.275061 1.189570 0.431762 -1.303445 -0.570078 0.432919 0.686239 -2.371739 0.788196 -0.369109 1.353727 1.808229 0.036012 -0.511232 -0.682112 1.614374 0.277763 1.310485 1.474728 -0.990296 -0.139429 -0.504701 1.400970 0.592694 0.623803 -0.965871 1.268008 -0.476559 -0.013844 0.976015 -1.035717 -0.396061 -0.302619 -0.031773 1.295153 1.741143 -2.133605 1.863489 -1.206867 1.225467 0.883783 0.270493 -2.158147 1.017421 0.066110 -1.474777 -0.775238 -0.446105 0.553923 -1.812232 1.598210 0.110925 -1.206671 -0.273123 1.413672 -0.667378 -1.929479 -0.908815 -1.102627 0.320307 1.256862 1.239860 -0.830566 0.726751 -0.275362 -0.218405 -0.109524 -0.126470 0.829341 -0.917219 -1.284450 1.050710 -0.220473 -1.772293 -0.434470 -1.476309 2.315373 0.666678 0.590310 0.748774 -0.655981 0.137851 -1.274899 1.954469 0.009176 -1.090809 -0.142282 -1.168043 0.755218 0.135107 -1.083657 0.549845 -0.489794 0.982864 -1.060673 1.814847 -1.810669 -0.795448 -0.720919 1.165419 2.042282 -0.034672 -1.148003 0.436938 -0.431170 2.500076 0.613371 -0.907862
from 1.708813 0.701780 0.752867 -0.731776 1.090644 -0.526284 0.210243 1.657043 -0.090635 1.374860 -1.929845 0.348673 -2.001821 1.445033 0.480956 1.329801 1.153749 -0.071865 -0.440701 2.287040 -0.331809 0.703988 -0.382656 -0.359224 0.016303 0.268116 -1.598458 0.083082 -0.302913 -0.722301 -0.266176 -1.730294 1.521935 -0.676821 -0.119725 -1.002214 0.024388 0.886882 -2.319757 2.681275 0.586967 -0.432772 1.507285 0.399766 -1.072053 1.013213 -0.263378 0.552847 1.072107 -1.553412 0.393514 -0.724169 0.508946 0.439464 -1.965574 -0.270762 -2.493641 0.271456 -0.851954 1.918355 -1.318433 1.189849 -1.124786 -2.714269 0.819432 -0.869206 0.846658 0.058522 1.632959 0.237339 -0.742307 1.701537 0.457690 -0.958740 2.305245 -1.142087 0.018096 -0.342235 2.839500 -1.095864 0.357354 0.593305 1.141615 -1.402902 0.385628 -0.625783 -1.115527 1.454641 0.625481 -0.743061 0.963239 -0.589799 -0.159486 -0.297716 -1.296861 0.443838 1.315073 -0.064863 -0.275092 -0.646963 0.726190 1.034115 0.229305 -1.746440 1.245610 0.942879 1.718946 1.800583 0.593674 0.709990 -0.554497 -0.155944 -1.260808 0.543374 -0.199727 -0.259856 -0.526816 -0.668253 -0.608289 0.289360 -0.631792 1.731772 0.062836 -0.545002 -0.141035 0.311977 -0.755472 0.315581
or 1.108112 -0.961977 1.718852 -0.270797 -0.458297 -1.805048 1.773507 -2.167276 -1.051378 -0.519092 2.242594 0.635346 -0.964283 -0.273728 0.402999 -1.221359 0.271495 2.041762 0.827410 0.885082 -1.643654 -1.158228 -0.250474 -0.858891 -1.571227 0.263829 3.141565 0.686886 -1.268703 1.026264 -0.745693 0.176447 -1.755766 0.428966 0.960862 -2.293975 -0.219314 0.583125 -0.595242 -2.597133 1.307968 0.917856 -1.257908 -0.082443 -1.813841 -0.384658 0.483630 -0.444217 0.209373 0.102095 0.168185 -0.288459 -1.046973 2.256986 1.438075 -0.288919 0.533109 -0.762506 -0.151744 0.137456 -1.420033 0.983699 -0.707158 0.131273 0.124390 0.278951 1.382742 -0.852532 -1.010988 -1.343506 0.333663 -0.372970 -0.100847 -1.309478 0.936450 3.087407 -0.854781 0.672244 2.272298 -2.359873 -0.980328 -1.833585 -0.429987 -0.486447 1.347598 1.486670 -0.228787 -1.510109 -0.451562 -0.950218 1.011947 -1.080099 1.603748 -0.558172 -0.310167 0.194877 0.833368 0.295809 -0.777088 0.297083 -1.516159 -0.114990 0.226621 -0.470204 -0.441717 1.539816 0.450749 -0.523534 -0.370350 -0.280688 2.514458 -0.088111 -0.163853 1.441746 0.964719 -0.137589 -1.944128 1.161489 -0.861803 -1.572737 1.414804 0.771784 -1.797595 2.013223 -0.502541 1.143879 0.290146 0.046757
they 0.836666 -0.839547 -1.017805 -1.859474 0.057694 -0.808558 -1.852178 0.413288 0.581500 0.082117 2.575254 -0.298200 1.832793 0.835223 -0.084605 1.404845 -0.871580 -0.612542 -1.089567 0.477018 -2.183190 1.082740 -0.339936 -0.904588 -0.986369 0.336049 0.618513 -1.268039 -0.612037 -1.177891 0.847721 0.351433 -1.879237 -1.076791 -1.199400 0.981008 -1.713004 2.095867 1.022523 0.629542 -1.336311 -0.236308 1.745131 0.613972 0.524338 -0.380335 0.421520 0.342800 2.829078 1.418452 -0.960563 -0.618366 0.069449 1.370979 -0.987865 0.084698 -2.592316 0.378536 0.129600 0.217860 0.175030 -1.175696 0.651583 0.041935 0.435434 -1.537880 -0.094881 1.368012 -0.079675 -0.359736 1.969479 0.089864 0.982456 -0.320186 0.113894 1.119804 -0.131331 2.092657 -0.985971 0.493670 -1.454848 -0.277895 1.458723 2.601742 -0.377986 -0.693514 -0.425825 -0.249222 -0.371610 1.042706 0.055082 -0.310761 0.552888 0.327089 0.556017 -0.107051 0.743828 -1.318874 0.811514 1.164126 0.487074 0.453466 1.657345 -0.139568 2.052969 0.844030 1.077550 -0.524113 -0.919878 1.518153 0.297822 -0.444084 -0.956724 2.210075 0.375891 -1.261289 -1.078503 -0.895866 -0.594632 0.385775 0.397001 1.274499 -0.222222 -0.254661 0.170510 1.892267 1.047898 -1.692313
so -1.248832 0.069670 -0.011133 -1.491794 0.965322 0.674598 1.679397 -0.113876 -0.127402 0.336330 0.003272 -0.980541 0.545507 1.029814 -0.203227 0.994464 -0.812482 0.921944 -0.336365 0.178871 0.221973 0.875023 0.473929 -0.545385 -0.039233 -1.324466 1.016459 -1.146170 1.190905 -0.799287 -1.178207 0.040573 -1.362221 -0.977936 0.743743 0.594290 -0.094148 0.046028 0.108650 -0.435908 -0.522194 -0.490778 0.147633 0.423184 -0.394657 0.953442 0.236881 -0.650746 -1.216654 0.636544 -0.009839 1.317398 -0.880948 -0.156715 -1.439505 0.947238 0.773744 -1.376943 0.122384 0.382886 -0.688991 -1.599559 -1.112906 0.184636 0.637371 -2.062793 -0.571751 -1.371960 0.669505 1.490212 -0.338508 0.158350 0.548848 -0.652871 -0.468252 0.467083 -2.147948 -0.334372 0.461525 0.428069 -2.094156 0.937319 0.466130 -0.955441 -0.116413 1.407445 1.251505 2.051380 0.865203 0.982219 -0.585606 -0.505617 1.677617 0.442591 0.247661 -0.063033 -1.035431 -2.229732 0.945618 -2.075315 -0.980105 -0.433461 0.288984 1.932638 -0.374706 0.961663 2.770555 1.447397 -0.500933 0.344946 -1.065820 0.815645 -0.392273 -0.151528 0.562635 -0.463693 -0.232794 0.333210 1.226601 -1.100819 -0.184718 0.748440 -0.245493 0.738094 -0.697831 0.725802 -2.127887 -1.238098
are 0.822472 -0.174160 -0.834007 -0.856442 0.144511 0.512989 -0.471185 0.155511 -0.652462 1.055757 1.773307 0.874545 0.592045 -0.823927 2.190978 -2.259407 -0.769290 -0.243306 -1.135264 0.736649 -1.688277 -0.662283 1.159930 -0.283362 -0.116590 -0.711185 1.238031 0.808805 -0.940927 0.889493 0.157149 0.202809 0.204573 -0.097301 1.135350 -0.231440 0.302551 -0.521673 0.476554 -3.053523 -1.604201 0.408073 0.937681 -1.325871 -0.030904 0.044818 1.136526 0.317908 0.610210 -1.710973 0.398039 1.308381 1.121523 0.511244 -0.989177 -0.457474 -1.850837 0.397019 1.750942 1.347542 0.327557 -0.432143 -0.569862 0.029302 -1.541778 0.275446 -0.191165 1.032226 0.101397 0.164802 1.371878 -0.633498 0.943209 1.346260 -0.391961 2.078276 -1.182856 0.986639 0.974460 -1.445232 -1.742565 1.539288 -1.850645 -0.851568 -1.061271 1.605628 -1.394828 2.404272 0.205837 -0.566445 0.664299 0.890571 0.721140 0.729220 -0.471288 1.710111 0.355026 -0.740634 -0.469917 0.584202 1.473143 2.416385 -0.881561 -0.545446 1.204616 -1.670059 0.367662 0.116431 -0.288422 0.304884 -0.494961 -0.114003 1.238508 -0.023396 1.094810 -2.507769 1.538207 -2.567129 0.705170 -0.155299 -2.363443 -0.052734 -0.906920 -1.684464 -0.463981 1.787230 -1.240582 1.447914
one -0.515942 -0.054387 -0.979596 -0.148208 0.932149 0.162667 -0.718152 1.322452 0.391337 0.229875 0.588257 -1.555246 -0.604285 0.477995 -0.181313 -1.008010 -0.124662 -0.528433 -2.027700 -0.005374 0.293554 -0.630745 1.776049 -2.593046 0.097031 -0.749404 0.797984 0.867998 -1.025999 -1.032928 1.403269 1.088462 0.077540 -0.521644 -0.068237 0.304143 0.581353 0.650914 -0.020626 0.234989 -0.452131 -0.672410 -0.163683 -0.727046 0.695883 -0.947796 0.394918 -0.989030 -1.050331 1.076691 -0.347443 -0.222392 -0.152107 1.571970 -0.657722 -1.479530 0.757939 -0.017676 -0.015087 0.523400 -0.808299 0.113737 0.504438 1.237489 -2.937154 -2.320263 1.776795 0.109851 0.145404 0.015504 -0.116897 -0.819392 0.951376 -0.904667 -1.725417 0.358643 -0.767300 0.438628 -0.038121 -1.250514 -0.339450 -0.636445 -0.599692 0.238592 1.403087 -0.783126 0.085940 -0.578350 0.397031 -0.490764 0.571999 0.774836 -0.049779 -0.534830 -1.802155 -0.522222 -1.869938 -0.292669 -0.888800 0.313306 0.587291 -0.904193 1.078940 1.159211 -0.951304 -0.538382 0.112164 0.608638 -1.426667 -0.292973 -1.196894 2.040410 1.526303 -0.201223 -0.352140 -0.566872 -0.504933 -0.427608 0.644718 0.836397 0.267372 0.456995 -1.189769 -0.679144 -1.267589 0.058465 0.044542 -0.334575
were 1.819752 1.035616 0.574677 0.706289 -0.613597 0.059760 -0.382192 -0.708184 -0.537741 1.203442 0.992828 0.713916 1.069185 -0.897796 0.600337 0.334215 -1.103867 0.347753 -0.738706 -0.208991 -2.805543 -2.835883 2.568875 0.391805 1.987163 -1.399700 0.935534 -1.705643 1.222607 -0.178811 0.674091 0.403916 -0.578549 -0.076389 2.200868 -0.226637 0.600968 0.545788 -1.017846 0.836830 -0.321988 -1.509465 -0.581800 -0.798982 0.386281 -0.062389 -2.475693 0.542419 0.224818 0.214009 -0.071442 -1.309567 -1.043000 0.072601 -0.449739 -0.239109 1.901182 -0.869558 -0.267268 -0.215961 1.656580 -0.671017 -1.486193 0.292875 -1.078009 2.408698 0.237167 0.165012 -0.638055 -0.694473 3.798073 -0.781730 -1.396761 -0.911100 -0.493046 -0.272309 -1.029176 -0.178317 -0.156956 -1.490676 0.591876 -0.041443 -0.484446 -1.526831 0.122171 0.341607 0.709093 2.644773 -0.167307 -1.322678 -0.396017 -0.447062 2.927763 0.789490 2.562636 -0.748164 -0.678537 0.320197 -0.936602 -0.589717 0.022832 -0.114741 0.325103 0.805728 1.140658 -1.399849 0.202425 -1.931957 0.387710 0.866749 0.147485 -1.482490 2.138224 0.726528 -0.103878 0.431315 -1.663641 -2.173091 0.630973 0.702211 0.348526 -0.178626 -0.581409 -1.067360 -0.828992 2.229433 0.164423 0.713250
what 0.231617 -2.085518 -0.815208 -2.258548 0.058574 -2.098162 0.342312 0.234129 -1.545385 -1.015023 -2.064748 -1.070404 -0.684746 -0.435544 0.588845 -1.742488 -0.106584 -1.236047 -0.689067 1.287889 -0.111494 1.815804 0.565018 0.497240 0.302688 -1.453733 -1.494274 0.433903 0.096868 1.008011 1.017295 -2.458887 2.032392 -0.997678 -0.164562 0.812731 -0.913707 -1.716239 0.927984 0.905126 1.461161 -0.737313 1.748325 1.480602 -0.876848 2.036109 2.215054 -0.532417 0.498333 -0.067303 -1.070842 -2.639602 0.945978 -2.397451 -0.041446 0.598193 -0.043790 0.319411 -2.500202 -0.319614 0.655329 -0.344215 1.387175 1.637343 -1.644921 -0.267598 -0.119621 0.100965 0.072299 1.947384 0.974507 0.141123 1.241518 -0.221000 0.641859 0.519875 1.005665 1.617231 -1.461778 -1.083423 -0.207376 -0.537821 -1.116260 0.402971 0.817647 -0.268336 1.568754 0.107971 -1.629557 0.339209 0.237039 0.387376 0.832197 1.072083 -1.478976 -0.737067 -0.738489 -0.198056 -0.345252 0.793049 0.110378 -0.176940 0.152336 -0.081024 1.170771 1.020050 -0.285757 -0.018099 1.087115 1.055720 -0.160525 -1.545851 -0.356876 1.045308 -1.426312 0.285072 0.554129 -0.881202 0.174025 0.886307 0.602366 -2.209747 -0.789718 -0.131016 0.023983 0.042425 -0.322232 -0.609264
when -1.481168 0.065570 -0.605440 0.037694 1.556165 -0.971280 -1.695484 2.073394 0.137648 0.476025 0.522153 -1.855693 0.808429 -0.625923 0.125789 0.030855 -0.526902 0.734139 -0.988249 -1.224438 -0.789239 -0.877432 0.635490 -0.556376 -1.770002 0.117075 0.048360 -0.147188 -0.470804 0.869007 -0.385237 0.601948 1.131410 -2.930430 -1.508571 0.397803 -1.523203 -1.642129 -0.513468 0.280705 2.331748 -0.882376 -0.855088 0.755693 0.133543 -1.023623 -0.190299 0.488707 0.718631 -1.495044 -0.377680 -2.668842 0.610545 -0.766400 -0.376839 1.053984 0.199632 -1.079199 -1.027787 0.207255 0.443087 2.169604 -0.172542 0.739754 0.947139 -1.014908 -2.189316 -0.909755 0.259064 -0.625335 -0.021232 1.425311 -1.072417 1.103781 -1.079922 0.918769 -0.981474 -0.644424 -0.026072 -0.314200 -1.905400 0.852647 0.340203 0.795410 0.724501 1.018101 2.345545 0.100631 0.109733 -0.595871 1.440881 -0.204395 1.785246 -0.231945 0.477352 1.302970 -0.553356 -0.370285 0.696073 0.180327 -0.647646 1.597043 -0.945491 0.656777 1.779753 1.539911 -0.672705 -0.982203 -1.667807 0.956960 -2.432819 -0.232158 -1.511088 -0.777609 -0.423355 1.134472 0.811329 -1.372218 1.949003 1.843073 -0.300688 0.470249 -0.061347 1.003149 0.294945 -0.607180 2.270583 -0.007637
no 0.216483 -2.776677 0.212683 -0.986871 -0.878891 1.692161 2.070619 0.999080 -0.700231 -2.205731 -0.656426 0.308815 0.930313 1.858835 -2.669842 0.679021 1.189617 1.713873 -0.719565 -0.586467 -1.896650 1.334717 -0.423694 0.975131 0.833402 -0.234866 0.364872 1.636692 0.832075 -0.267949 -1.670292 -0.471566 0.510310 1.786541 2.629600 0.024546 0.393357 2.272358 -1.862715 -0.652264 -1.107296 1.176908 1.972794 0.084142 -0.643837 -0.789191 -0.319857 -0.354438 -1.958814 -0.348935 0.649337 0.357125 -0.145187 -0.186668 -0.168347 -0.531069 -1.102015 1.462230 -2.077027 -0.407089 0.062015 0.288228 0.006744 1.284781 0.377938 -0.213651 0.332009 1.674427 -0.951916 -0.198817 0.318494 0.624363 1.495054 -0.425576 -0.867693 1.518413 0.409495 0.217771 0.593160 -0.345064 -2.767749 -0.764652 -0.933017 -1.097262 1.231603 1.060015 1.494337 -0.918710 -0.384289 -0.936381 0.539447 0.618233 -0.128936 -1.053425 -2.253892 -0.517964 -1.039533 -1.314578 -0.497475 0.481064 1.829562 0.062443 0.286729 -0.434596 0.545572 -0.670066 -1.028879 0.346270 0.438613 -1.710961 -1.016554 1.954830 -1.491801 2.100864 -1.972052 0.168243 -0.223815 0.396432 -0.527690 1.521286 0.208664 -0.169833 -0.115091 1.060501 0.772983 1.032375 -0.325335 -0.854617
if 1.369336 -0.526269 1.225445 -1.735274 -0.200816 -0.881215 0.728137 -1.506852 0.880129 -0.334773 -1.050064 -0.244958 0.901196 -0.206514 -2.382508 -0.725783 1.808412 -0.889595 -1.072614 1.242613 -2.561392 -0.701410 0.112317 1.567667 -2.102531 -1.520135 -2.681378 -0.184363 -1.431411 -0.641403 0.113342 0.087290 0.731254 0.149776 0.447095 1.729591 -1.315811 2.600636 -1.767352 -0.855151 1.525254 0.301403 0.373079 -0.187273 0.235804 -0.688396 0.265909 0.956874 -0.631796 0.418573 -2.411984 -0.435870 -1.093346 -0.951169 0.733310 -0.223405 1.114457 -1.686623 1.105527 -1.548864 -2.815530 0.011937 -0.106568 1.265715 -0.637480 -1.372077 -1.190871 0.168146 1.135190 1.158844 -1.044829 0.141199 1.086484 0.629610 2.060355 0.278346 -1.194953 -1.372877 -0.267896 0.624638 -0.858314 0.016255 1.858270 0.375617 -1.586063 0.093439 0.593253 1.718460 -1.816087 1.055624 0.978763 0.445823 0.138563 -0.107730 1.093638 -0.044807 0.916575 0.751728 -0.416990 0.703754 -0.445124 0.557532 -0.187072 0.738011 -2.003620 0.261982 0.337486 -1.410575 -0.948409 0.619415 -2.155693 2.087530 -0.547015 -0.182873 -0.651036 1.445221 -1.439574 -0.520931 0.099005 0.264611 0.966062 1.546890 -1.389992 -1.822529 0.260308 0.521497 -1.688459 1.636662
there 1.405960 -1.195123 2.472466 0.149572 0.390176 -0.821471 -0.403645 -2.001457 -0.130461 -3.051825 1.637323 -0.444368 0.442669 1.257016 -2.645213 -2.107690 -0.396195 -1.766667 0.519682 0.186653 -1.416663 0.355120 -0.443505 -0.243574 0.763578 0.266288 0.643142 1.497807 0.464304 0.071826 0.551925 0.178898 0.316099 0.110299 0.044502 0.607965 -1.772982 -0.209987 0.034513 1.864176 1.030417 -0.566324 -1.717611 -0.347913 0.932899 1.473176 -0.044857 -2.573068 1.884504 1.097150 -0.448459 0.205101 0.848341 1.038190 -1.812524 0.284794 -0.501129 -1.485233 -1.477045 -0.522545 1.621867 -1.056640 -1.362049 -0.920826 -1.998751 -0.612343 -1.644680 1.752308 0.334313 1.055444 1.171344 0.507869 0.789818 -0.024424 0.292155 -2.451736 -0.786531 -0.382457 0.911451 0.248942 -1.130297 0.425413 -1.608728 0.572809 0.467179 -0.041115 0.941565 -0.485855 0.318829 -1.440230 1.155768 -2.033416 0.759922 0.231607 1.163687 -1.102571 -1.092536 -0.185756 -0.068895 0.621515 1.405628 -1.702446 -1.637359 0.335892 -1.019486 0.989262 -1.703468 -1.006871 1.467431 -0.620694 0.178305 1.352346 -1.740229 1.567835 0.553159 0.215153 1.238519 0.122191 -0.648877 -1.268707 0.705025 0.007553 -1.545131 -1.494923 -0.945831 0.315534 0.273513 -1.690998
who 0.191760 1.292910 0.882630 0.926088 0.097848 -3.766475 0.840602 -0.840149 -0.073480 -1.015197 1.603097 0.437792 0.163655 0.448584 0.123572 0.284553 0.668838 1.987746 -0.222440 -0.341005 0.342020 -0.402889 1.091755 1.750230 2.137104 -0.318500 -0.684026 -0.877980 1.244972 0.545980 -1.150528 -1.372660 0.387567 -1.086223 0.765264 0.215146 -0.217217 0.134467 0.348228 -0.326497 1.282289 1.476674 0.099747 0.491680 0.512720 1.601791 0.824976 1.147393 0.366809 -0.434465 -0.005053 0.281591 -0.136428 -0.421461 -0.539964 -0.208509 -1.133960 1.132388 -2.056062 0.066751 0.146558 -1.539588 0.129749 0.221720 -2.335326 0.599192 -1.346987 0.288476 1.833846 -0.804909 -0.257541 1.269922 1.507876 -1.105262 -1.207211 0.258335 -0.528903 1.403684 0.517832 -0.708115 0.509356 -0.773604 -0.867238 0.252175 0.210891 0.628763 0.526642 1.360352 -1.295756 0.291524 -1.245396 0.572329 1.122157 -1.015514 1.659808 1.031648 -0.939614 -0.021521 -1.018291 -1.139008 1.090827 0.829433 -0.132620 1.000179 0.162399 0.541534 0.354005 0.633217 -2.068908 -0.558154 0.196713 0.151499 -0.713261 -1.743619 -1.112399 0.891738 0.669137 -0.173514 -0.776773 1.364165 1.278329 0.663379 -3.268715 -0.473569 -1.266944 1.085112 1.366347 -1.373756
we -0.241695 -0.275678 0.803563 0.559755 0.204500 -0.455115 -0.063372 -0.599410 1.054967 1.664294 -1.757192 -1.533154 -0.303973 -0.694383 0.339754 -1.685715 0.778358 -0.070087 1.243030 -0.346941 -0.748210 1.649675 -0.969294 0.677033 0.184016 1.334530 -0.392009 1.409725 1.145517 -1.992844 -0.064739 -0.554034 1.342353 -0.033256 -1.580611 1.524483 -0.594395 0.036194 0.578643 -0.617421 1.989992 -0.826110 1.665933 0.039509 -0.260159 -1.717417 0.636586 -0.349117 0.057979 2.108028 -1.512357 1.682935 -1.110634 0.693378 -1.339753 0.542861 -1.621414 0.295244 0.170698 0.479700 0.616692 -1.511863 -0.820170 0.191912 0.492882 0.085306 -0.913031 0.876604 2.963614 -1.946587 3.739219 1.443377 0.170417 -1.720620 2.140848 0.315976 -3.163393 0.775520 -1.129540 0.029680 -2.889880 -1.346071 -0.263278 -0.583028 0.435309 0.449143 0.353800 1.135574 -1.326893 -0.449635 0.749482 0.752280 1.625002 0.236575 0.204783 0.391309 -0.383399 -1.023717 1.168207 2.190102 0.398335 1.090366 0.669299 0.646630 1.238234 1.265413 0.273097 -0.961280 -0.961558 1.196594 0.750773 1.140357 -0.115703 2.112281 0.497000 -0.149466 -0.936379 -0.034264 0.531093 0.547224 -3.264263 1.882366 -3.007924 0.107941 0.358362 -0.082211 -1.277136 0.116147
will -0.456291 -2.532237 -0.127651 0.320663 -1.720698 0.814219 -0.199120 0.416492 0.578865 -0.870806 -1.513115 -1.481734 -1.517572 -0.964416 -0.822703 -0.504027 -0.067256 0.166354 -0.504445 0.397340 -0.431955 -0.427884 -0.323354 1.280203 0.894786 -0.060271 -0.281102 0.387753 0.220288 -0.014930 -1.801208 0.258650 0.015177 -1.582733 1.371707 1.031741 -2.895060 0.236288 -0.736901 0.315218 0.223542 0.608048 -1.529259 -0.706222 1.282851 1.071799 0.371886 -0.844512 1.841799 -0.795240 -1.091487 0.291553 0.002154 -0.178258 -0.782644 0.638489 0.519699 -0.133756 1.948498 0.812909 -2.092233 0.388300 -0.347456 0.586820 -1.098403 -1.542205 0.979316 2.673848 0.257746 0.633799 -0.103791 -0.156499 -0.618403 -1.718950 0.841203 -1.758189 0.510736 -1.706196 0.507308 -2.127109 0.037908 -1.014799 -1.661929 0.601769 -0.512455 -0.654087 0.749119 0.457903 -0.140291 0.046364 -0.240331 -1.876237 2.095998 1.266086 0.119315 0.346863 -0.349817 0.766209 -0.506581 1.527125 0.547442 1.445238 0.388899 -1.399965 0.328852 0.770539 1.644820 0.248852 -0.210332 0.943879 -0.012288 -1.137470 0.063554 2.004242 0.337814 -1.076459 -1.593607 -1.069492 1.388078 -0.381863 -0.337295 -1.591092 1.421504 -0.736903 -1.127403 0.774584 -0.915464 0.473494
an -0.358544 -2.102048 -0.646846 0.102283 0.265668 -0.156290 0.293601 0.077974 -1.624870 0.267008 0.519666 -0.203992 -1.130615 -0.970606 -1.769796 0.519103 0.154775 1.937157 0.379111 0.438256 1.333032 -0.367604 1.131299 0.121913 0.622876 -0.661789 0.912160 -1.245276 0.557514 -1.470210 0.357571 -1.033122 -3.350538 -1.963674 0.263532 -0.743210 0.909706 -1.078109 -0.586541 0.328582 0.825210 -0.805036 0.692049 0.734318 -1.526726 -0.311461 -0.361932 -1.681954 -0.424501 -1.418185 -0.340032 0.243393 -0.536780 0.360404 -0.516581 2.572709 -0.219386 -1.375567 -1.326984 1.290588 -1.552300 0.157069 -0.459598 1.197090 0.413812 -0.161221 -0.652574 0.623739 0.786162 -0.847362 2.042774 0.487571 3.042282 -0.515624 -1.188660 -0.660852 0.076819 1.197043 -1.009792 -1.905227 -1.455768 0.124007 -0.455081 -1.893517 0.469618 -2.542444 -0.825430 -1.509248 -0.772048 -1.880148 0.254822 1.273027 -0.713465 -1.421608 -0.595303 -0.846742 -2.319972 0.422901 -1.181936 -1.269631 -0.403217 -1.514378 1.312208 -2.426427 0.002158 2.613207 -1.321312 -0.999569 -1.109395 0.460237 -0.550273 0.759426 -0.103980 -2.033860 0.278013 -0.985856 -0.948217 0.158588 0.110612 0.695732 0.572039 1.192374 -0.154685 1.083826 -1.251533 -1.091008 -1.516815 1.653632
then 0.214096 0.647806 0.611496 -0.790286 -0.733574 0.135938 0.004476 2.938348 0.391183 -1.480938 -1.056404 -2.473592 -0.819092 -0.128893 0.408424 -0.511305 -1.298242 -0.722834 -1.068247 -0.719009 -0.160373 0.305674 -0.418886 -0.827544 -0.763369 -0.922027 -0.569490 -0.620650 0.027656 -0.922594 -0.955643 -0.216585 0.108549 1.141886 -0.682713 0.431926 0.790694 0.334609 0.555039 -0.416271 -0.552355 1.014753 -0.547451 2.076515 -0.361083 0.757280 -1.005119 0.644358 0.353752 0.020440 -0.171041 -0.225809 1.337934 -1.415773 0.692970 -1.205354 0.145883 -2.710931 -0.321521 1.396887 0.672774 -0.045126 -0.029159 -2.143000 -0.255149 -0.208358 -1.453609 -0.192867 -0.323518 -0.597318 0.825986 0.382678 -0.924833 -2.167499 0.290414 -0.464837 0.981969 -1.064153 -0.705631 2.169698 -2.094774 -0.968240 -0.738741 -1.323505 0.514926 0.030549 0.112707 0.504629 -0.514495 -0.165622 1.026965 -0.491692 -0.258821 -1.440276 -1.749569 1.730631 0.008950 -1.055830 0.899547 0.252072 0.335926 -0.050431 1.364722 -0.325490 0.406120 0.619087 -0.870086 -1.349817 0.191576 -0.717846 -0.624804 1.896568 -1.882166 1.033980 0.886505 0.671590 -0.649630 -0.460687 -0.048057 -1.136440 0.167780 0.306474 -0.594442 -0.810528 1.043633 0.117680 -2.558195 -2.044711
their 0.887285 0.716675 -0.380937 -0.650340 -1.572301 -2.229693 -0.637503 1.752220 1.062063 -0.895310 1.077717 -0.426156 0.475191 0.601373 1.171128 -0.798374 0.768623 0.649601 -0.180694 2.869803 1.496294 -1.349343 0.285015 -0.063464 -0.496339 -0.400207 -0.115605 0.195459 1.396496 0.540944 -0.578092 -0.144686 -0.117595 -1.187093 1.448812 0.470474 0.550587 -0.561918 0.756134 -1.711280 -1.179514 -0.934808 0.596916 1.346224 -0.290725 0.189067 0.095980 -1.286481 -0.080459 1.298761 -0.152243 -1.072465 -1.807618 0.179487 -1.209099 0.193844 -1.696952 1.907318 0.250572 1.107166 -0.065114 -0.354369 1.770011 -0.481940 -0.228968 -0.101721 -2.263547 0.882911 1.390099 -0.915874 1.088915 1.109530 -1.313344 -1.070251 -0.808424 -1.477826 -0.705962 1.277353 -1.099316 1.190832 -2.267232 -0.846195 -0.571176 0.107474 -0.135572 0.469402 1.439881 -0.288464 -0.312121 -1.954403 1.486119 -0.729388 -0.648069 0.950349 1.856255 -0.787886 1.683760 1.470661 -0.825296 -0.263983 1.996374 0.130311 0.829162 0.200204 1.507947 1.740207 -0.648429 -1.221734 0.586543 -1.725722 0.058459 -0.932473 -1.747152 0.212534 -0.442921 1.023085 0.157876 -1.212802 -1.540894 -2.084432 -0.094565 1.827283 1.504057 0.253637 0.383492 0.539899 -1.645358 -1.706153
would 0.198834 0.010187 1.912649 -2.180279 -2.280026 0.475149 -0.267960 -0.443551 -1.419423 -0.291843 1.384285 -3.038349 0.231849 -0.955464 0.415199 0.549496 -0.234229 0.848150 0.185967 -0.419041 1.380025 -0.241833 0.492985 1.989207 -1.902632 -0.170994 0.084553 -0.277836 -0.498946 -0.831105 -0.519591 -0.689709 0.271374 0.161377 1.796720 0.752429 -1.403584 1.050597 1.376297 -0.456067 -0.112448 -0.007652 -0.231763 0.694692 -0.663528 0.982436 -1.387356 2.062281 1.169691 0.846998 -1.855891 -1.187865 0.855735 1.641063 -1.198124 0.167089 -2.151102 -0.219606 2.524912 1.335261 -0.273259 -1.021503 0.021143 0.982383 -0.576924 -1.958931 0.083790 0.344240 -1.892159 0.071418 -0.521069 0.791658 0.445016 -1.760657 -0.555747 -0.241018 0.398663 0.072059 -0.063890 -0.933165 -0.640152 -1.120798 0.186547 -1.114261 0.338392 1.524653 -0.185001 0.800006 1.148619 0.174189 -0.578907 -1.757485 -0.428054 -1.457524 -1.133128 1.158905 -1.370805 -0.275863 -0.737445 -0.038022 -0.828817 1.119093 0.331330 0.024362 0.751415 -0.118446 -0.268034 -0.284017 0.353333 -0.694724 -0.906319 -0.646526 -1.701318 0.198209 -0.595486 0.201014 0.812877 -1.162731 0.378005 0.108241 2.562583 -0.225909 1.046848 -0.854341 -0.069234 0.433080 -1.553555 0.381741
them 0.114797 0.927570 -0.661030 0.694644 0.520949 -0.433625 -1.290855 0.388199 -0.319938 0.455509 0.644629 -0.632965 0.110850 -1.682760 -1.598711 -0.988438 -0.621849 1.919127 -2.450871 0.671689 0.150220 0.432673 0.523909 0.957854 -0.042389 -0.076112 -2.118623 0.845531 0.993949 -2.359752 1.304831 0.054909 -0.751777 -1.531539 -0.605058 0.051848 0.507992 -0.287772 1.217926 0.458875 0.004336 -0.265670 0.517235 -0.404663 1.864761 0.175957 0.899214 -1.093708 0.054227 -0.683097 -0.347478 -2.066906 -0.426057 0.072882 -1.892548 2.007466 1.349466 0.224295 1.984911 0.287407 0.545970 0.377100 1.735414 0.198038 0.110534 -1.154633 0.082762 -0.602840 1.068725 -1.029981 0.783514 -1.051428 -0.194006 0.809113 0.966012 -0.209321 -2.218708 0.665326 -0.768926 -0.778635 -1.447753 -1.378272 -0.793343 2.351495 1.156968 -0.659760 -0.204352 1.581670 1.263737 -0.872821 1.777093 -0.093409 0.304453 -0.408290 0.539419 0.038581 0.697244 1.057891 1.016486 0.459169 1.520660 -1.616368 -0.100790 -0.187321 0.413251 1.398095 0.493260 -0.375675 -0.358597 -0.536366 0.901862 0.490055 -1.182432 0.283914 0.387113 0.688603 -0.626637 0.106386 0.357575 0.505885 0.497499 -0.203208 2.075056 0.009595 -0.052150 1.104981 -0.685199 -1.200204
been 1.816956 1.364850 0.265560 -1.817104 0.647632 -1.852758 -2.448719 1.197701 -1.725961 0.472776 0.137554 0.807073 1.156067 1.719492 -0.766141 0.161395 -1.520379 1.002292 -0.297319 -1.470808 -2.288574 -0.585836 0.504294 0.423126 -0.449184 -0.742063 -0.922663 -0.747147 2.532881 0.571501 -0.233053 -1.599896 0.321851 -1.069307 1.840447 0.689502 -0.218949 -2.341032 -0.146036 1.088054 0.173989 -1.723920 -0.036826 -1.689053 0.670937 1.206679 -1.540006 -0.423415 -0.498382 -1.419668 -1.960864 0.076209 0.306570 -1.507385 -0.038092 -0.622774 -0.619925 1.140348 0.026199 0.714560 1.364327 0.284914 -1.166739 1.137359 0.840573 -1.644495 1.619578 -0.558146 1.709582 -1.689155 -0.790132 0.392318 0.017541 0.326025 -1.647717 0.818452 0.145685 -1.124559 0.414669 -0.793129 -2.609601 0.223230 0.712732 -1.917321 0.876851 -0.427363 -2.044937 -0.469778 1.012965 -1.511540 -3.450279 1.187381 -0.177087 -0.533328 -1.724874 2.256124 0.650946 -0.364835 -0.153803 -0.192778 -0.652500 -1.823296 0.010559 2.068969 0.356963 -0.588754 0.783804 -0.888403 -1.034738 -0.804904 -0.466452 0.374495 -1.388329 -0.700484 -2.092734 -1.315020 -0.044041 -0.601969 -1.723332 0.597473 -1.366128 -1.304270 -0.417363 -0.770960 1.210776 -1.069576 -0.030518 1.640119
do -0.116948 0.281550 -0.888811 0.045602 -1.790421 -0.333217 0.275040 0.982607 -0.043119 -2.504475 1.091735 -0.361659 -0.513967 -0.984322 0.508168 1.674826 -0.054788 0.704282 -0.558348 1.828216 -1.599245 -0.085588 -0.469156 0.855187 -0.360061 1.594322 -1.065393 -0.474203 -0.142567 -0.667421 -1.085849 -0.307535 2.764749 -0.823509 0.175151 0.040800 1.447523 0.770265 -0.101544 -1.125848 0.511968 -0.581173 1.911499 2.090477 0.938183 -1.651035 1.450856 0.233497 0.775434 0.043939 0.066397 -0.745009 -1.946231 0.022855 0.777264 -0.473891 1.193560 -0.778898 1.403419 -0.294029 0.077432 -0.652254 0.034879 -0.934867 1.470983 -0.779837 -0.123995 -0.752294 -0.415221 1.024773 0.590513 -1.695109 0.069643 -0.667197 -0.275524 -0.999382 -1.663705 -2.401948 -0.822222 -0.583086 -0.638175 0.001001 -1.772761 -0.779574 -0.924535 0.244305 -0.495113 0.993659 -1.239619 -2.273313 -0.477961 -1.899795 0.039268 -0.529350 -1.839299 -1.029972 0.195379 -0.045554 -0.248906 0.398612 -0.241873 0.245298 1.188486 -0.150405 -0.548863 -0.316834 2.557838 -0.264069 0.700224 1.950567 -2.030538 1.253563 1.292396 1.258813 -0.362209 0.085267 1.041809 -0.455498 0.465147 0.435660 0.880294 -1.643551 -0.305007 0.953108 1.394338 1.569167 0.658959 -0.413459
your 0.143032 0.414022 1.162085 -0.114422 1.228866 0.942659 -0.916052 -0.515443 -2.621166 -0.899085 -0.286782 1.434011 1.491067 0.189405 2.245171 0.497364 0.631900 -0.001859 -1.283807 0.424006 1.096553 1.069457 -0.217648 0.261995 -0.515127 -0.221584 -1.343307 -1.261660 0.362832 -1.645832 -1.089127 -0.501662 -0.324417 -1.938516 -0.520493 -2.477470 0.495696 1.085310 -0.288826 -2.056199 -0.253340 1.527313 -0.257524 -0.531370 0.786293 1.202351 -0.540826 -0.836197 0.348235 0.314495 -0.317823 0.722029 -0.154574 -0.628563 0.027716 -0.632183 0.539884 0.538972 -0.706929 0.993898 -1.450815 1.081739 2.012914 0.661198 -1.226696 -0.591153 -0.695956 1.203483 0.326522 1.368994 0.635209 -0.237187 -2.213044 -0.187709 1.700894 0.226839 1.751073 -0.842049 0.830514 0.492419 -1.982417 1.308142 0.326399 -1.584160 -0.526628 -1.197167 0.486683 1.146191 -1.452601 -1.543408 0.142364 -0.500420 0.342924 0.029878 -0.834554 1.234263 -2.463268 0.000906 -0.232136 0.753095 1.558341 -0.835437 1.026566 -0.216416 1.436199 0.660055 -0.317969 0.729208 0.445751 0.043214 -2.269215 0.946013 0.924648 0.407471 -0.263522 -0.772962 -0.875338 0.326889 -2.436194 -0.146723 -1.586125 -0.352635 -0.845041 0.980505 0.083196 1.073483 0.680616 -1.946638
now -0.616454 0.455652 -0.983333 -0.618215 -0.253706 0.187379 0.695458 0.568370 -0.803459 0.393960 -0.017536 -1.229085 0.207625 0.224102 2.101207 -1.249677 -0.056691 -1.198718 -0.214426 0.220078 -1.797754 0.831494 1.205356 -1.179172 -0.709008 2.093844 -1.726473 -0.742962 -0.496050 1.448310 -0.489584 0.069060 1.259807 -0.011238 1.487272 1.538515 -0.297251 2.747000 0.294726 0.233345 -0.516774 -0.808750 0.104568 0.505029 1.078057 0.539695 -0.286641 0.941086 -0.291237 0.261262 -0.999815 0.504150 1.039540 -0.140781 -1.172558 -0.295440 0.800955 0.101967 -1.255893 1.479288 1.909853 1.346802 0.166732 -0.427052 -0.353891 -0.736485 0.282311 1.451138 0.833170 0.730407 1.761862 0.700306 -0.403769 0.043696 0.433478 0.080754 -0.094493 -1.621607 1.306739 -1.050299 0.323975 -1.320400 0.501752 0.227285 -0.044060 1.196615 0.199078 -0.369945 -2.617831 -0.701787 -0.369770 -0.540220 -0.782688 -0.300633 0.877302 1.683415 -1.038802 -2.830450 -0.443103 0.187930 -0.048333 -0.876747 1.525182 -0.949215 0.338360 0.215583 -0.871143 -1.772410 0.346969 1.054912 -0.423199 1.386527 0.100496 1.545187 0.182557 1.246853 0.453454 -1.503916 0.567480 1.013370 -0.532356 -0.128717 -0.588354 -0.525076 -0.938739 -0.584733 -0.969794 -0.900409
out 0.292981 -0.943227 0.518493 -0.731962 -0.680594 0.243565 1.739467 0.702506 -0.042925 -1.773452 -2.127736 -1.045848 0.676247 -0.201976 0.482228 1.142404 0.174086 0.307779 0.626545 0.148630 0.082964 -1.082827 -1.590142 -2.227668 0.418179 0.310330 1.515471 1.502284 -0.947919 0.232421 -0.603730 0.508239 1.794922 0.826120 -1.890371 -1.509915 -1.498140 2.401026 -1.023946 0.382831 -0.644421 0.310922 1.154857 -0.660149 -1.515980 0.519183 0.325073 -1.454378 -0.285042 0.365396 1.939541 -0.420065 1.338943 0.857669 0.826288 0.673832 1.477499 -1.946360 -1.376674 -0.398909 -2.042294 -1.602663 1.441455 2.372117 0.893229 -0.407540 -0.067515 1.122771 0.974079 -0.128243 -0.525782 0.110650 -0.434480 -1.024173 -0.813769 2.061615 -1.098947 -0.299003 -0.706151 0.046941 -2.335082 -0.342849 -0.146376 -0.000718 0.912180 -0.234335 -0.510599 0.176214 -1.595493 0.860182 -0.037946 1.289706 0.126335 0.327401 -0.934048 -1.776662 0.016201 -1.005941 1.333241 -0.036336 1.701850 0.618609 1.633118 -1.834068 -0.819482 0.486166 -1.452539 -0.841217 -0.278312 0.948118 0.367091 0.837986 1.560471 3.164620 -1.398467 0.794574 1.343693 -0.605972 0.938946 -0.589804 1.598647 -0.680928 -0.877039 0.279250 -1.014178 0.629718 -1.433490 1.100693
more 1.237123 -1.388695 -0.207690 -0.524595 -0.313003 -0.440083 -1.166652 0.072656 -0.966034 -0.308990 0.034909 -0.249093 0.245087 0.672643 -0.836747 -1.497330 1.371992 1.684936 0.761332 1.168732 -0.725794 0.805766 1.605758 -1.050308 1.373701 -0.197292 0.590666 -0.603474 -0.532034 -0.356625 -1.119598 0.704476 -2.576931 1.938654 0.657906 -1.146261 0.248028 0.965025 1.647992 0.029632 0.104017 1.317343 0.188346 0.381537 -0.698188 1.431736 -0.365785 -0.420144 0.812185 0.025301 -0.725945 0.976331 -0.554958 -2.271502 -0.194250 0.388542 -0.550971 0.509836 -2.576044 -2.385518 -0.127007 -0.394433 -2.830957 0.633298 0.246996 -0.976027 0.063216 -1.290454 0.785874 1.080218 -0.482565 -0.976911 -1.195077 -1.155061 -1.441928 -2.019692 1.439501 -0.050135 1.200922 1.839764 -0.032413 -0.384730 -1.070320 0.845872 1.765498 1.832568 -0.304219 0.650983 0.196689 -0.714655 0.714428 -2.786871 -1.696843 -2.220549 -0.912106 0.210425 -0.161957 -0.094077 -1.101480 1.355053 -0.259147 1.109578 -0.934813 0.014616 0.576957 1.506615 0.537276 -1.442153 -1.653682 -0.403421 0.265907 1.486368 0.846170 1.386410 0.561100 0.955204 -0.320987 -0.000259 0.470394 -0.074810 -1.924779 -3.121358 0.491541 0.418045 -0.754130 1.208476 -0.245548 2.330436
up -1.341700 -0.020334 1.135311 -0.605399 1.445586 0.906506 -1.158018 0.511350 0.229493 -0.348585 1.150517 1.147032 -0.253129 -0.477029 -0.039638 2.009204 -0.140415 1.550996 0.254408 0.412927 -0.875814 -2.231593 -0.603117 -0.503624 0.016427 -0.886512 -0.536736 -0.048647 2.482892 -1.772205 -0.003815 -0.045536 0.444975 0.339931 -0.737097 0.546237 -1.171404 -0.199776 -1.071296 -1.413393 0.426547 -1.298863 2.175709 0.180999 -0.509877 1.311717 -0.470289 2.408260 0.905745 -1.085319 0.445661 -0.088354 0.285693 -0.670966 0.644467 2.124999 -0.589185 -2.878686 -0.063038 0.128707 -1.250686 0.821662 -0.473905 1.115993 0.940884 -1.557322 -0.472954 -1.791142 -0.215375 -0.522572 0.149230 -1.730941 -1.011242 1.444920 -0.511055 -0.272891 0.408117 -2.038423 0.419987 -0.250084 0.199521 -1.286082 -0.293706 0.725571 1.669703 -1.071238 -0.246107 0.022100 -1.793096 2.087396 0.805440 -0.945714 2.856431 -0.346816 0.416164 0.482914 -0.113555 0.074921 -1.166311 -1.040454 1.553403 0.669744 0.077051 -0.253189 -0.518801 1.218232 1.474395 1.219628 -0.338511 1.082398 0.215196 -0.395400 1.254843 1.813252 -2.163481 0.177044 0.290271 0.151820 -0.904635 -0.474074 1.065051 -1.723516 0.439298 1.859796 1.601591 1.729858 -0.024034 -0.421994
man 1.052078 0.401087 1.890457 -2.838516 1.634712 -1.256442 0.515072 -1.796554 -0.275180 -1.773756 0.284092 -0.334418 -0.345197 -1.021231 -1.284161 -1.613686 1.203385 1.344381 -1.280407 1.160592 -0.098228 0.170484 0.222464 -0.849310 0.062186 0.480966 1.214932 0.577022 1.065093 0.205952 0.451247 -0.317564 -1.047135 0.516563 0.033878 -0.467562 -0.626793 -0.704222 -0.269606 0.708381 -1.980883 -1.162503 -1.601320 -1.419568 1.074346 2.739086 1.164601 0.764491 0.311087 1.588991 -1.905966 -0.193335 -0.438440 -1.213012 1.268773 0.391250 -1.016016 0.128708 -0.193876 -0.631142 1.395482 2.415281 2.712618 -0.944549 -0.040807 0.446544 -1.074986 1.433140 -0.378022 -1.107331 -0.401210 0.816068 0.855884 -0.215464 0.256260 0.195762 0.465163 -0.313390 0.118940 -0.966571 0.629018 0.756831 0.645432 -0.033931 0.922974 -0.781144 0.132104 0.337841 -0.157208 1.054615 -0.866046 0.914931 -0.133635 -0.713322 0.072833 0.423252 -1.614954 -1.240658 1.239402 -0.376882 0.141629 -0.368429 2.511298 0.313535 -0.221202 -0.949256 2.214052 0.451904 0.048778 -1.180640 -0.974337 -0.777478 0.618654 -1.274836 0.214937 -1.110596 1.259191 0.254204 1.769963 -0.875548 -0.373118 -2.190989 -1.052634 0.583573 1.252128 0.212174 0.209102 -0.873954
into 0.405644 1.299856 1.183247 -1.762865 -1.893346 -0.889374 1.486823 0.173862 -0.498719 0.958996 -0.529731 1.624539 -0.125056 -2.874491 0.464008 0.164335 0.765401 -1.839848 -2.218897 -1.031997 1.652711 0.177877 -0.907130 -1.928718 -0.281101 -1.453837 -0.138361 1.542889 -0.203157 -0.621516 0.882972 1.185624 2.367973 -1.254952 -1.121638 0.754920 0.581301 0.482118 0.938381 -1.641203 -0.066159 -1.025709 0.912517 -1.612968 1.841580 0.053187 -0.224384 1.412567 0.732601 -1.361945 0.664770 -1.612183 -0.377579 -0.025196 0.278819 0.467303 -1.574208 -1.276677 0.043863 1.519076 -0.887395 0.782338 0.199141 -0.304359 1.088799 -0.431682 -0.009447 1.231583 0.479103 0.038866 -0.903030 2.630751 -1.352228 -2.281929 1.018247 -2.441620 0.613627 -0.004974 0.032474 0.606145 0.884258 -0.370136 1.263262 -0.294026 -0.729978 -2.011631 0.835023 -0.130411 0.165748 3.378451 0.058547 -0.460281 0.941797 1.256943 -0.815246 -0.308861 2.693342 -0.548053 -2.003187 -0.125867 2.231974 -1.509329 -0.997567 -0.120074 0.037333 0.181256 -0.701359 -2.658373 -0.948031 -1.438641 0.374663 -0.367198 0.140022 -0.696936 -0.558859 -0.056867 -0.208426 -0.082528 1.100334 0.404551 0.806964 -0.748188 -1.487532 -0.075548 2.506394 0.636766 -0.575038 1.842333
some 0.064992 0.216757 -0.201337 -0.673445 0.292476 -0.554097 1.158686 0.294422 1.062689 -1.629237 0.445900 0.021555 1.379765 -0.605387 1.030084 -0.262747 1.613970 -0.194407 0.659716 0.752375 -2.158597 0.431977 -0.448697 -1.723661 1.098931 -0.660529 1.842224 0.554681 -1.659126 -1.971264 0.489513 0.326507 1.478850 -2.322187 2.574885 0.201888 2.093896 0.124540 0.391545 -0.112972 0.004461 -1.957622 0.687402 0.549865 0.005619 -0.225921 -0.499724 0.394414 0.654480 -0.152362 -1.821754 0.611476 0.343944 0.851400 -1.275078 -0.320810 0.740039 -1.385989 -0.301571 0.277096 -1.538962 -1.158364 2.301507 1.216898 0.693848 -0.904549 -0.638428 0.983816 -0.897990 -0.104811 0.376792 -0.262073 -0.508267 0.200803 0.519479 -0.527624 0.299018 0.150416 0.327998 0.079966 -0.895578 0.229896 0.297381 1.228983 -0.641258 -0.335955 -1.120602 -1.118948 -0.989188 0.055283 1.437431 -0.154039 -0.095311 -1.038925 0.656168 1.061864 0.182061 -0.238381 0.641919 0.020820 -0.660681 -0.445734 0.368298 1.309596 -0.417646 0.331882 0.019182 0.195799 0.058935 -0.587989 -1.182040 0.071847 1.411246 1.070164 -0.100885 1.006592 -0.246947 -0.622967 0.425552 1.341343 0.530307 0.206278 0.496135 0.599862 -0.089191 -0.470919 -0.918234 -0.888472
could -0.935580 0.568033 1.281301 -1.920426 -0.263671 0.471971 0.833365 -1.463892 -1.900776 -1.681875 0.725746 -1.253479 1.232980 -2.743088 -0.937805 -0.621875 -0.110969 1.513971 0.428794 0.178253 0.021148 0.714515 0.058652 -0.334377 0.058512 0.147063 -0.658235 -0.593309 1.640350 -0.692942 -1.405996 -1.627951 1.731413 -0.158242 1.508653 0.311450 -0.154784 -0.513705 1.824010 0.885071 -0.299237 1.024711 -1.393065 -1.041907 -0.122789 0.889482 0.672459 -0.068832 -2.210495 -0.091877 -0.950799 0.597227 0.241484 0.936369 -1.187608 -0.948135 -0.865524 0.170500 -0.514731 0.760679 -0.307945 -0.597264 -1.789988 -1.661164 1.413140 -0.237084 0.225132 0.566096 -1.413269 -0.929836 -2.377689 -0.232052 -0.982952 0.050107 1.734129 -1.444577 -0.484889 1.775687 -0.767540 -0.257763 0.571886 -0.739378 0.205969 0.227391 0.654393 -0.569228 0.483607 -0.101578 -1.518303 0.160690 -0.715292 -1.152198 0.849088 -1.127303 -0.661994 -0.746672 -0.246564 1.973778 0.330777 -0.186603 -0.663308 2.379247 0.147570 0.249439 -0.260223 -0.388172 -1.326239 -1.925029 1.026665 -0.515148 0.301934 0.738202 0.832228 1.656674 1.661030 -2.797173 -1.009285 -1.662932 0.415002 0.864835 0.389921 0.667558 -0.608625 0.101710 1.037881 1.206259 -0.143474 0.311689
has 0.178612 -0.923821 0.732942 -0.170479 -1.233500 -1.803651 0.217899 1.047194 0.578317 -0.577795 -2.356321 1.757851 1.024412 -2.361677 -0.369379 -1.068220 -0.941201 1.187693 1.107415 1.169014 -1.199181 -1.355206 -1.237409 1.373550 -0.090469 0.170820 -0.005505 2.271742 0.926165 -0.009650 0.434506 2.907375 0.662259 -0.594611 2.338924 1.591013 0.745026 2.557940 -0.077519 0.566249 -0.547726 -0.324259 -0.786734 0.645749 0.146265 0.652931 -0.846810 -1.966181 -0.574142 0.594386 0.233914 0.236834 -1.517120 -0.504866 0.529648 0.601977 0.941309 -1.398832 -0.552370 2.336068 -0.679447 -0.515908 -0.734639 2.525496 -0.171689 -0.350020 0.784262 0.228697 -1.327199 0.378448 0.577796 0.099474 -0.432458 1.259798 0.293675 -1.032031 0.097158 1.551033 1.125809 1.063168 0.102770 -0.091722 -1.380359 -0.941480 0.927506 1.290428 -0.502160 0.793374 0.133716 0.378610 -1.717356 0.228310 2.176960 0.248722 -0.750954 0.447169 -2.236492 1.102731 -0.542787 -1.116129 -1.469227 -0.194731 2.189980 1.276867 1.826315 1.362032 0.099949 -0.675465 -0.821730 -0.142456 1.187308 0.556602 1.529969 1.519673 0.728463 -0.766243 1.867104 -0.114081 1.493862 -0.737624 -0.400738 2.126271 -0.297345 0.430177 -0.919386 0.082826 3.245957 1.613850
only -0.491530 0.152488 -1.112962 -1.676696 -1.043211 -0.184220 1.148039 -0.190795 1.084785 0.191869 -0.745751 -0.374315 0.956223 -0.411877 -1.179060 0.233722 1.671886 0.790591 0.309626 1.580091 -1.111626 0.542234 1.034095 -0.287806 -0.479536 0.653860 1.712178 0.960824 0.471788 0.145334 -0.365493 0.661642 1.206016 0.430694 -0.592273 -0.044294 0.246401 1.480124 -0.416714 1.169674 1.894081 0.943692 -0.930854 -0.096549 1.897119 0.546132 -0.294439 -0.945970 0.736227 -1.147285 -0.489249 -0.491833 0.144005 0.832625 -0.687744 0.363823 0.192654 -1.236524 0.040675 0.889008 0.533676 -0.291718 -0.500639 -1.856223 -1.210019 -0.302319 -2.596344 0.050683 -0.003225 0.096434 1.446054 0.110672 -0.592719 0.960485 0.177060 1.097047 -0.588124 1.182528 0.683603 0.143009 1.307892 -0.329797 -2.001706 -0.522332 -0.126227 0.308528 1.321952 -1.790289 -0.148196 -0.391612 1.849166 -1.578992 1.617672 0.351475 -0.226996 2.073621 -0.238482 1.212938 -3.182417 0.411963 -0.191547 -1.090724 -1.558159 0.335121 0.878077 -0.000672 0.454147 -1.101447 0.526209 0.258168 1.106767 -0.414038 -0.644148 0.979063 0.696234 -0.533187 -1.110733 0.705492 -0.181749 -0.688449 -0.210529 0.330379 -0.812997 1.020766 0.456810 0.069669 1.314941 -0.303259
any -0.024798 -1.229550 -2.392152 -0.312023 1.983862 1.240149 1.224725 1.353947 -0.764795 -0.030270 -0.409425 -1.386875 0.575143 2.000133 -0.565838 -0.636129 0.267310 2.886823 -1.732506 -2.335399 -1.393004 -0.822339 0.236868 -2.399621 0.501993 0.067075 0.030513 0.306233 1.080899 -0.912485 0.246419 -0.867298 0.061650 -1.076881 -1.164883 -0.726387 0.171474 -0.194430 0.655863 -0.146688 0.988540 -0.451135 0.457074 0.050979 -0.980330 -0.295604 -2.110666 0.226327 -0.315176 -0.799090 0.990765 1.656177 -0.648123 2.383001 -1.222808 0.893126 -1.150395 -1.849498 -0.281953 -2.251633 -1.714936 -1.532030 -1.521977 0.054827 2.035450 -2.018337 0.052747 1.416851 -1.362096 1.037411 0.155818 -0.829803 -0.152281 1.590399 -0.228278 -2.098127 0.376612 -0.464564 -1.381249 -0.656087 -0.043676 -0.583488 -1.928567 1.034926 0.440113 0.882624 1.277353 -0.599052 1.229256 -1.638390 -0.592133 0.334598 0.708061 -0.845637 -0.631796 -0.327463 0.595913 0.180876 0.085506 0.205171 -0.528931 -0.055343 0.795589 0.448806 0.969155 2.060110 0.698592 0.173109 1.046903 -2.271337 -0.191493 1.217753 1.668764 2.706012 -0.628939 -0.917657 -2.664906 0.259468 -0.456480 1.538236 1.770114 -1.331095 -0.804381 1.993407 -0.433962 -0.505637 -1.869363 0.973174
very 1.411657 -0.480466 -0.382396 -0.148869 0.163913 0.048464 -0.163627 -0.054908 1.255690 -1.020466 -0.052680 -0.423891 0.151165 -2.372388 -0.145951 1.211186 -0.259879 -0.856278 0.042885 0.757620 -0.320655 -0.784104 1.177490 -0.713868 -0.095813 -0.824273 -1.388905 0.130066 1.476289 1.009319 -0.714161 2.718789 0.206638 0.182966 1.271118 -1.193539 -0.258403 -0.100652 -0.298549 -0.534636 -1.433141 0.229588 -0.418415 0.128206 0.884257 1.368438 -2.171046 0.389572 2.647845 0.727132 -0.744538 0.761084 -0.613205 0.857229 -1.274174 1.515627 1.457837 -0.271794 -2.376758 0.444505 -1.803344 -1.004682 -1.106079 0.046554 -0.107864 -1.982874 -1.597251 -0.119170 -0.446743 1.194526 -0.162997 -0.193500 0.616474 -0.924467 0.784098 -0.503054 0.549517 1.313892 0.511938 2.142690 -0.016407 -0.411029 0.387609 0.031991 2.643604 0.084676 -1.066911 -1.418966 -0.287572 -1.737376 -0.959235 -0.526314 1.084329 0.411427 -0.129788 -0.054121 -0.807920 -2.176019 -0.532013 -0.576609 1.053699 1.349949 1.409706 0.178645 -0.061314 0.082993 1.295477 0.785811 1.152709 -0.676897 -1.133397 -1.736122 -1.161237 -0.942946 -0.754850 -0.893453 0.777827 1.368589 -0.405169 0.276046 -0.424703 -0.821006 -1.567876 0.422777 -1.640049 0.212299 -0.984097 -1.504099
like 0.655664 -0.333366 1.383453 0.200871 -1.057792 0.339267 1.912122 0.368603 -0.393126 0.239453 0.180872 -0.887474 -1.933850 -0.852825 -1.158095 -1.522532 1.999028 1.498396 -1.593924 0.134523 -1.177261 -1.695510 -1.379295 0.065583 0.259231 -1.284156 0.475795 1.999865 -0.049088 -0.026138 -1.545657 0.102331 -0.008587 1.197000 0.583599 -0.338917 -0.182631 0.653094 -1.313695 1.670214 -1.918782 1.518163 -1.543483 -0.059560 -0.143933 1.451405 -0.742643 -1.129499 0.348047 0.328792 -0.670189 -0.569098 -0.598875 1.364858 -0.124796 1.387810 0.481506 0.757441 0.614156 0.297324 1.123548 -0.430431 -0.600437 0.022679 -2.227262 1.013448 0.244619 1.235477 -0.504014 0.783630 1.361934 0.045924 -0.273120 -0.086457 0.745660 0.601196 0.247544 2.268270 -0.266849 0.795778 -1.867239 -1.942453 1.282124 0.214079 -0.168731 -0.287674 -0.144973 0.284047 0.924400 -0.401259 -0.267367 -0.910195 -0.497496 -1.206896 -1.084949 -0.939671 -0.681658 0.992537 0.918751 -1.558676 1.194149 -1.569924 -0.401370 1.266372 -0.093517 0.721619 -0.400661 0.280827 -2.517551 1.531034 1.177267 0.239418 -0.822368 0.855718 -0.068408 0.465912 1.124468 1.543260 0.979862 -2.622298 -0.298354 0.452215 -0.076725 0.466018 1.974864 -1.351529 -0.833669 0.618477
did -0.002013 -0.384786 -2.052083 0.178264 -0.024354 1.141004 1.817965 -0.249212 -0.880969 -2.717582 2.038418 0.443921 1.119991 0.916637 0.096641 0.220070 0.287329 0.651534 -1.223744 1.986912 -1.736081 2.132788 0.033934 1.276076 0.112902 0.536764 0.587885 -0.467894 1.159674 -0.942187 0.638845 -0.289894 1.367257 -2.504061 0.224640 -1.134479 -1.209812 -1.195221 1.702023 -1.082441 0.994650 2.141042 0.338948 0.929619 1.802339 -0.005908 0.046992 -0.349070 0.163625 1.570347 -0.303291 -0.142566 1.662794 -0.822429 1.316250 -0.571389 -0.451289 0.308910 0.433621 0.574196 -2.484981 -0.528659 -1.692255 0.615566 -1.121934 -0.986303 -0.152909 0.681212 -3.027214 -0.408564 2.145315 0.813917 1.512545 0.400511 1.997996 -0.957694 -0.732479 0.790594 -0.153492 -0.976533 1.596053 -0.901765 1.581036 -0.809368 -0.912915 -0.180971 -0.868925 1.114423 -0.680785 -1.216971 -0.652406 -0.739578 2.369879 -0.920018 0.140787 0.796988 1.079069 0.324259 -1.404250 -1.356663 0.008811 2.205822 0.105312 0.671534 -0.398645 1.560833 0.312182 -0.242638 0.608177 0.130161 -2.381723 -0.863711 2.764637 0.382359 0.787927 -1.003105 0.062165 -0.940539 0.870500 0.295231 1.625529 -0.625890 0.512967 -1.495525 0.818531 0.509176 -0.583334 -0.233754
time -2.033032 -0.431744 0.242538 0.942262 -0.173784 0.187898 1.202612 0.691440 0.130140 -0.180574 0.492373 -0.070982 -1.709343 -0.251851 0.126066 -0.830525 1.150650 -0.280697 0.272532 -0.349031 -0.593978 1.072664 0.610939 1.520647 1.408714 0.018473 0.005408 0.384913 -2.422551 -0.347967 -0.191971 0.849407 0.814495 -0.013358 -0.272544 1.927720 0.493293 1.101973 0.783140 -0.112615 -0.751637 -0.977399 1.447668 -0.974064 -0.694757 -0.327828 -1.501332 0.169117 0.369451 0.032133 -0.501453 0.732199 0.130842 -0.594579 1.933071 -0.406889 2.073709 -0.006239 0.541391 -0.482372 1.429852 -2.311117 -1.392055 1.571813 1.081605 -0.270979 0.529339 0.532408 0.905703 -0.462634 0.498657 2.554283 -1.130491 -1.483208 -0.796001 -0.219784 -2.913949 0.538371 -2.255741 0.199711 -0.236591 0.622795 1.029548 0.138817 -1.076216 -0.514744 -0.418289 1.692285 -0.240040 -0.871444 0.425490 0.626445 0.765684 -1.530767 0.799037 0.312904 0.849077 -1.195873 -0.801835 0.814589 0.467757 1.308074 1.671865 1.447353 -0.797463 2.323493 0.781778 -0.185760 -0.403395 -1.856958 -2.400035 1.705215 0.057597 -0.995392 1.179068 -1.540266 -0.769060 0.126267 -0.368628 -0.421907 1.532102 -2.807491 2.240285 0.363747 0.967748 0.145529 0.309805 2.275162
its 0.090243 0.421773 1.151110 0.650479 0.436110 -1.838457 1.251316 1.012506 -0.463867 0.197523 0.671298 -0.621415 0.176815 -0.371165 -0.331643 0.563886 0.847026 0.787976 1.548380 -0.279506 -1.041023 -0.294218 0.710460 0.039302 -2.157742 -1.009716 0.084534 0.528004 2.087677 -1.442334 1.159418 1.427596 -0.689043 0.925487 0.519962 -0.445384 0.476457 -0.087055 2.022375 -1.161006 0.192115 2.109967 -0.199953 -0.212254 -0.661308 -1.905355 -0.728478 0.696446 1.426736 -0.364720 -0.227340 -0.625547 -1.820803 0.293205 -0.286632 0.595070 0.348789 -0.436252 -0.890983 -0.503562 -0.970179 -1.124398 1.523130 1.705950 -1.198887 -1.727715 -1.178130 1.384824 -0.141293 2.466460 0.747338 0.263656 1.893213 0.083999 -0.870936 -0.332744 -1.310820 -1.069095 0.186355 -2.356538 -0.538810 -1.237660 0.092321 -0.237659 -0.603772 -2.356043 0.561411 -0.754732 0.481916 -0.880306 -0.204348 -1.117171 -0.735614 2.412702 0.525721 0.278328 0.725151 -0.120902 -0.304113 -0.073756 -0.056770 -1.131419 1.957512 -0.148493 0.147527 -0.892472 -0.202754 -1.111736 0.114021 -1.226132 -0.760085 1.048015 -0.671525 0.084949 0.689335 2.533334 -0.703656 0.807596 0.469876 1.214097 1.129209 -1.008383 1.008359 -0.663194 -0.490510 -0.631568 0.156142 0.337577
than 1.618405 -2.329156 -1.170938 -0.911275 -0.677167 -0.785183 1.118263 0.947144 -0.201319 -0.158478 -1.045048 -0.245704 2.652055 -0.409552 -1.068516 -1.860898 0.793914 -0.579107 -1.805116 0.242280 0.293503 1.362193 -0.806723 -1.145657 1.379434 -1.158420 -1.450055 0.896101 1.263918 -0.632605 -0.648810 -0.909194 0.242194 0.813399 0.584905 -1.116476 1.398594 0.454542 -0.768879 0.207958 1.728831 -0.027569 -0.915566 1.392534 -0.950125 -0.396129 -0.463156 0.517809 1.975755 -1.555691 -2.580751 -0.428008 -0.330048 -0.080788 -0.382631 -0.918151 -1.672269 1.926733 -0.071128 0.549066 -0.841902 -1.072038 -0.563480 -0.263833 -0.612857 0.368149 0.973931 0.319603 -0.108265 0.522816 2.445301 1.467347 1.708490 -0.134533 0.201913 -0.465894 -1.260312 0.068519 2.413949 -0.143350 -0.225740 0.088334 -1.096995 1.224495 -0.581251 1.546908 0.365779 -1.659647 -1.086431 0.586993 1.117367 0.676962 -0.200954 -1.316472 -0.972837 -1.809467 0.645897 1.617679 1.028510 0.864556 -1.897919 -0.776975 -0.066324 -1.418863 1.279547 1.249610 1.975790 -1.913690 -0.747394 -2.348620 -0.401956 -1.997352 -1.125786 0.816961 -0.738124 0.586346 0.006737 -0.973170 1.504688 0.382727 0.022653 -0.537650 1.296047 0.041276 -0.594034 2.089879 0.033150 -2.323524
other -2.559732 -0.495623 0.847259 -2.330801 1.154521 0.172219 -0.514183 1.716043 1.039604 0.887691 0.703506 0.093204 1.188185 1.402389 0.257145 -1.350892 -0.830922 0.709339 -2.366703 1.361908 -0.582510 -0.064853 -1.766605 -0.252215 -0.852606 0.382113 0.426842 1.356096 0.663950 0.229509 0.330821 -0.323226 -0.160265 0.174399 2.984174 -1.923944 0.302501 0.215299 0.231110 -0.141653 -0.106745 -1.344037 2.270174 0.876179 0.571955 -0.611396 -1.123538 1.040198 0.258953 -1.124914 -0.236321 -0.624937 -1.284222 -1.678047 -0.856275 0.659955 0.904322 1.686567 -0.327810 -0.106936 -1.237319 0.194509 -0.664278 -0.551135 -1.040567 -1.264540 0.891869 -0.562487 0.839453 2.900665 0.537915 -1.222694 -0.877733 0.134546 0.223365 -1.144293 -0.540989 -0.352436 1.980589 0.273677 2.039995 0.778226 -0.440499 1.331135 0.227359 -0.424269 -1.032313 0.295448 1.561517 -2.061001 -0.048736 -1.569603 -0.501769 -0.550468 0.689879 -0.721090 -0.458002 -0.008394 0.601614 2.231986 1.029566 0.012691 0.100204 0.882609 0.251558 2.533832 1.176949 0.302280 0.098985 0.609953 -0.476410 -0.599384 0.110848 -1.129849 -0.508129 -0.219345 -0.854940 -0.400393 0.554649 0.475376 0.915382 0.402332 -0.611833 0.015034 0.617789 -0.854913 1.810478 -0.366377
before -1.685204 0.043190 1.061269 -1.317988 0.148650 0.644169 -0.293386 -1.352518 -1.387152 -1.065966 -0.264262 -0.284163 -0.384121 0.335914 0.682396 0.189621 -0.078958 -2.112357 -1.095707 0.319200 1.864728 -0.720497 0.480122 0.303926 -0.109552 -1.054195 -0.715559 1.509048 -0.536421 1.701536 1.016785 -0.160792 1.540627 -2.021327 -1.512459 -0.296978 0.375033 0.681143 -0.806871 0.466065 0.033452 -0.509722 0.389317 0.152733 -0.056024 -0.458658 -0.436086 0.360982 1.578426 0.381541 -0.844711 -0.651318 0.433225 0.300478 0.626386 -0.252533 2.349322 -0.118833 -2.286846 -0.694673 -0.826923 -0.786654 -0.635526 -0.591656 0.067439 -2.067887 0.175576 1.077192 0.259974 -2.648741 0.443403 0.619082 0.627529 0.719344 -2.169739 1.163682 0.217002 1.357616 1.638109 -0.682961 -2.308228 0.418516 1.474725 -1.065632 0.677463 0.759287 -0.050052 1.223515 0.013173 0.053383 -0.044640 -1.298808 -0.284513 0.370297 -0.352374 0.464684 0.488714 0.785602 -0.176885 -0.646668 -0.192717 2.173021 0.619669 1.796156 1.995252 0.034520 0.663021 -1.061137 -0.884283 -0.447179 -1.664560 -0.509712 0.156647 -0.452115 0.719131 0.420589 -0.691224 -0.102599 0.034600 -0.923425 -0.606265 -2.116307 -1.897492 -1.951191 -1.015551 -0.658710 0.115816 0.408998
about 0.335725 1.045340 -0.385933 -0.284973 -0.923575 -0.112321 -0.072653 0.327950 0.350510 -0.155906 1.997001 0.239649 0.771949 -0.680796 -1.503441 1.283497 -1.118252 0.199136 -0.569507 0.815290 -1.127221 -1.979804 -0.500613 -1.520460 0.015504 -0.383757 -1.097402 0.770189 -0.804059 -0.156749 -0.569667 0.802285 -0.421200 1.618279 0.114023 -1.571931 -0.174062 -0.814653 0.566953 0.916248 0.166587 -0.275816 0.335843 1.146369 -1.589166 -0.456666 1.089457 -1.094433 0.956866 -0.925373 -0.517344 -2.810013 -0.564938 1.035509 0.842289 -1.538477 -1.068307 -0.475039 1.473604 1.797497 0.323883 -0.559444 -2.124768 0.973088 -1.766484 -1.701026 -0.143837 0.159271 -0.093942 1.363162 0.297778 -0.821263 -0.195530 -1.052816 -0.173672 -1.041922 -1.645581 0.580117 0.174549 -0.583507 -0.494739 -1.295453 -1.546339 -0.033635 0.399696 0.798661 -0.001972 -0.736597 -1.558457 1.512471 0.478218 -1.456750 0.957110 -0.452697 -0.125931 1.717033 -1.343272 -0.559898 0.743497 -1.154821 0.793797 -1.219351 -0.723002 -1.444040 -1.422526 0.155322 -0.194106 -1.220361 0.023884 -0.702558 0.463272 -1.605989 1.036289 1.822717 0.632363 -0.053037 1.106878 0.583576 -2.063519 -0.778205 0.577733 -0.943366 -0.153832 0.760121 -1.392357 1.482106 -0.579699 0.597948
