3000 128
<pad> 0.637150 0.760374 -0.179243 -0.184822 -0.786490 0.896451 0.981117 -0.671400 0.931234 0.926754 1.121010 0.546756 0.277018 -0.154517 2.312224 -0.458970 0.198000 -1.228865 0.030050 0.224070 -0.176022 0.310052 0.297239 -0.870631 0.187220 -1.135739 -1.580071 -1.172710 -1.012127 -0.492365 0.243491 1.835595 -0.382014 0.204452 0.845580 1.403486 -1.329136 -0.658072 -1.931672 -0.123310 0.402879 -1.219224 1.079357 -0.793341 0.282658 1.282948 0.636241 -1.876951 1.227856 0.315027 -0.116494 -0.597423 -1.531654 -0.245792 -0.376219 0.882203 0.557184 -1.258855 -1.083946 -1.229514 0.772377 0.355694 0.155894 -1.723736 -1.151849 -0.294956 0.431069 -0.694818 0.541389 -0.374813 1.825625 -0.013073 0.615997 0.258626 0.124632 -1.050556 -1.279891 -0.771699 0.887102 -1.031905 0.302048 -0.723925 0.011734 1.806711 -0.777519 -1.624761 -0.342038 -0.056624 -1.136804 -1.094121 0.421504 -0.933406 -0.875223 0.285064 -2.305554 -0.611841 -0.087802 -1.336228 1.646138 0.351099 0.801288 -0.305882 2.065752 0.283935 2.219398 0.939159 -0.142509 0.096608 0.882816 0.473134 -0.947597 1.115388 0.707319 -0.094352 0.783394 0.441335 0.653155 1.499726 -0.301043 0.109075 -0.993844 1.488817 1.429444 -1.330568 1.249805 -0.207037 -3.077277 0.137989
<start> 0.484499 2.252754 -0.645705 0.436007 -0.344480 1.061769 -0.026927 -0.892163 1.265960 0.182892 0.576301 0.250172 -0.513868 1.635381 0.963047 1.288615 -0.990196 0.123606 1.174685 0.077422 0.098484 -0.684646 0.789151 0.637384 -0.306384 -0.470166 0.769930 -1.038001 -1.509423 -0.572306 1.568869 -0.022572 1.121756 0.221650 -0.404478 0.028623 0.057370 -1.920428 -0.767325 0.821046 0.158049 -0.178106 -0.550059 0.662259 0.225478 0.440573 0.158168 -0.066514 -0.802175 -0.286444 0.364576 -0.087995 -1.657561 0.168177 2.021130 -2.481413 0.697627 -0.124114 -0.182529 1.587662 0.891886 -0.809349 1.276617 0.797243 1.547074 0.102815 -0.079757 0.997478 0.061297 1.228582 -0.102762 -0.243492 -1.281940 -1.984704 0.439267 -0.234705 -1.507577 0.532600 1.450691 0.175594 0.059878 0.089460 0.667739 -0.779017 0.430280 0.180691 -0.741374 -1.005978 -1.794168 1.859222 -0.144658 -0.100515 1.377908 0.577316 1.763535 -0.450692 -0.263434 -0.684890 -0.486551 1.343306 -0.610992 0.658894 0.045027 -1.581981 -0.315035 0.379526 -0.915693 1.903710 -0.367658 0.078106 1.218955 2.354287 0.415950 1.008323 0.201882 -0.350270 -0.869654 -0.604820 -0.188537 -2.287961 -0.405116 0.409100 -0.189714 0.684707 -0.470302 0.693298 -1.177624 0.501826
<end> -1.339714 -1.121945 1.016150 -1.197531 0.188786 -2.144796 1.815053 -0.776316 -0.578802 -1.857367 -0.074937 0.451361 1.446593 -0.100927 -1.030618 -0.271132 0.279505 0.402725 0.043504 0.130347 -2.003932 0.406764 -0.718072 0.675320 -0.188912 -0.111351 0.472281 -1.043664 1.415120 0.261080 -0.081981 -0.904382 0.099284 1.916387 -0.200861 -0.127684 -1.400753 -0.395294 0.103636 -1.194072 -0.906750 -0.980109 0.078411 0.787118 -0.189791 -1.190842 -1.108153 -0.076208 -0.860123 -0.041601 -0.278373 1.131066 2.055096 -1.191611 -0.536159 0.809904 -2.318075 -1.518750 -0.946504 -0.464617 0.370337 -0.216613 -0.125330 -1.371564 0.851116 1.693942 0.229430 0.307364 0.636752 -1.406562 -0.968315 0.802943 -0.443177 -0.574121 0.354284 -0.181828 -0.778492 -0.400577 -0.650582 0.769209 0.032836 0.298545 -1.807358 0.165013 -0.059525 -2.468899 -1.347681 -0.158957 0.087050 1.035797 -0.828759 -1.195621 -0.132041 1.325487 1.620426 -0.184528 -1.630407 -2.096810 0.149993 -0.551199 -0.293398 -0.167471 0.546913 0.222615 0.235285 -0.026263 -0.498997 -1.800515 -0.663110 -0.881116 0.593070 -0.333953 0.100073 -0.289232 0.932696 -0.701686 -0.819840 0.639044 -1.338312 0.686143 -0.181450 0.201782 -0.850367 0.332737 1.033615 0.377228 1.055984 0.853400
<unk> -0.496225 0.117387 0.378400 0.286889 0.386267 -1.107090 0.057282 1.350094 -0.285619 -0.076842 -0.976674 -0.831482 1.187255 -1.155556 0.744837 -0.699696 0.465237 -1.232798 -1.194332 -0.302445 -1.100363 -0.552333 -1.008671 -0.563059 0.362222 -0.667655 -0.224881 -0.801383 0.844755 1.393899 0.032631 -1.041519 -0.340868 -1.439958 -0.387217 0.525400 0.094482 0.114697 -0.437545 0.409288 0.364017 -0.109354 -0.230924 -0.674908 -0.855523 0.194988 -0.392317 0.801200 0.757668 -0.830665 -1.224003 -0.080462 -1.186816 0.070986 -0.752999 -0.237347 0.390483 2.356909 0.166337 1.103136 0.081517 0.494758 -0.988112 -1.228769 -0.430293 -1.248617 -0.469963 -0.520490 -0.350587 -0.960670 0.564163 0.565986 0.497262 -0.019410 0.109861 0.132004 -1.210987 0.987333 1.692797 1.048975 -1.692668 0.010436 -0.833979 -0.007902 0.670001 -0.370829 0.112415 0.077727 -0.198631 -0.891822 0.264642 -1.207097 0.593699 0.679303 -0.123009 0.020860 -1.438078 -0.226918 -0.031447 -0.764408 -0.522237 0.623605 -0.041241 -0.024820 0.037448 -2.350141 -0.572324 -0.376094 -0.042429 -0.322676 -0.271108 -0.193628 0.456450 -1.828755 -0.589417 1.226164 -0.523408 -0.688212 0.224702 0.374015 0.465668 0.466482 0.247959 -1.572994 -0.258105 0.558718 0.760157 -1.399283
the -1.967171 -0.427022 0.265364 0.165312 -0.522736 -0.092016 1.449308 1.294476 1.744120 -0.529692 0.401447 0.132748 -0.903547 0.242037 -0.838012 -0.028509 0.127008 0.287482 0.391319 -0.226757 0.101007 2.254889 0.004964 -0.569416 1.594322 -1.747364 -1.324646 -0.550506 -0.471555 1.059860 0.322121 -0.649929 -0.539218 -0.513758 0.389686 0.873240 1.237741 -1.044635 -0.259441 -0.289372 -0.460877 -0.169789 0.404297 -0.398219 -1.631445 0.288002 0.458849 0.587136 0.170725 0.181405 -0.596820 0.286901 0.321376 -1.586020 -0.425465 1.629157 0.628684 1.461362 0.414520 -0.363837 -1.513407 -0.773905 -1.127113 -0.533561 0.974268 0.303579 0.099005 2.346114 -1.162518 -0.358632 -1.070876 -0.130264 0.032175 -0.727528 1.073573 -1.440876 0.319490 -2.119965 0.942930 0.379561 -0.295110 -0.643722 -0.592087 -1.067496 0.381927 -1.060605 -1.145927 -1.401711 0.237112 0.314821 0.216036 0.954489 2.284956 1.111882 -0.250936 -0.777925 0.457975 -0.560913 -1.366427 -1.801955 1.367258 -0.699429 2.057842 0.317350 -0.708295 0.351751 -0.391086 0.683179 -0.900892 0.524214 1.237838 -0.243350 0.674099 0.695362 1.700057 -0.610017 -0.246801 -0.434730 1.326101 -1.538982 -1.289682 -1.391945 0.479439 -0.584281 -0.538473 0.313309 0.204852 0.194918
and -0.149115 2.172873 0.704857 0.653429 1.298620 1.183672 -0.742435 0.305151 0.418551 -0.900367 0.393040 -0.532164 1.664670 -0.734581 0.568818 -1.530224 0.313619 1.200656 -1.237620 -0.042591 1.141878 0.443861 0.837754 0.455255 1.819811 0.198790 -0.007528 0.439202 -1.780555 -0.161527 -0.857662 -1.368221 -1.350158 -1.142873 0.578252 0.320385 -0.055069 0.520600 -0.298306 -1.028448 0.181174 0.788656 0.072748 2.928882 -0.877473 0.307853 0.467099 -2.687322 1.384561 -1.245857 0.211498 -1.633412 -0.194256 1.327526 -0.337528 -1.128123 -0.734100 -0.101181 0.158587 -1.284233 0.409760 -2.188516 0.859203 -0.293734 1.282621 1.209253 -0.869092 -0.462935 -0.173538 -0.987390 0.366935 -1.487883 -1.299842 -1.800650 -0.762719 0.263936 -0.271713 -0.608692 0.149615 1.512859 0.333194 0.135018 2.149514 -0.381522 1.085720 -0.416116 -1.218147 0.414806 -0.496810 -0.536336 0.130977 0.276770 -0.725030 -1.165884 1.239940 -0.650831 -0.658869 -0.147328 0.033954 -0.570326 -1.794541 0.777231 1.725076 0.333768 -0.464497 -0.139277 0.159160 -0.922992 -1.670428 -0.422762 0.207981 0.082515 -0.611919 -0.024114 0.694110 -1.257241 1.969638 -0.294782 -0.763979 0.148980 -0.803683 -0.508688 -0.445363 -0.701580 -1.289788 -0.191401 0.858858 0.406010
of -0.347788 1.978466 -0.842111 -1.074252 -0.519332 1.032891 0.991606 0.709927 0.352682 -0.153204 -0.508263 0.178623 2.839418 -0.643405 0.707299 -0.317366 -0.462375 -2.477962 0.096886 -0.283055 2.277898 0.960624 1.202276 0.118738 0.858500 0.003624 0.966366 1.035365 -0.018540 -0.284300 0.882614 1.782076 -0.513262 -0.171390 -2.205906 -0.270624 0.246005 1.169344 1.589354 1.574153 -2.134763 -0.223544 1.323911 0.654841 -0.575470 0.011254 -0.619876 0.154270 1.607051 2.723772 -0.600048 -0.263444 -1.300582 0.676586 -1.304886 2.328650 -0.652325 -0.441543 -0.672451 -1.307661 0.864212 0.020954 -0.676480 -0.882794 1.138016 -0.500077 0.975829 1.672748 -0.583956 0.753449 -1.587109 -1.034218 1.111829 0.768821 -1.404150 0.356636 -0.545477 0.845193 0.605847 -0.197623 -0.119989 -0.788869 1.228411 0.597126 1.304176 -1.362595 -0.805223 -1.144126 -0.150864 0.420566 1.356352 -0.778001 0.874205 -2.603590 -0.453985 -0.829679 -0.656860 -1.087538 1.162646 -1.657854 -0.395120 2.353092 -0.756555 0.084273 -1.103426 1.374839 0.451465 -0.563762 -0.419134 -0.126605 -0.007272 -0.079963 1.901476 -2.339673 -1.412877 -0.642930 -0.204248 -0.749645 0.532373 2.123470 1.811721 -0.610293 0.810192 -1.235938 0.533435 -0.136605 1.073124 -0.287221
to -1.162885 -0.578522 -0.422319 0.870850 0.379757 -0.303396 -0.388315 -1.774004 -1.053969 -1.334339 1.125453 2.010056 1.789592 -3.797239 0.456335 -0.065848 0.416152 0.258678 -2.734467 -0.375232 1.250058 0.099648 0.440349 0.490425 1.469728 -0.666554 0.016295 1.395718 -1.296303 0.237628 -0.531513 1.031402 -0.747781 0.148324 -0.728783 0.682684 -0.564839 1.968731 1.940565 0.897022 0.429973 0.771723 0.379178 -1.102294 -0.455562 1.062083 -0.010462 1.845818 -0.503781 -0.277712 -1.437014 1.060945 0.242900 -0.754468 0.810510 -0.509791 1.346036 -1.461526 0.486237 -0.283017 0.087239 -1.743782 0.541002 -0.869406 -1.299653 0.376565 -0.150864 -0.450626 1.930166 1.716508 -0.016355 1.473750 -1.462521 1.046449 -0.422641 -0.745391 2.045638 -0.885377 -0.613664 -0.039983 0.169003 -1.254515 0.662022 0.715394 -0.260958 0.745610 -0.430005 -2.503509 0.223484 -0.478317 0.142051 1.948008 -2.076055 0.006998 1.053712 -0.209270 -0.691936 -0.538212 -2.077750 1.228343 -0.251802 0.886968 1.148327 -0.281569 1.353345 -0.267744 1.058984 0.365728 -0.064347 -1.191439 -0.474418 -3.563725 0.088670 -0.323619 0.539952 0.971878 1.048622 0.095916 0.042960 -0.007223 2.027775 1.037562 -1.207615 0.384290 0.475102 0.967018 2.307384 0.181889
a 0.647106 1.630532 -1.120705 -1.990936 1.033453 1.042783 1.140188 2.112977 0.587759 -0.402606 0.642817 -0.937363 1.200661 0.129195 2.165006 0.561074 0.899213 0.033003 0.226196 -0.090606 -0.329721 0.886255 -0.271369 1.374404 2.046212 0.593508 -0.351283 -1.957058 0.313112 -1.486228 0.710597 -0.161519 -1.828266 1.077860 1.214664 0.379847 -0.551893 0.502605 -0.662113 -0.079090 -0.288437 -0.571409 -0.045001 -0.877219 -1.353060 -0.091435 -0.166071 -1.361992 0.432800 -0.104435 -0.404004 1.070247 2.059124 -3.077657 -0.576751 -1.452892 -0.220757 -0.390784 0.078401 1.490657 -0.357891 -0.616536 -0.646037 -0.785186 1.006138 0.767162 -0.071768 -1.356151 -0.971287 1.857268 -2.538815 0.813471 -1.555357 -1.091778 0.338395 0.685620 0.204210 -0.226832 0.187899 -1.455794 -1.402188 0.263527 -0.073792 -0.299915 0.722768 -1.504740 -0.988365 -0.040523 0.692655 0.977798 -1.651868 -0.316808 -0.647687 0.849351 -1.876837 0.282862 -0.634777 1.012541 -1.535506 0.164423 -0.443663 -0.272520 2.750501 -0.543701 1.295959 -1.360269 0.680296 0.635446 -0.940314 2.717393 0.005473 1.712360 -1.141882 -1.386056 0.124536 -1.177204 -0.831987 1.280307 0.864546 0.165959 0.644206 2.164345 0.911112 -1.187995 -0.129181 -0.454830 0.152644 1.278610
in 1.213543 -0.900291 0.283035 0.480191 1.506500 1.085722 0.073946 -0.440793 -1.118515 0.977025 -0.729378 -0.776201 -1.824788 0.048369 -0.208138 -1.592669 1.734104 -2.491068 -1.052535 1.026652 0.428569 -0.597885 -1.107643 -0.090182 1.911397 0.541142 0.909653 -0.316959 0.930568 0.382537 1.892923 -1.759209 -1.028529 -0.335845 0.073532 -0.201692 -0.731135 -1.042682 -0.573708 -1.923532 -0.610042 1.157751 1.251755 0.466587 1.333627 -1.717840 0.224377 -0.121019 0.463268 2.001444 -0.103867 -0.656079 0.594796 -0.960189 0.520820 0.401168 0.155292 -0.045006 -0.273805 -0.558025 0.421537 -1.017354 -3.569683 -0.420023 -0.645196 0.421745 -0.638507 0.079642 0.630907 -1.141942 -2.036195 -0.440028 2.013402 1.263122 0.289515 0.781034 -0.272372 0.134708 2.060711 -0.754121 -0.352068 -0.263988 0.663817 2.165573 -0.701642 -1.243542 -1.588264 -0.736994 0.228200 -0.519811 0.312994 0.994064 0.736790 0.729538 1.825467 -0.041279 1.502043 -1.233223 -1.191199 1.005815 0.384340 0.081918 -0.722235 1.177665 -1.488772 -0.189403 1.363227 -1.797899 -1.088873 -1.024536 0.079275 -1.422531 1.016330 0.181156 -1.060570 0.907636 1.361980 0.987866 0.809347 -1.697222 0.332976 0.359876 -0.127463 0.527414 -0.105288 -0.922760 0.859602 -2.413764
i -0.372535 -0.272653 -0.018769 0.037908 0.024952 -0.942299 -0.053171 -0.033489 -0.553453 -0.112104 1.244097 0.574921 -0.412074 -0.723058 0.457260 1.943391 -0.182966 -0.731864 2.659424 -0.352990 -1.117833 1.518475 -1.207894 -0.081053 -0.381218 0.473414 0.418046 0.014965 -1.006827 0.857839 -2.515374 0.292714 -0.603847 1.739938 0.159033 0.850515 0.158743 1.978375 -1.237804 0.482657 0.811543 -1.110241 1.022330 -1.392467 -0.360783 -1.003035 -1.101223 -0.774396 2.636721 -1.346895 0.669064 -0.584503 1.492939 1.200923 -0.951118 -0.583176 -1.553247 -1.775542 1.088815 -1.751033 0.184340 0.654712 1.227043 0.743444 0.902107 -2.734445 -1.575878 1.764356 0.325350 0.939365 -0.018232 0.282660 0.976465 1.440707 -0.741292 -0.699790 -0.971333 1.573164 -0.125667 -1.741776 0.700646 0.571441 -0.142421 -0.849603 0.562271 -0.538455 -1.525250 -0.622340 -1.351031 -1.314027 -0.193423 1.323057 0.569830 -0.949635 -0.137013 1.054080 1.973450 0.174927 -1.392644 0.511900 2.384053 0.039995 1.180179 0.666743 0.705971 -1.236412 0.281390 -1.601973 -0.066840 -2.048214 0.497537 0.861410 -1.696237 -0.534201 0.897881 0.915252 -1.007758 -0.177714 1.122238 -3.087515 0.736899 -0.260286 0.071895 0.154297 0.607698 1.397198 0.428504 -1.579857
he 0.239240 -2.887050 -0.813223 -0.454451 0.955075 -0.675428 2.224218 0.054110 0.212332 0.303948 1.153391 0.228973 0.555439 -1.749191 -1.456184 0.716483 0.632652 -1.158632 2.006327 -0.533016 -1.123282 0.597703 -2.409893 -1.285984 1.726489 0.972807 1.161520 0.082472 -1.503629 -0.759287 0.553052 2.564826 -1.096580 0.584781 1.337548 -1.787919 -1.402027 0.256027 -1.285228 0.594656 0.385729 1.740039 -0.053310 0.513647 0.807814 -2.021840 1.757923 1.039346 1.913714 0.807671 0.273771 1.032093 0.640288 -1.520891 -0.903622 0.553639 -1.616936 0.749249 0.238979 -0.075263 1.221371 0.761349 1.504051 -0.566332 -0.271591 -1.729608 -0.497937 2.161121 0.900876 0.328705 1.115678 -1.860344 -0.793391 1.133229 -0.432678 -0.448009 -1.311073 -1.345513 0.404246 -0.701261 -0.705821 1.068688 -1.429863 -0.819432 -0.093721 0.418797 -0.383642 0.001074 -1.168592 -0.304249 -0.953663 -0.523462 -1.648690 -0.036307 -0.638893 -0.321864 -0.205608 -1.138532 0.477251 0.559104 1.694954 0.053015 1.082156 1.593181 -0.134673 -0.107709 -0.886495 -1.158106 -0.826441 -0.181739 0.414330 -0.029141 -1.883412 -0.474190 -0.108507 0.094065 1.358841 -0.068698 0.201897 -0.377991 -0.090014 0.619029 0.273613 -0.140575 1.572003 -0.245418 1.866205 -0.526106
that -0.958608 0.034089 -0.796881 0.805488 1.005626 -0.024600 0.553433 -0.033540 -1.294172 1.644657 2.874323 1.117191 -0.535871 0.215724 -0.748098 1.538722 -1.413779 -1.896090 0.903480 0.319174 1.161405 0.966717 2.495818 0.633749 0.808366 0.942205 0.721431 0.099805 0.241747 -0.182580 -0.872464 0.215641 -1.432733 -2.634705 0.677056 0.251769 1.256978 -0.360564 -0.502625 0.391604 0.484563 0.744712 0.778455 -0.018538 0.565619 2.195699 -0.174028 -0.873995 1.242535 -0.940597 -0.358333 0.144160 -0.044623 1.115206 -1.148309 1.460154 -1.439912 0.646590 0.000152 -0.024895 0.116759 0.754981 -1.163623 0.282942 1.303824 0.129620 -0.371262 -1.367406 0.050861 -1.048740 -0.834069 0.880413 0.447282 0.019508 1.523542 1.890663 0.755977 -0.005878 -1.775600 -0.338265 -1.426445 1.340680 0.993366 -0.065496 -0.725148 -1.036242 -1.585761 -1.652334 0.466230 -1.343004 -0.597155 0.585525 0.940353 1.204740 -0.709599 0.383926 0.640456 -0.722142 0.779322 0.853569 -0.136388 2.329540 -0.597594 -0.799721 1.861582 -0.900711 -0.820505 -0.275850 -0.883737 0.328526 -0.569186 0.431832 -0.848723 0.518192 -1.629034 0.583390 0.538071 0.651955 0.348156 0.091943 0.661348 1.225328 -1.372561 0.156348 0.932546 -1.348634 1.991783 0.993558
his -0.251716 0.133434 0.043418 -0.894720 1.442821 -1.715181 0.803595 2.191526 -0.241803 0.527959 1.941032 0.186608 0.853687 -0.083917 -0.330766 0.777763 -0.343985 2.287042 -0.639642 -1.053278 -0.208083 -0.485723 0.636328 -0.852031 0.581543 -0.655277 -0.344445 0.107219 1.995304 0.708594 0.338098 -2.695174 -2.122806 0.449219 1.160074 2.141589 0.919358 -0.402259 0.186751 -0.244363 0.899474 2.078263 -0.755506 0.061683 0.351943 -2.273255 0.412280 1.859931 -1.728189 1.375603 -0.698007 0.390028 0.602868 0.580311 -0.915276 -1.165235 -1.768286 -0.409947 -0.963949 -0.825984 -1.860382 0.358169 0.851901 1.467609 -0.232864 1.513136 0.595929 0.115758 -1.768629 -0.251112 -2.307641 -0.274158 -1.036848 0.498600 -0.528005 1.529029 -0.290243 0.201641 0.861260 -0.958827 2.169028 -0.898131 -0.820270 -0.523872 -0.447053 -1.600084 0.266056 0.491606 0.741574 0.043761 -1.299709 0.825213 -1.298042 -0.635144 1.177552 0.697179 -1.100960 -1.980466 0.169291 -0.476705 1.401169 1.772268 1.823391 -0.665266 -1.297148 0.731056 -1.083315 -0.889311 0.991903 1.792331 -1.198431 0.787446 0.612103 0.210146 0.415337 -0.066912 1.841343 -0.497296 2.207702 -0.914696 -1.339921 -2.542032 1.609916 0.225443 0.941229 0.110767 0.862353 0.792257
was 1.233618 1.059236 -0.660683 2.222681 -0.233499 0.755949 0.940183 1.858481 0.316956 0.862819 -1.066794 -0.618662 0.829883 0.597551 -0.184702 1.594092 1.213971 -0.067684 -1.116163 -1.074977 -1.078735 0.010186 -0.354308 0.579717 1.205744 -0.933883 1.739210 0.149697 -0.579253 -2.087826 -0.377403 -2.181258 -2.626746 -0.878800 2.030390 -0.499230 -0.613467 0.692800 0.927492 1.273722 0.612990 -0.987082 1.844695 1.602886 0.635418 -0.851326 -0.671611 2.291786 0.473791 1.667309 2.904356 0.097768 0.668583 1.674340 -1.559900 0.463543 -0.501923 -1.079550 1.530362 -0.167853 0.197439 2.723874 -0.817164 1.247962 -0.292722 -0.546494 0.215199 -0.238350 0.283408 -1.478295 -0.905294 -0.305858 -2.539699 -0.444374 -0.559878 0.475764 -0.130141 -0.480755 0.404942 -1.659757 0.230607 -0.704757 -1.920444 -1.111813 -1.011410 0.046583 0.573050 0.644458 -0.231240 -0.191784 -0.525266 -1.441119 0.475600 1.022711 0.186888 -1.631645 0.808095 0.172812 -1.511636 -0.236923 0.345453 2.767634 0.928676 0.540506 -1.778218 -0.905266 -1.408338 0.219580 0.116463 1.853294 1.854546 0.700000 1.725615 -0.782289 0.240270 0.290534 -0.934592 -0.304482 -2.042304 -0.508276 0.206008 -1.027795 1.139962 -0.044858 -0.457314 -0.193119 -0.710882 -0.505693
it -1.341523 -1.769907 -0.309512 -2.477087 -0.865271 -0.922909 0.080487 0.925568 0.142251 -0.785097 1.287879 0.150567 -0.059260 -2.367107 -1.873329 -0.691187 0.465946 1.357746 0.428450 -0.506479 2.250276 0.717343 1.070110 0.197164 -0.065467 -0.050409 -0.161640 1.166446 0.511037 0.991889 -1.499292 0.463445 -1.405434 -0.380121 -0.437675 0.100082 0.004536 1.329695 -2.106312 -1.767686 -0.076260 0.122809 -2.163659 2.012332 1.451590 0.271408 -0.165625 -0.497627 -0.990005 2.486975 1.643066 0.383290 1.427589 1.365828 -1.748756 -0.998041 0.720724 0.798290 -0.253942 1.280570 -0.598140 1.142279 1.475434 -0.766405 -2.496023 0.559459 -1.221929 0.479810 1.860132 0.999822 -0.386772 -1.237820 -0.198072 -1.239820 0.559138 1.581027 -0.251500 2.117887 -1.460953 0.460232 -0.328431 0.256233 1.130270 0.717704 0.328287 0.604132 -1.389526 0.869235 0.308879 -0.435416 -1.358196 0.236046 -0.545001 -0.917523 -0.423074 -1.212388 -0.990596 -1.971902 -2.291806 -0.929295 0.815417 -0.801231 -0.029299 0.758173 -0.425736 -0.237060 -0.449615 0.967636 0.279800 -0.155534 0.916904 -0.519327 0.421008 -0.628524 0.308223 -1.818334 0.199616 -0.364763 1.454952 1.698729 0.483175 -0.645285 -0.494128 -0.368394 -1.449831 0.390439 -0.645869 -0.713546
you 1.082679 -2.472226 -0.485896 2.272643 -0.352451 -0.375910 -1.731708 1.396447 -0.894240 -1.655180 2.241216 0.256742 2.735375 -0.819026 -1.115694 0.053642 1.208120 1.361992 0.264316 -2.790142 -0.261333 0.586939 0.334574 -0.070925 -1.478675 0.066362 -0.645646 0.035135 0.558311 0.475182 0.683597 0.792739 -0.392473 0.862360 0.523435 -0.007124 0.378679 0.217967 1.443388 1.072166 1.611448 -1.672843 -2.558540 0.191106 -0.716817 -2.600535 -1.641512 -0.961899 1.940262 -0.510513 1.700822 1.181317 0.204733 -0.024936 0.395025 0.322502 0.074191 0.066508 0.038447 -1.647766 0.497999 -0.354701 0.735138 -0.378933 1.441660 -0.151296 -0.857907 -1.712537 -0.075213 0.409320 -0.696299 0.191769 -2.072810 0.051367 0.187685 1.175146 -1.598243 -0.440125 0.281168 -0.650822 0.501701 0.523614 1.826639 -2.015185 2.021600 0.540803 1.445855 1.533341 0.008438 -0.530526 0.659085 0.263779 -0.594813 1.082909 -0.511593 0.310268 -0.053553 -0.009194 0.362370 -1.000848 0.966211 1.098951 -0.639691 -1.053237 -0.613076 -0.805840 0.173309 -0.905281 -1.439021 -1.921311 -0.515304 -0.841651 -1.789519 1.932689 -0.111360 -2.415384 0.225246 1.110162 2.033166 0.390244 0.595913 -1.433141 0.404208 0.827542 -2.265450 0.202362 -0.320815 -2.695646
with -0.841545 1.021363 -0.562874 0.818402 1.470403 0.266774 1.507960 -0.232214 1.153069 0.295673 -1.328095 1.193625 0.849463 0.869730 -0.161726 -1.644140 -1.225585 0.631747 1.467685 0.213478 -0.916781 1.283969 -2.209999 0.885657 -0.433134 1.273513 -0.334687 0.738251 -0.596230 -0.525338 -0.405285 0.877637 0.816189 -0.537575 2.633161 -1.907815 -0.770249 1.131579 -1.569917 0.286541 0.828756 0.698891 0.250726 0.772770 -1.504651 1.355910 -0.568348 0.263957 1.002223 0.457856 -0.734697 -0.723448 0.250822 -0.029770 0.570246 1.489752 0.730619 -0.865310 1.439887 0.839492 0.325299 -1.119618 -0.326949 -0.900925 1.236983 0.208974 -0.314193 -1.586845 1.449590 -1.451778 -0.710127 -1.472676 -1.412203 0.481885 -0.424690 0.842658 0.054059 1.131055 1.752318 0.506494 1.259021 0.444597 2.051485 -0.310230 2.915229 -0.993406 0.951719 -1.157606 1.489405 1.289730 -0.624037 2.645595 -2.323625 -0.564753 0.588892 -0.720373 -0.240171 2.257670 -2.219383 -0.560376 -1.238384 0.269509 0.261484 0.134048 -1.190145 -1.313824 1.401966 -0.269708 0.713177 -1.574048 -0.193788 -1.316043 -1.395827 -1.080984 -2.492797 -1.995196 0.085517 -0.225643 -1.758793 0.418640 -0.448402 -0.338226 0.429259 -1.296177 1.467437 1.047083 0.580395 -0.281280
is -0.183738 0.882842 0.629627 1.649644 0.064384 -0.839926 2.431068 2.132889 0.548114 0.265770 -0.339496 2.028637 0.375444 1.133829 -0.144689 1.128442 -0.999749 -1.226924 -0.868795 0.323453 0.025746 -0.111801 0.062793 0.234960 0.453112 0.253814 -0.069577 1.717298 1.236817 -1.263495 -0.100785 -0.103341 -1.127985 1.156128 0.350092 0.379268 -2.969892 -0.524444 1.105791 0.832981 -0.295276 -0.739944 0.588282 0.422012 -0.840891 -0.239514 0.536714 -0.359458 1.837963 -0.702463 2.226942 0.671029 -0.806727 0.886793 -0.833102 2.507144 -0.166323 1.444613 0.793327 1.330873 -0.142718 -0.489150 -0.950717 3.375529 -1.101265 -1.514603 1.475561 -0.921423 -1.864578 -0.928412 -0.405002 1.150399 -0.907853 -0.969933 0.798737 0.436305 -0.886895 -0.446241 -0.794289 0.354213 -0.239518 1.262151 -0.562628 -0.027604 1.832968 0.976794 -0.493763 0.246348 0.445790 1.720837 -2.191181 -0.740690 0.284327 -0.663119 0.729868 -0.281965 0.825555 -1.330172 -0.794014 -0.049214 0.159000 0.811449 1.250248 1.400027 0.803991 -1.904578 1.363815 2.680285 -0.194633 0.999259 1.287904 -1.124687 0.510439 -1.250755 -1.486722 1.116691 -1.466656 -0.638583 -2.229944 -0.682235 1.126329 -0.993195 1.680158 -2.086612 -1.993541 0.600359 -0.856746 -1.804053
as 0.632175 -1.590670 1.811016 1.479743 1.280312 -2.374812 -1.819441 -2.579669 0.099426 0.535492 -0.053634 0.036375 2.108581 0.696845 -0.484011 0.077873 -0.620899 2.277753 -1.050112 -1.124356 -0.335151 0.937778 1.148018 0.612476 1.613237 -0.176552 0.359118 -1.003161 1.606794 -0.758805 0.359270 1.699466 -0.538654 -0.449715 0.045982 1.886461 -0.557731 -0.371966 -0.073769 -0.569710 0.044072 0.080392 0.159931 0.565313 -0.936502 0.608702 -1.062830 0.123768 0.177009 -0.529691 0.290098 1.193804 -0.249310 -0.128367 1.696492 -0.141458 -1.186168 0.217135 -1.356025 1.215920 2.017794 -0.576527 -1.061712 -0.199244 -1.618148 0.007029 0.692866 -0.504569 0.647284 -1.183406 -1.845854 0.364732 -0.089039 -0.807975 -1.414099 -0.730438 -0.552958 -1.242392 -0.929382 1.269795 2.433565 0.721663 -0.394450 0.726047 1.673259 1.037389 -0.740934 0.450610 0.373165 -1.355786 -2.497133 -0.046760 0.046607 2.242824 0.778076 0.664330 0.120249 -1.238150 -1.251105 -1.861199 -0.619458 0.582074 0.287865 1.121204 2.250364 0.834257 -0.881477 -2.032653 -1.255506 -0.990046 -0.848308 0.630718 0.007309 -0.135008 -0.649358 -0.763037 1.003231 -1.251485 0.598494 -0.297232 -0.379305 1.247675 0.703979 1.115369 3.966784 -0.876311 2.129714 -1.794391
not -0.997711 -0.058174 -1.758417 0.443391 -0.934829 0.698168 -0.492234 -0.741789 -1.086659 -2.444334 -0.759872 -0.835510 -0.603440 -0.139969 1.588660 0.640204 1.945182 2.698343 0.551773 -0.803677 0.724683 -0.182346 -0.682931 -0.798684 1.063740 -0.999061 -1.444860 2.244514 0.677999 -0.233724 0.237062 -0.803806 -0.241146 -2.030764 -1.364239 0.378331 -1.661376 0.014897 -0.833614 1.078409 -0.012817 1.674343 -0.175786 -1.567268 -0.181678 -0.769794 -1.106563 -0.355916 2.064499 -0.594317 0.428437 0.954718 -1.698495 -1.054872 -1.016815 0.718815 -2.056526 -1.007469 0.713020 -1.401026 -1.291886 0.923392 -1.765616 -0.803884 0.710766 3.106863 0.491944 0.232495 1.665622 0.049771 0.102467 1.131580 -1.201688 -0.610252 -0.040296 -1.362114 -0.417740 1.151919 -1.412161 -0.036560 0.717365 1.837457 1.395053 0.833565 1.706704 -0.501226 1.141742 -0.137540 0.317974 -1.904215 0.286350 0.848971 -0.864869 -0.512967 -2.724792 -0.853541 -2.334814 -0.412123 -1.119733 0.765844 -0.145048 -0.134542 -1.898244 0.647080 0.784505 -0.196888 -0.297929 -1.140011 -1.983733 0.676916 1.628361 0.909721 -0.863323 2.333127 1.120815 1.673424 0.750714 0.044803 1.109585 0.236010 0.522723 0.382686 0.321081 -0.188557 -0.396498 1.929840 1.071229 -0.486753
for -0.480251 -0.713907 0.122920 -0.640511 -0.178027 1.640039 0.449279 1.010548 0.114426 -0.947109 0.695957 0.327841 -0.308524 -1.171914 0.020996 -0.178404 0.326536 -2.356643 -1.472362 -1.925858 -0.072185 -1.919746 1.869192 -0.350842 -0.663908 -0.327573 0.944646 -0.236925 -0.888549 -1.555130 0.614899 0.321132 -0.419328 -0.895156 0.796251 -0.204300 -1.153704 2.259694 -1.256020 0.630241 1.318454 2.081125 1.400746 0.360559 0.830816 1.329760 0.308367 -0.182889 1.509300 2.574786 -0.079032 -0.667498 -0.261436 0.469361 0.109969 -1.339282 -0.433082 2.948439 -1.217563 -0.725400 0.153390 -0.732610 -0.396353 1.364871 1.165770 0.212643 -1.713902 -0.996735 0.013150 -1.201771 -0.653643 0.738845 1.361095 0.098471 0.168038 -1.239457 -1.474754 -0.882985 0.329068 1.572783 -0.636258 2.143182 -0.972009 0.877520 2.047381 -1.406603 -0.120865 -1.039892 -1.654964 0.570659 1.578109 -0.398878 -0.272226 -1.092363 -0.257147 -0.758074 0.170473 0.641277 -0.852699 -1.930618 -0.874053 1.189477 0.577575 -0.305547 0.209150 1.591588 0.565216 1.532677 -1.223169 0.638813 -0.409940 0.573399 1.068415 -0.450788 -0.659458 -0.810542 -1.282809 -1.163550 0.255081 -0.520772 0.242621 0.861693 -0.340792 -0.094063 1.094586 0.954727 0.898211 -1.999991
had 0.901728 -1.645393 2.688858 -0.906829 0.792538 -0.850299 0.651984 -0.883996 1.491592 -0.592390 -0.221679 0.863691 2.334411 -0.883033 -0.431139 -1.683970 -1.517743 -0.184615 0.668615 -3.013937 0.442664 0.739124 -0.491348 -0.619289 -0.043462 1.284705 -0.731540 -0.796635 -0.612941 -1.404501 0.848625 0.022633 -1.513439 -0.564730 4.460742 -0.594363 -2.584867 -0.511893 0.044880 -0.574801 -0.247869 -1.887831 -0.539371 -0.048808 -0.950113 -0.342366 1.045061 -0.191290 0.488965 -0.448647 -0.873425 0.207415 1.054210 0.986980 -0.734769 1.703614 -2.899536 1.864631 1.090673 -1.727697 -0.209431 0.605013 -1.005024 2.795608 -1.215032 1.236184 -0.176254 0.529733 0.062101 -0.129039 0.026259 1.208582 0.220677 0.548483 0.602419 -2.153276 1.053112 0.807760 1.165869 -1.199693 1.550906 -1.948101 0.796275 1.984853 -0.138256 -1.090085 1.913679 -0.574492 1.621138 -1.041821 0.194770 -0.979715 -0.016260 1.779223 0.540513 -1.081927 0.251631 -0.575514 2.055336 -0.328849 -1.066574 -0.115722 0.996332 0.817019 0.878417 -0.263063 0.836364 -0.115238 1.172083 1.339880 0.990398 1.020424 -0.720951 -0.877712 1.714308 0.073511 -2.182857 0.860092 -0.551595 -0.017338 0.940576 0.213956 -0.377118 -0.588908 -1.061509 -0.005848 0.985324 -2.592884
but 0.346817 -0.374108 -2.060532 -1.511779 -0.021845 1.320560 -2.802802 -0.112804 1.000377 -0.076105 0.216205 -0.213218 -0.502979 -1.138625 0.513786 0.369947 -0.983293 1.092254 -0.325614 0.324235 -0.040365 0.389630 -0.592595 -1.161589 0.441303 -0.007776 0.038910 -0.707838 -0.143296 2.279347 -0.027492 -0.255228 -0.482540 -0.561129 -0.168255 -0.500971 0.007888 -0.960560 0.918434 1.426811 0.063890 1.847507 -0.254067 0.076037 -0.941267 0.394802 -0.834879 -0.263879 1.423278 0.478205 0.101896 -0.255479 1.498633 0.503013 0.279631 0.920898 -0.960047 0.559198 -1.250650 -0.217573 -0.648097 -1.400775 0.376708 2.865749 0.205177 -1.429326 0.869231 -1.411587 -1.265652 -1.215954 -0.368538 1.650176 -1.081795 0.021696 -0.102768 -1.826734 -1.265035 1.977709 0.577321 -0.778482 0.765284 -0.400111 -0.201782 0.662431 -0.652210 2.127482 -0.090498 -0.063744 1.063498 0.259962 -0.657917 -0.379400 0.697051 1.662652 -0.978627 0.543710 0.402372 -0.602570 -0.534712 0.410753 -0.945995 -0.958598 0.179443 0.215976 -0.091184 1.482419 0.186751 -0.207954 -1.220210 -0.574914 -0.364266 0.088938 -0.334489 -2.854377 1.001084 -1.225265 1.057080 1.693165 -0.063490 -0.170954 0.869277 1.431520 0.217242 -0.147857 0.386566 1.076660 1.316764 -0.416602
at 2.061819 0.253913 -0.598748 1.400975 0.812698 1.272289 -0.543935 -0.732562 -0.036343 -0.547282 -1.206738 0.428695 -0.736398 -0.391423 0.063128 0.457738 0.436811 -0.301438 -0.104174 0.642022 -0.508451 -0.203092 -0.782458 -0.082971 0.085611 1.897349 -0.547600 -0.298298 0.317970 0.654757 0.048594 -0.226653 -1.779964 -1.243309 0.713436 0.493987 -0.852092 -0.709076 -1.926712 -1.417204 -0.776494 -0.413794 1.590724 -0.159966 0.260679 -1.342217 -1.478824 0.935520 0.836851 0.076379 -1.164241 -1.156867 0.382925 0.897003 -0.022268 -0.498062 0.003803 1.422733 -0.460236 0.428794 -1.115935 -0.234458 0.811775 0.635925 0.180113 0.365092 0.657197 0.253396 1.504545 -1.076947 -0.960995 -1.585464 1.872637 -0.564735 -1.579771 1.159891 1.036798 -1.614378 -1.345681 -0.778331 -1.054701 -0.627745 -2.025995 -1.279704 1.979717 -0.555763 -0.724829 -0.819221 2.211381 -0.005977 2.432377 -0.025897 -2.114964 -0.703685 1.113276 2.625801 -0.457223 1.211591 -0.333758 -2.152176 -1.884965 1.853442 0.842058 1.007128 1.028521 0.575485 1.218174 0.122589 -0.825940 -0.998155 0.573179 -1.234401 -1.267563 1.107118 -0.904411 -0.087891 1.096945 -2.042779 0.731403 -0.661812 1.626632 -1.609518 1.749180 1.094023 -0.690885 1.485869 1.721202 1.107415
be 0.877634 0.828506 -1.089185 1.887770 0.240967 0.618217 1.365603 -2.262684 1.329936 1.314804 0.997096 1.247254 0.610347 -1.999026 1.730448 -0.980690 -1.138793 0.337013 -0.861909 1.489282 -0.496402 -0.651789 -1.420331 0.336240 -1.410050 1.164518 -0.715781 -0.536099 0.463633 -1.348746 0.190574 1.727606 -2.004925 -0.809796 -0.542729 0.103497 -0.991371 -0.532719 -1.516565 0.905060 1.615618 0.794089 -1.583342 0.424223 -1.590644 -2.158557 -1.784528 0.218668 1.510927 -0.456153 -0.137245 1.971181 -0.170076 1.368652 -0.586124 -0.296854 0.025092 0.420865 -0.580076 0.954618 -0.276780 -2.093868 -1.273664 -0.149175 -0.593490 -0.034594 2.062690 1.508552 0.872656 0.623988 -2.729774 2.187500 -0.508473 2.062347 -0.467988 -1.730137 -0.112844 0.099039 -1.208743 0.743256 -1.102499 -0.480043 -0.526314 -0.021296 -0.498803 -0.645151 0.321918 0.947153 -0.605466 -0.948558 -1.613833 -0.956072 1.635639 0.698020 -0.869017 0.289261 2.900567 -2.043676 0.959768 -0.264823 -0.522730 2.188075 -0.745317 1.422875 0.243079 -0.119371 0.474147 0.271941 -0.948681 1.014908 -0.468822 -1.317984 0.304974 1.379542 1.471168 1.027361 1.581118 0.784702 0.499897 -0.770215 -0.024147 1.072474 0.872838 -1.652846 -1.817637 2.346045 -2.907712 -0.175333
on 0.800076 1.529138 -0.453508 3.189530 1.502937 -0.251785 -1.116669 0.276829 0.607936 -0.362896 -1.113760 -0.709954 1.019688 1.325967 -2.057758 -0.592833 -0.147767 -0.764212 0.087869 0.752289 0.123005 2.066109 0.642785 -0.304380 1.641015 0.726673 -0.276953 -1.510006 0.052585 -0.398602 0.098608 -0.335062 -1.537556 0.229542 -1.781120 -1.970260 -0.419038 -0.609862 -1.156396 0.314207 -2.947206 1.252761 -0.380144 0.254942 -1.043083 -0.851626 0.241356 1.142822 -0.281778 -0.137746 0.396643 0.178262 -0.314119 -0.931092 1.798822 0.389377 -0.068357 -1.743770 0.029771 -1.376191 -0.560456 0.713462 -0.459503 0.173394 -0.768370 -0.039948 1.087547 0.143639 2.556222 0.356670 0.777199 -0.381755 -1.788392 1.164206 0.428334 0.125660 -0.965834 1.695821 -2.127084 1.394275 -0.408206 -0.422043 1.199896 -1.330111 1.812640 -1.183522 0.759304 0.398526 -0.623177 0.478299 0.359693 1.697915 -1.768264 -0.539853 0.855803 0.006217 3.301790 0.501532 -1.649472 -0.555888 -2.540060 1.401378 0.650772 -1.391063 -0.269909 -0.041624 -1.552337 -0.535744 -0.026425 0.446352 -1.408974 -0.188399 0.792261 0.257525 0.494304 0.601286 0.962624 0.196929 0.708594 -0.049814 0.337979 -0.864823 -0.539005 -0.728516 0.870074 -1.549066 2.016188 -0.406110
her 0.194114 0.180727 -1.011315 -1.471932 0.044678 -1.424126 2.962935 -0.472620 -0.646554 -0.566903 -0.889483 1.178474 2.011954 0.218505 1.171518 1.521490 0.549758 -1.545363 -0.155799 -0.251905 1.415419 0.084131 0.952438 0.368992 -1.985769 -0.406497 0.356248 0.929846 0.800342 0.663508 -0.375049 -0.939345 -0.085112 1.348820 0.432492 0.779550 -0.405325 0.955826 -1.692711 -1.810330 -0.959788 -0.342465 0.070274 2.588482 0.814602 0.590861 -0.103602 -1.206077 1.064787 -1.288920 0.833919 -0.690646 0.432315 1.034812 1.732361 1.304088 0.613449 -0.652433 2.947613 0.079810 -1.909566 1.950001 -0.316814 0.523675 0.665046 0.093626 -0.708562 1.046758 0.294309 1.127142 -0.186453 1.322318 -2.476207 -1.662145 1.285953 1.712770 0.031227 -0.093937 0.481476 -0.093766 0.688817 -1.490469 0.316674 1.013059 -1.337694 -1.066055 1.362746 2.356536 0.396315 -0.765583 -0.998061 2.177339 -1.060770 1.270820 0.270186 -0.507090 -1.576820 -1.029143 1.357072 -0.700824 0.610097 1.020628 -1.007545 -1.098646 -0.391774 -0.960574 1.565729 -1.718270 -0.444829 0.522496 -0.294056 0.113300 -0.750277 -1.762697 3.269464 -0.984442 0.991583 0.544188 0.851766 -1.202021 0.106754 -0.030215 2.052249 -1.748205 0.892075 -1.762755 0.127662 0.439801
my -0.882732 0.701236 -1.035576 -0.237627 -1.560608 -2.513136 1.953820 -0.254201 0.300554 0.747673 0.301393 -0.026420 0.298316 0.654262 -1.251010 -1.181360 0.356108 -0.542070 1.013008 -2.236259 1.333771 -0.209736 3.221296 0.497756 -0.814197 0.286813 -0.028287 -0.574649 -0.293034 0.031066 0.048445 -2.061745 0.459105 -0.199587 1.233211 0.073676 -0.840784 1.585824 0.245858 -1.455537 0.898571 0.110319 0.926292 1.476936 -0.385125 -1.068004 -0.633980 -0.472818 -0.615387 0.034076 0.449241 0.605256 0.900870 1.319448 -0.470506 2.571413 -2.400847 0.414516 -1.273852 0.526794 -1.946149 1.821502 -1.009464 -0.341884 -1.226882 -0.286426 0.230208 1.314408 0.260114 0.728320 -0.039243 -0.520106 -0.726203 -0.569528 2.449553 2.385716 -0.737472 -0.309097 0.840715 0.029608 0.004554 0.433312 1.142366 -1.166563 2.001440 -0.764326 -0.427581 -1.556787 0.744229 0.563444 -0.573678 -0.610899 -0.707075 -0.933135 -0.818963 -0.490013 -0.699319 0.713946 -0.488397 0.278877 1.037825 -0.127073 1.878207 0.292708 0.269134 -0.528572 0.107551 -1.137881 -0.848025 0.438631 -0.445912 -0.721260 -1.212125 0.712788 3.855544 -0.396120 3.346389 0.174909 3.434735 -0.941577 -1.006974 -1.100067 -1.308354 -0.841040 1.424927 -0.649969 0.177630 1.013896
him 0.877413 -0.664590 0.913658 -1.115266 -0.161065 1.084440 0.978729 -1.050775 -1.857448 -0.401804 -0.355151 -0.336107 -0.324184 -0.407448 0.602721 0.160467 -0.141786 0.151295 -1.929361 0.073635 -0.708632 -0.726192 -0.580460 1.348307 -1.990290 -1.509738 0.182669 0.048152 1.629104 1.232387 -0.170548 1.577662 0.026937 0.098988 0.004999 1.168740 -1.706964 -0.047211 -0.220137 -0.644455 1.873899 2.049500 -0.429183 2.155340 0.456022 0.317160 0.523202 1.306261 0.806560 0.278220 1.064703 -0.703823 -0.157781 -0.907825 -0.508598 0.695648 -2.362737 0.021714 1.656440 2.227997 0.830928 -0.163368 -0.218785 0.210546 0.138232 -0.573815 -1.218696 -1.920040 0.867251 1.017319 1.145323 -0.043228 0.241273 -0.816410 0.002239 1.313864 1.487811 1.387145 -0.151483 -0.636517 -0.017404 -2.009959 -2.719355 -0.189243 -1.396176 -0.425999 0.012738 0.957476 -0.484209 0.327533 1.741973 0.583917 -0.800619 0.152463 1.639134 -1.339753 0.864728 -0.565595 -0.921764 0.517731 0.446073 1.642169 -0.511321 0.072831 1.230410 -1.862727 -0.937853 -0.053617 0.571955 1.895695 0.427566 0.560146 -1.391752 -1.172109 2.548186 -0.328309 0.255034 2.077577 1.452096 0.540150 1.257310 1.226857 0.056174 -2.248857 1.474733 0.572100 1.896018 0.404819
have -0.301918 -0.815447 0.473928 -0.160833 1.884049 -0.870933 2.089754 -2.248665 1.821637 0.608107 1.182091 -0.294634 1.335900 -2.060764 0.864757 -1.219731 -0.763270 0.063591 -0.382824 -0.896887 -0.810219 2.188695 -2.130913 0.189425 -0.035205 0.995130 0.093170 -0.153853 0.278506 -1.619360 0.021550 0.789171 1.416343 -1.300773 1.019388 -1.242221 -0.867701 -1.296598 -0.525768 -0.503389 1.707241 -0.987680 -1.967794 0.487910 2.120854 -0.012912 -0.502980 1.339238 -0.638243 0.507192 -0.501523 -0.946505 0.675740 -0.643300 -0.305743 0.247032 -2.096935 -0.485713 -2.352428 -2.848027 1.438045 0.202517 -1.113891 0.341868 0.162634 1.305429 -0.400970 1.596383 0.093595 1.741615 -1.142994 0.458887 1.130524 -0.776524 -0.929460 -0.999513 1.949519 3.448511 -2.087753 0.463171 1.412234 1.016741 -0.473997 0.484379 -0.399143 -0.687574 -0.790711 0.198616 -0.000558 -1.000840 0.320656 0.170820 1.284961 -0.427369 0.183535 -0.527488 2.249704 -0.866754 -0.080423 0.609505 -1.626821 2.698781 1.226536 0.457393 -0.989915 -1.643387 -0.363835 -0.532370 -1.417835 -0.696258 0.154049 0.587759 0.259621 -0.385939 1.919841 0.358962 -1.955651 0.555307 0.926071 -2.163871 -1.386525 1.370684 -0.886850 -0.765183 0.592465 -0.496542 -0.700208 -0.204285
by 0.882989 -1.594069 -0.603347 2.009650 0.238433 0.669091 0.783271 1.000155 0.611242 0.792397 -0.531909 1.522067 -0.093968 -1.167187 -0.348331 0.357159 -0.213211 -0.816652 1.248487 0.965136 0.399835 0.761323 -0.416351 -1.293609 -0.211168 0.659523 0.414071 0.735354 -0.690854 0.304136 1.806066 -2.393221 1.552298 -1.872599 -0.165351 -0.912010 1.102387 0.284967 -0.166459 -2.050369 1.645968 -0.627291 -1.119730 -0.574573 1.062594 -0.309363 -0.473449 -0.357573 2.010880 0.845254 -0.867461 -1.365607 1.429958 2.468342 0.735440 -0.081684 -0.703772 -0.749585 0.554129 -0.327193 -0.665190 -2.448869 -2.279409 -0.787026 1.188107 -1.727852 0.093564 -0.270186 0.268554 1.468890 -1.258896 0.356131 1.140526 -0.465025 1.414653 0.391331 0.134462 1.007410 -0.364483 -0.363479 0.211824 -0.403755 -1.221410 -0.864501 -0.024282 0.114886 0.522124 -0.620368 -0.231908 -0.340679 -1.247015 0.540261 -1.159669 0.223109 1.737945 -1.965016 0.065933 -2.761835 0.476393 -1.384908 -1.049527 -0.310085 -0.418778 1.402108 -0.681544 -1.233947 1.096311 0.257744 0.123765 0.212730 0.337953 1.333595 1.487585 0.214617 -1.160480 -0.746233 -1.821449 -1.756848 1.165444 -0.040991 1.798371 -1.173784 -0.698365 -0.066583 1.274907 0.342674 1.395044 -0.558432
this 0.911750 -0.721500 -1.085825 0.632802 -2.125226 0.066056 3.584428 2.464991 -0.731732 0.680077 -0.265567 -0.587849 -0.378220 -1.360164 1.451391 0.775783 -0.821335 1.570875 0.835433 0.404944 0.378677 0.515460 -0.651468 -1.474744 1.714519 0.891295 -1.339965 -1.036836 2.955192 -0.357456 -0.557752 -0.999087 -0.441920 0.205125 -0.602281 -0.616459 -0.223689 0.160475 0.322853 -0.236328 1.154083 -0.677432 -0.243980 0.818319 -1.379543 0.306237 -0.433412 0.658266 -0.182387 1.525084 1.537170 0.274269 -0.554264 -0.585764 1.316708 1.767395 0.152617 0.635343 1.612425 1.571584 1.913564 -0.406652 -0.892659 -0.191155 0.368515 0.958943 -0.705445 -0.542304 0.145381 -2.332309 -0.258965 0.094242 -1.169438 0.561942 0.305794 0.228003 1.286016 -0.611773 -2.432353 -1.278279 -1.194283 0.245288 0.057383 -1.671468 0.136466 -0.828602 -0.952070 -1.439026 -0.597843 0.400954 -0.603526 0.651336 1.196756 1.314345 -1.319503 0.677525 0.411266 0.784324 -2.733741 0.320281 -0.246228 -0.949478 -0.369747 -1.862341 -0.141438 -1.404045 0.899704 -0.184186 -0.749810 -1.653749 -0.971123 1.013098 -0.082100 -1.245069 1.546818 -0.884687 0.916769 -0.663696 -0.173561 2.719532 0.202617 -1.300770 0.298928 -0.983486 0.505678 1.618754 0.495683 0.318057
which 0.384655 -0.506356 -0.522935 -0.515946 -0.433796 1.133738 1.985842 1.272717 0.374659 0.340382 -0.712605 -1.790284 -0.114565 -0.691527 0.922734 -1.940650 0.971869 0.362381 1.885406 -0.979467 0.676026 2.946571 -0.124046 0.189625 0.954713 -0.795490 -1.374503 1.214836 -0.936316 2.083650 -0.464533 0.905889 1.406287 -2.559359 -0.237445 -0.048344 0.850909 0.740324 1.822234 -0.527215 -0.059632 0.719683 2.112779 0.333314 0.333161 0.460034 1.675556 -0.719695 0.311775 -0.238594 -0.882369 1.033132 -1.134943 0.218389 -0.076859 -0.645282 0.088955 0.112247 0.394635 -0.155980 0.623981 -0.547288 2.735566 0.835762 -0.416783 -1.137346 1.074592 -2.737175 -0.649937 -0.958213 -0.736917 2.707340 1.118142 -0.319774 0.917992 0.076403 -0.780885 2.478684 -1.880749 3.308966 -0.285569 -0.572861 0.122265 -0.542022 -1.038975 1.057387 -0.018490 -0.432917 -1.242792 0.569790 -1.658782 1.839839 0.771719 -0.565359 -1.011004 -0.256549 1.766454 0.013071 1.135192 -1.098371 -2.105911 0.689445 1.649380 -0.400540 0.027253 -1.906960 -0.134348 0.293391 -1.376534 0.239900 -1.633242 -0.041467 -2.527871 -1.565183 -0.424795 1.205761 1.864256 -1.638494 2.002066 -0.782002 2.614547 -0.327536 -1.238507 -0.471116 0.528386 -0.671715 0.573728 1.285448
me 1.415037 -1.426101 -1.111020 0.960784 -0.711662 -1.803905 0.114647 -1.223959 -1.220177 1.369129 -0.289259 0.295403 0.704473 0.052920 -0.807643 -0.943239 1.452697 -1.268114 -1.801723 -2.029752 0.426057 -0.903849 -1.680011 0.161913 -1.051354 1.424446 -0.723975 -0.185979 1.540783 0.126331 -1.192221 -0.571957 -1.843362 1.282280 0.370848 0.967634 1.447567 1.164146 1.168625 0.057300 0.602254 -0.118242 -0.945096 1.176084 -0.039104 -2.689659 -1.289681 -0.252002 -0.774730 0.799308 0.861691 -0.778227 -1.932114 1.170038 -0.127136 1.163634 -0.355325 -1.405057 1.059006 -0.599716 1.326366 -0.052358 -0.250007 -1.204944 -0.581565 0.372898 -0.461980 -1.166965 0.267471 0.627918 1.165417 -1.099550 1.324002 -1.200774 1.183476 0.249465 0.195331 1.082148 -1.152247 0.276454 -0.370356 -0.540688 -0.329149 0.809621 0.264556 1.319769 -2.206286 -0.469370 -0.600241 -1.521394 -0.636567 -0.251606 0.242203 -1.480362 -0.797836 -1.311762 -0.339448 1.505875 0.258827 2.014740 0.197954 1.375481 -0.001956 0.707372 -0.344135 1.636591 -0.538634 1.985243 -2.782938 1.401405 -0.279906 0.653950 1.235795 -0.151346 0.697306 0.018832 -1.334332 1.369164 2.600973 -1.185632 -0.048036 1.006444 -0.027035 -0.683626 2.290319 -0.632101 0.780701 -1.601143
all -1.482150 -0.968049 -0.777837 0.175314 0.774055 -0.259567 1.311300 0.884712 -0.375752 2.434586 1.428425 -0.542664 0.889812 0.675858 0.696435 0.204009 0.794683 1.052046 2.017095 1.652036 0.415640 0.636400 1.171812 -0.392759 -0.851688 1.586012 0.078358 -0.758116 -0.040519 1.403463 0.163358 0.103765 1.312943 -1.632156 -0.988694 2.834318 -0.526764 1.405361 0.624649 -0.352749 -0.467490 0.344184 -0.395316 0.255452 0.249267 -0.136667 -1.349545 -0.116092 1.059799 -0.940079 1.895221 -0.193249 0.680112 -0.904596 -1.001136 -1.618897 1.472470 0.794748 -1.191477 -1.531573 -0.275998 1.289331 -1.728359 0.288272 -1.827944 0.566485 1.455083 0.820546 0.222409 0.366839 1.596984 -0.928718 -1.647653 1.981144 -1.396371 0.288387 1.419963 -2.109134 0.871544 1.121321 -0.634243 2.162798 -1.515869 0.798568 0.546168 -1.337416 -0.309375 -1.771576 -0.285991 -2.673762 0.844258 1.270853 0.131433 -1.295298 0.909572 -1.445083 0.494740 -0.615475 -0.450864 1.428493 -0.817858 -0.892777 -1.675409 -0.148953 1.215587 0.639200 -0.343628 -1.101677 -3.059368 0.910783 -1.097275 0.246704 3.089478 -0.261143 -1.260450 -1.248511 -0.326328 0.929469 2.055533 0.098204 1.317505 -1.221439 -1.249853 0.358111 0.307669 1.240515 -1.082530 -2.740764
said 2.508397 -0.733474 1.654732 0.627357 1.156662 0.274598 -1.887172 1.952474 -1.296494 -0.893141 -1.078801 0.450625 1.161814 1.820590 1.265035 2.062033 -1.598461 -2.111579 -0.957881 -1.363529 0.760280 0.747187 0.107815 -2.104913 -1.722534 -0.476758 0.011917 0.834988 2.129550 0.472658 -1.537227 1.071312 0.051800 -0.515335 -0.112649 1.519009 -0.028676 -1.773482 0.936654 0.374735 -0.815932 -0.121796 -1.117933 0.146548 -1.653636 -1.983489 0.328204 0.459977 1.110723 0.747885 0.331570 -0.901690 1.384283 0.489457 -1.117273 0.414741 -0.177178 -1.311492 -1.719280 -0.776678 -0.701838 0.330507 -0.651510 -0.357053 0.460080 0.669761 0.038864 1.626231 1.448838 -0.820358 0.834936 1.141769 -0.751190 -1.030257 0.954105 1.085517 0.637522 -1.103625 -0.495874 0.607920 0.817977 1.571594 -1.001600 -0.261627 -0.910231 0.786457 -1.230165 -0.617691 2.462147 1.201303 -1.094764 0.307419 -0.566034 0.604441 -1.037679 -0.233171 -0.243160 0.188463 -0.512120 -0.000137 1.067797 2.109718 -1.563815 -0.202268 -0.352934 -1.622442 0.139382 0.997988 -0.234948 -1.480580 1.423725 -2.322930 -2.579186 1.058861 -0.276319 -0.366202 -0.447656 0.535715 1.512150 0.282218 -1.561535 -0.140802 0.882073 1.266161 0.512373 1.211841 -0.007934 -0.982320
she -0.272980 -2.346783 1.232704 -1.425617 0.078475 0.127872 -0.117177 0.404328 0.240454 0.176827 1.322947 1.358029 1.295616 -0.089893 0.377055 1.016762 -0.579382 0.949596 0.837165 1.005877 -0.644502 0.756988 1.059705 -1.234031 -0.244439 0.051575 -1.412200 0.695463 -0.030309 1.508683 -1.363137 1.036535 -1.643791 -0.435032 -0.816629 -2.531169 0.013395 0.251515 -1.870464 -0.332206 1.566406 -0.670920 -2.000806 -0.307511 0.405023 -0.051376 -1.168938 -0.528262 1.069419 0.660063 1.676972 -2.021197 2.064353 -0.828162 -1.118184 -0.649850 0.924734 1.453617 0.591607 -1.209840 0.538070 0.708465 -0.408318 0.769570 -1.588888 -1.375962 0.895661 1.163757 -0.488400 -1.071082 -0.441520 1.673859 0.632718 0.435088 0.087626 -1.872612 -1.968347 1.203144 0.737751 -0.142045 -1.096399 -0.575912 -1.370366 0.090592 0.345322 0.754462 -1.079273 -0.041544 0.622263 -1.643923 -0.660208 -0.890910 -0.902582 -1.285356 -0.304157 0.384296 0.078423 0.902991 -2.168138 0.660332 -0.194758 0.237533 1.842820 -1.346952 1.275081 0.043463 -0.521637 -1.641054 -1.120513 -0.419344 -2.288464 0.871624 -0.775939 0.901568 1.700047 0.840174 0.383342 -0.336531 -1.657247 -0.635437 -0.600255 -1.048468 0.239559 -0.775483 0.365427 -1.297879 0.946956 -1.339798
from 0.219961 -0.251324 -0.562108 0.044642 -1.488238 -0.037552 -1.090762 -0.508331 1.814711 -0.039278 -0.652708 -1.714881 1.593350 0.353393 0.305097 0.183288 0.770660 -0.547611 1.272274 0.326442 3.330978 -0.810670 1.369046 0.335131 0.088476 -1.600774 2.194814 0.581937 -1.421990 2.295869 0.971889 -0.066364 -3.195947 1.230922 1.602129 -1.055417 0.286352 0.117014 -1.382194 0.879522 0.924487 1.056458 -0.105491 -0.329308 0.774626 -0.839154 1.079493 1.559143 0.979700 0.498045 1.063308 -1.629978 1.991501 -1.255637 0.056190 2.392446 -0.728730 0.342134 -1.858773 0.746092 0.323309 -1.330766 -1.395925 0.606807 -0.414223 -1.971969 0.270255 -3.035882 1.742516 1.656273 0.254442 -0.316836 -0.720944 1.514928 -0.134552 -0.460799 0.892618 2.690661 -0.076732 -0.331673 -0.620994 -0.335045 1.115727 0.182107 0.407070 -0.978760 1.287141 -0.636968 1.795890 -0.306217 0.952155 -1.308917 -0.304282 1.608621 1.294550 1.682322 -1.570751 -0.395400 -0.597544 -1.266474 -0.235693 0.236734 0.715118 0.358338 0.529076 0.026151 -0.822563 -0.822583 0.190201 0.075089 0.199970 -0.510478 1.741436 -1.614307 -1.198083 -1.690848 2.394937 0.089928 0.748013 -0.345215 -0.759843 -1.358923 -1.884838 -1.102802 -0.232266 -1.263983 0.166906 -1.428709
or -1.127411 1.741450 0.468547 0.450273 -0.440502 -0.659440 0.541059 -2.070456 -0.421892 -0.797401 -0.011354 -0.850384 1.332074 0.440628 1.011970 1.001536 1.360785 1.312276 -0.938815 0.007225 0.965244 0.559838 -0.242636 -2.334674 -0.190786 -0.108184 -0.755255 0.489697 1.044002 0.137453 -1.077778 0.214081 0.229677 -0.950618 0.735947 0.427639 -2.013493 0.222743 -0.140971 -1.001428 -2.419499 0.447164 -0.094541 0.468245 -0.671426 -1.275190 0.955378 -0.341965 -1.294556 0.722718 -1.959185 1.185078 0.637458 -0.111329 -0.407845 2.119223 0.731206 -0.148135 0.530043 -1.570484 0.700620 0.840066 1.869593 1.554674 1.760001 -1.047367 1.053330 -1.823685 -0.014639 -1.346357 -1.100802 -1.292701 1.183036 -0.911032 0.308550 -0.531797 0.696000 0.419412 0.443390 -0.464507 1.475862 0.287538 -0.094193 0.114474 0.610060 0.446281 -0.977858 1.411811 0.222389 1.109020 -1.306489 0.300869 -0.095571 -1.869762 2.450529 -0.986334 1.082687 -1.360257 -1.650018 0.605370 -0.555622 -1.606015 -0.837264 -0.886909 0.648812 -1.658238 -0.552505 0.149568 -0.758715 -0.005660 1.937091 1.254910 1.327551 -1.071291 0.248801 -0.598476 2.164975 -0.321548 3.023337 -0.603752 2.222325 3.445530 0.206725 0.422109 -0.908489 -0.446448 0.129665 0.970998
they -0.286971 -0.994796 -0.098531 -0.594025 -1.211089 -2.379628 -0.032856 -0.441466 1.701341 -0.207897 -0.345958 2.393784 -0.567824 -1.619908 -0.511974 -0.229868 1.358806 0.881584 0.996099 0.221828 -2.188954 -0.461326 -0.929390 -0.687987 1.033473 2.045083 -0.625371 0.110330 0.006604 0.590989 1.424891 1.561520 -1.642670 0.902427 0.595759 -2.023055 0.819000 -0.417743 -0.701771 0.535000 -1.315207 -0.950873 -0.839485 1.679807 1.317170 -1.855940 -2.610815 -0.258541 1.281572 0.861215 -1.106074 -0.454616 0.265232 -0.395459 -0.006208 -1.580352 0.439544 -1.527022 -0.185814 -1.846581 0.757631 0.366296 -0.396240 -0.654902 1.705039 -0.605626 0.174961 0.097299 0.258595 1.630374 0.157311 -0.629448 -0.415404 -0.455242 0.562164 -0.633366 0.342484 2.533190 0.341602 1.351641 -0.774124 0.450484 -0.081518 -0.384563 -0.266841 0.944319 1.420447 0.964725 -1.804248 1.114560 1.344944 0.289440 0.289086 -1.115219 0.999387 0.237619 -0.089698 -0.238260 -1.337951 -1.227427 2.866854 -1.034239 0.070227 -1.032968 1.704807 -2.395530 -0.289850 -0.588230 -1.404275 0.995729 1.355696 0.686496 -0.168554 2.094880 0.010901 -0.099865 0.987645 1.382244 0.475035 -2.206855 0.800529 -0.973044 1.378226 -1.699847 -0.702133 -0.367678 3.351334 -1.146940
so 0.627828 -0.415851 -0.653796 0.061582 -0.877445 0.241485 -1.340546 -1.158464 0.210644 -1.419062 0.445470 -1.935337 0.018656 -1.882426 -0.490248 1.133837 0.501766 -0.820135 2.473175 -0.089270 1.184725 2.247638 -0.508614 -1.985425 -0.147311 -0.323419 0.263534 -2.452898 0.910403 1.761937 -1.605397 0.769849 -0.084197 1.064642 0.811860 0.048481 0.473732 -0.797480 -0.163276 -0.426509 1.569996 0.125676 0.317155 1.137194 0.461808 -0.227211 -1.102265 -0.184988 0.306788 -1.239131 1.466779 -0.017061 1.879779 1.419848 -1.234301 -1.529327 0.320749 0.106069 0.643777 -0.266598 1.707934 1.204531 -1.961266 -0.003667 0.466880 0.436372 1.093714 0.597006 -1.095030 -0.626363 -1.684533 -0.441534 -1.538659 -0.289259 -0.372829 -0.441203 0.482094 1.445003 0.476607 -0.133557 0.344008 0.533570 0.193790 1.537484 0.719820 0.263109 0.732835 -0.008960 -0.576406 -2.051037 -2.110964 1.875494 -1.424025 -0.194724 2.890559 -0.671564 -0.188372 0.516703 1.338533 -0.855640 1.002196 0.477922 -0.304529 -0.366864 1.291278 1.260131 0.122866 0.016738 1.011895 1.276913 0.095961 1.006024 0.101504 -0.298941 0.266318 0.491632 0.272336 -0.164203 -0.200869 0.290873 -0.924251 -0.053733 0.653453 0.497539 -0.151470 -0.035805 0.397686 -0.519421
are -0.661685 1.095471 1.663823 2.049956 2.490262 -0.439356 1.005620 1.861745 -0.653217 0.327488 0.590467 -1.264515 -2.125979 -0.593090 1.243505 -1.098861 -0.517907 -1.219905 1.463470 -1.150940 -0.769633 0.031632 -0.657252 -0.525481 2.423135 2.407382 -1.151430 1.373905 1.779783 -0.589005 0.856831 0.680023 0.944350 -1.605550 -0.471486 0.484802 -0.599378 0.833205 0.997750 1.866683 0.802089 -0.549177 -1.418198 1.168837 1.849790 -0.239383 -1.359611 1.807089 -0.787214 -0.039092 0.904952 -2.739630 -0.258580 0.264702 0.901087 -0.104491 1.813134 0.353278 0.695363 -0.946904 2.169600 -1.651557 -0.589227 2.131238 -0.039826 2.178594 -0.587307 -0.887609 0.809960 1.376515 -0.663517 -0.844672 1.067583 -1.948143 -0.553544 0.024593 -1.853548 1.013264 1.316197 -1.812122 1.528640 -0.288335 -0.032304 -1.816038 1.450957 1.555659 -0.742141 1.802099 0.168488 -0.399935 -2.596998 1.023385 1.396549 0.695156 1.488302 -1.039630 1.000557 -0.270243 -0.399271 1.353810 0.541759 1.113881 -0.331276 0.610324 1.466920 -0.354775 -0.472265 0.240749 0.008321 0.228980 1.720627 -0.119623 1.258737 -2.389211 0.589766 -0.843719 0.427350 0.661154 -1.174416 -0.929403 2.315644 -0.823283 0.573102 -1.422406 -2.150298 0.607828 -1.018393 0.344087
one 1.645371 2.095100 -0.960741 -0.739458 0.691394 1.159374 0.747769 0.583458 1.215901 0.261073 0.482416 -0.862017 0.454236 -1.524728 -1.978775 1.287258 0.865531 -0.033328 -0.869544 -1.094728 -0.283222 0.470823 -0.824444 -0.243145 0.416823 1.473603 -1.313751 0.281354 -2.061360 -1.103292 1.277752 -2.383219 -0.563874 -1.392087 -0.684997 1.319700 1.008229 0.435419 -2.664892 -0.295748 0.549531 -0.017757 -1.174530 -0.246795 -1.730404 -0.082945 0.673786 0.738887 -1.224153 -0.450609 2.190206 -0.290190 0.041722 0.566833 0.204956 -0.081867 -0.082438 0.339024 1.324396 -2.090153 -0.239175 1.712712 -0.091373 -0.596428 1.012773 -0.720499 0.606445 0.007448 -0.497670 0.092508 0.617526 -1.352751 0.274478 -0.700914 1.223153 -0.377167 -0.985342 -1.172830 -0.127359 0.798492 -0.579782 0.690778 -0.243195 -1.171802 1.824556 -0.017537 -0.861457 -2.929169 2.125262 -0.438536 -0.231638 -0.312357 0.027365 1.110649 -0.298107 1.117827 2.137836 -0.179333 0.875251 -1.711673 0.252951 -0.070090 -2.454605 -0.270785 0.688181 -0.293635 -0.848453 -0.822568 0.194260 -0.114978 0.237971 -0.396851 -1.208430 -0.409738 0.133485 0.973727 1.531126 0.032079 0.552903 -0.479730 -0.731862 1.530211 1.845905 0.968150 0.370196 -0.545494 1.424600 -1.089811
were 1.751704 2.179702 1.179630 1.211065 0.011920 0.245488 -0.363799 -0.161196 1.399866 1.008064 -0.989257 -0.715189 -1.560992 -0.700953 0.011699 0.322281 0.486275 0.567111 0.696898 -1.133985 0.159439 0.394357 -1.628625 0.135735 0.566694 2.850672 1.193967 1.618233 -1.074425 -0.924202 0.858024 0.894490 0.389019 -1.211536 1.450124 -0.349071 -0.323157 0.633276 -0.855080 1.158456 -1.661807 1.558679 0.518673 1.523120 0.972426 -0.685359 1.329700 0.077973 -0.711290 0.091429 -0.505125 -1.336033 0.053814 1.854914 -0.686419 0.210844 2.524282 -0.621433 -0.906611 -2.606024 1.330249 0.684645 -1.358658 2.131323 -0.568244 0.612229 0.350237 0.579416 2.445660 0.530753 0.186851 0.372596 -0.343752 -1.221596 -1.260103 -0.698014 -0.042950 -0.541940 1.203805 0.282119 0.813590 -0.734045 -0.762238 -2.143047 0.513648 1.547085 -0.245366 1.010887 -0.364079 -0.465157 -2.066240 1.230188 0.157890 0.179189 -1.810448 -0.369230 0.030387 -1.497988 -0.145710 -0.637184 1.036344 2.806616 2.147764 1.379524 1.875732 1.587064 -1.479164 1.447697 0.707673 1.159533 1.064364 1.121298 1.468064 -2.634686 1.137429 -0.127344 0.288488 0.914948 0.388764 0.420124 0.373354 -1.424926 1.273832 -1.713317 -1.112408 -1.025719 -1.107221 -0.382032
what -1.754539 0.467679 -0.753153 -0.436946 -1.364963 -0.444151 -1.503060 -1.334704 -0.194796 0.219634 2.787462 0.351895 0.330905 0.502470 -0.880302 0.417736 -0.239407 -0.722808 0.240668 0.953148 0.049027 1.228247 -2.443780 1.313920 0.895644 0.836404 -2.150278 -0.646911 0.679234 0.372263 -2.180059 -0.820023 -0.278776 -0.634379 -0.466747 0.595487 1.846006 0.063139 -0.008905 -0.334529 0.553812 -1.294789 -0.674347 -0.776935 -0.625193 0.489287 -0.521172 1.103924 1.127293 0.646238 -1.256137 -1.009417 0.390669 1.156734 -2.307419 0.461424 -1.147974 -1.601900 -0.108207 0.327831 -1.598847 0.828158 -0.366102 0.013800 0.123187 0.218513 0.566359 -0.334216 1.481233 0.838532 -2.380569 1.417741 -0.447334 0.857311 -0.941107 0.957664 1.246125 -0.774777 -1.116769 0.896530 0.954591 0.063185 0.423922 -0.137773 -0.077786 -0.257880 -1.421457 -0.765449 -0.254992 1.377263 -2.188425 -0.165860 0.491974 -0.429376 -0.815593 0.775690 -0.439942 -0.706070 1.141815 -0.901578 0.916127 0.631511 -0.459309 -1.092448 1.937614 0.293917 -0.325362 1.535682 -0.570463 -0.524128 0.899236 -0.467192 1.680311 -0.977286 1.331353 0.896607 1.490672 0.789077 0.787818 -0.399885 -0.732232 1.788079 -1.159988 -0.061696 1.469808 0.732362 1.141193 -1.675573
when -1.960646 -2.120455 -1.131171 -0.983772 0.193759 -0.630143 1.247732 1.236067 -0.149750 -1.980647 -1.426543 0.300803 0.799078 -0.090202 -0.725344 -0.321199 -0.883923 -0.514535 -1.610389 0.787419 -0.058343 0.815429 -0.078675 0.719947 0.318334 1.145458 -1.502643 0.600430 1.282194 0.982406 -0.328395 0.693124 -0.380827 -1.314089 -0.116930 0.789404 -1.170974 -0.087375 1.457264 0.858699 0.758590 0.095585 0.313672 0.581121 0.308225 0.907601 0.719687 -0.626904 0.925300 0.445845 -1.628330 -1.128521 1.340891 -0.691168 -0.287687 -0.727609 -2.069055 -0.756006 0.135947 0.107988 1.771450 1.132677 0.780004 0.865574 0.482919 1.256407 0.908920 -0.109881 1.775882 -1.270391 -0.609130 1.336367 0.885609 -0.779330 0.087195 -0.688450 1.628018 -0.411498 -0.991964 0.051187 -1.116688 0.997308 1.648853 0.173014 0.558217 0.055481 0.453281 -1.598134 0.791992 1.477555 -0.571010 1.989846 0.586383 -0.532700 -1.511605 1.521083 1.084263 -0.308130 -0.611027 0.552603 -0.677026 0.086351 -0.461098 -0.005235 1.233962 -0.251878 -1.001454 1.504762 -1.294795 -2.527789 -0.126957 1.691999 1.416914 -0.143175 -0.555071 -0.276573 0.999700 1.049824 0.165355 -0.179712 -0.451790 -0.696465 0.894989 -0.981289 1.422243 -2.759633 0.297547 -0.020401
no -1.237847 0.620675 1.471621 0.367802 -0.388352 1.496842 1.141411 1.143975 0.823050 0.553722 1.208499 -0.485291 0.567238 -2.342447 0.668217 -1.060068 -2.877037 1.103002 2.121772 -0.117637 1.921921 -0.825575 -0.139221 1.625867 0.453939 -0.921749 -0.787088 0.362665 0.864740 0.441702 -1.210651 -1.233561 -0.194819 -0.932156 -2.205045 0.973933 -2.889114 -1.758413 -0.729763 -1.111395 -0.203816 -0.797175 0.200504 -0.228592 -0.288641 -2.092810 -1.934342 0.725471 1.101682 0.165248 1.344966 -0.224416 -0.778095 -1.263148 -0.514856 1.380331 -1.240703 -1.790436 0.184664 -0.041628 0.596216 1.650892 -0.474452 -0.371715 1.262889 -1.330331 -0.870404 -2.168129 0.332217 0.145517 0.016721 -0.538558 -3.234376 1.675120 0.339339 0.487684 -1.156222 -0.413581 -1.689846 1.015728 0.596635 0.094494 -0.468461 0.030380 -1.301142 -0.478433 -0.945387 -2.175853 1.297068 0.140053 0.440926 0.714320 -1.473846 -1.690555 -2.241393 2.058457 0.668711 0.366707 -1.652760 -1.184750 0.189708 0.101385 -0.710597 -0.977541 0.510496 0.768179 0.416088 0.054053 -0.659540 0.510424 1.361673 -0.450370 -0.903702 1.035742 0.075169 -1.047443 -0.370442 1.357326 -1.093094 -2.157293 -1.617617 2.521824 1.631750 0.131460 0.536013 0.859132 2.187550 0.830589
if 0.617021 2.635750 -1.034178 -1.238014 -0.904867 -0.385284 0.670004 -1.241912 -0.277398 -1.396801 0.064520 0.845019 0.157837 0.534617 -0.506100 -0.822801 2.371176 -1.099674 1.087376 0.180132 0.607454 0.704987 -0.939630 -2.559286 -0.139204 -0.269355 0.851065 -0.279498 1.858366 0.870446 -2.022522 0.118406 -1.555990 -0.928326 0.303042 -0.509804 2.177266 -0.135952 0.088254 -0.380857 -0.133033 0.663750 0.451893 1.105536 -0.758094 -0.908842 -1.887225 -0.662981 -0.550896 -0.449331 0.990869 -1.538774 -2.569341 -2.168023 1.790320 -2.084942 -1.215364 -0.192970 -0.919175 -0.704568 -0.047047 1.984790 0.669046 0.241273 0.972613 -0.337727 0.679350 0.283052 2.876204 1.988178 -0.258269 1.512653 -1.711483 0.071813 1.787282 -0.512281 -1.348481 -0.059469 1.137556 -0.991212 -0.818990 1.054373 0.735554 1.735082 0.446644 1.667069 0.985397 0.028765 -0.986738 1.572410 -2.137973 0.898932 0.682511 0.123082 -1.136488 -0.836903 -0.901958 -1.174097 0.321466 -0.405927 -0.107780 2.210781 -2.174715 0.348584 -0.828895 -0.671237 -0.185606 -0.245508 0.120292 -0.348577 2.783740 2.058123 0.394058 -0.152532 0.445173 -1.198872 0.414484 -0.443276 0.310406 -0.899964 1.655570 0.388184 -1.542627 1.383180 -0.095810 1.487049 0.182883 0.262619
there -0.738490 -0.009690 -0.597552 -0.131295 0.040201 0.293175 -1.074551 0.336730 1.939486 -1.213502 0.937181 0.797342 1.777668 0.640450 0.134614 0.694613 0.547652 0.051470 1.613477 -0.908540 0.580720 0.747096 -0.662965 0.231808 1.995884 0.795705 1.199130 -0.344054 1.944439 0.876932 2.488535 0.593776 -0.199598 0.572770 -1.448342 -0.513486 1.697285 -1.552397 -1.516435 -1.934933 0.660417 -1.051751 -1.293941 0.912445 1.254713 -1.785433 -0.534168 -0.285867 1.029961 0.173792 -0.115669 0.942520 -0.493136 1.726749 -1.277082 -2.779378 -0.455951 1.417107 -1.415965 -0.602846 -0.610048 0.351880 -0.799410 0.946363 -1.365907 -0.287656 0.347948 0.353670 0.642422 -1.333357 -0.529623 -0.484881 0.822058 -0.131125 -0.300099 -0.624027 2.184492 0.964559 2.007421 -0.160725 -0.815242 -0.784379 2.630324 0.301018 -1.049493 -0.766359 -0.601851 -0.237531 1.230763 -0.203893 -0.303761 0.111505 -1.731286 -1.335190 -0.159127 1.689647 1.381342 -1.145730 -0.177374 -0.317820 1.797502 -0.701889 -1.327898 -0.219330 -0.109078 -1.838792 0.230666 -0.650284 -0.202806 -0.084597 0.979122 -1.610994 -0.174841 -1.234063 1.746722 -0.141384 -1.136984 -0.087649 -1.977676 -1.959644 2.856023 -0.025092 1.212001 0.697977 0.245702 0.457567 1.876973 -1.308565
who -1.604858 -0.658626 -0.915754 -0.247113 -0.740400 0.035091 -0.058060 1.529814 -0.203040 -0.791734 0.947820 0.539319 1.679156 -0.689043 1.519791 -1.664928 1.648789 0.719064 1.089849 -0.030107 -1.220191 0.665728 -1.568794 -2.123234 0.093654 0.586931 -0.847503 0.021253 0.358549 1.149295 -0.854632 2.021366 -0.211871 -0.814686 0.684538 0.454800 0.703134 0.837120 -0.236262 0.296634 0.108516 -0.151925 -0.988020 0.445132 -0.816542 -0.197490 0.267426 3.505593 0.168516 1.195222 0.683245 -2.517289 2.160996 0.678778 1.711315 -0.018619 -1.017737 -0.033451 0.216222 1.037657 -0.120195 -1.313937 -1.374205 -2.861954 -0.313361 0.506391 1.881431 0.191925 3.221814 -1.114689 2.367264 0.846844 2.208464 -0.158223 -0.852750 1.058428 -2.526628 -1.810410 -0.246312 -0.043111 -1.242368 -0.624590 1.978478 -0.553887 -0.256024 -0.616926 -1.010143 -0.450427 -0.572846 1.517940 -1.787670 0.347363 -0.888158 0.070520 0.017948 0.949553 -0.640352 -2.572434 0.213122 0.225135 -0.033809 1.717143 -0.426428 0.287627 -0.273830 -0.160634 1.316190 -1.155202 -2.130625 2.242253 -0.212556 1.623256 0.333160 0.822094 -0.306772 3.320631 0.044271 1.310293 0.762261 -0.663714 -0.084421 0.622931 -0.092645 1.068435 -2.096067 -0.607671 -0.141730 -0.371577
we -0.184821 -2.888322 2.422029 -1.852123 0.076763 -0.151216 1.174824 -1.269139 -0.742686 1.538982 1.164954 0.290829 -0.788011 -1.383961 0.095407 1.528889 0.516999 -0.471624 -0.413331 -1.967509 0.633576 1.059281 -0.147877 -0.808315 -0.851401 2.149108 -0.577090 -0.292142 -1.461031 1.110289 0.444547 1.279079 -0.726667 0.115931 -2.341768 -1.843341 0.374033 -0.293394 -2.112321 0.703238 -0.868765 -0.424996 -0.903760 1.702583 0.594678 -0.473316 0.369188 -1.673837 0.084228 -0.328329 1.188525 0.531913 -0.293179 0.068368 -0.852435 -2.680105 -0.591653 -1.263652 -0.497294 -0.346972 0.755671 -0.311791 1.132986 2.043683 0.355285 -0.001516 -0.751364 -0.127889 0.318958 -0.615031 -0.099299 0.680107 0.558232 0.700293 0.561599 0.039346 0.047698 0.055984 -0.400916 -2.411374 2.302655 -0.256847 1.609115 -0.926562 1.678830 1.082863 2.064008 -0.940653 -0.544462 0.507554 2.166790 0.487952 -0.369276 -0.132415 -0.619990 -0.106064 0.319247 1.149780 -2.030634 -0.172031 1.310206 -0.103997 0.689851 -0.145748 0.677717 -2.010435 1.289416 -3.332668 -0.472000 -1.541073 0.087331 -0.158305 -0.189868 1.670031 0.245891 -2.652349 1.343306 1.323604 2.428638 -1.309214 1.113642 -0.413999 0.818617 -1.590098 -1.695603 1.978367 0.401101 -0.486594
will 0.617277 0.008933 -1.380378 0.459393 -0.590679 -0.747853 -0.121444 -0.544249 0.558111 -1.151482 -0.422679 -0.123384 -1.914780 0.553202 -0.012153 -0.499957 -2.027407 -1.099542 0.243487 -1.583676 -0.551165 -0.150917 -0.540094 0.300972 0.639389 1.079439 -0.203493 0.714153 -0.833759 -1.617943 -0.664459 -0.505281 0.200820 -0.028109 1.266204 0.175043 0.747391 1.335090 3.607510 2.134413 1.726446 -1.766060 -1.191800 0.780943 0.117570 0.248630 -0.288876 0.963088 1.345628 -0.631476 1.594762 -0.581922 -0.142514 0.073468 0.062580 -0.648068 0.531416 -0.636369 0.394945 0.198812 -2.053225 0.000107 -0.714942 1.284672 1.036757 0.655016 -0.478838 0.241399 -0.332524 1.026063 -1.356179 -0.175135 -0.598020 -0.037219 1.087682 0.097678 -0.117767 0.212218 1.231717 0.913416 0.587002 0.143031 0.623825 1.205541 0.879844 1.500340 -2.773677 -0.618741 -1.165505 -1.460342 -0.651167 0.022888 -2.246644 -0.609941 1.420955 2.156992 0.173304 -1.730947 -2.147144 -0.664721 -2.553570 0.567287 -0.783057 1.366264 1.352294 -0.152957 2.484122 0.362845 -0.421963 -0.065541 1.185316 -0.869968 0.013775 -0.150450 -0.315797 0.521176 0.472801 -0.341263 0.031871 0.315993 1.386972 -0.293479 -0.316984 -1.853294 2.017755 0.647940 0.289737 -0.539013
an 0.675343 0.980189 0.676682 -0.649172 -0.790848 3.137441 0.751930 0.337929 -0.756568 -0.604581 1.066188 1.077659 -0.573240 -1.226157 -0.139377 1.478078 -0.674613 -0.395946 0.912073 -1.487527 2.092511 2.230938 -1.873375 -0.391212 -0.588043 -1.144614 -1.368698 -1.182321 0.455741 -0.303625 -0.182837 -3.149822 -0.851457 -2.025788 0.988000 0.857329 0.524727 0.290285 0.185909 -1.875382 1.731039 -0.884860 0.916126 0.303220 -1.051172 -2.146397 1.123140 -0.018972 -0.759248 -0.447679 0.933076 0.654052 1.051384 -1.805587 0.173469 -0.016779 0.947147 -1.388712 -0.330840 0.820122 0.192209 0.152084 1.261976 -0.371522 2.520451 0.101744 -0.633138 0.562887 1.909899 2.306607 -0.416849 -0.266412 -0.750278 1.258189 -0.762351 0.773214 -0.246405 -0.502796 -0.209144 0.039444 -1.604482 -0.658916 1.642259 -0.004063 0.308565 0.129074 -1.670372 -1.559986 -0.407415 0.101368 -2.329640 -0.930862 2.035598 1.598811 -0.728330 -0.808849 0.647988 2.132058 0.435747 -0.600362 1.130232 0.804403 2.688956 -1.735027 -0.687391 -0.650716 -1.705356 1.627287 0.354865 -1.706813 -0.104312 -0.952134 2.904275 0.247812 0.062871 1.778187 -0.978667 0.685882 0.459280 -0.804338 1.942740 0.869468 -0.043508 -2.439289 2.337761 -0.332809 0.821375 0.196386
then 0.420194 1.189876 0.273181 -0.455152 2.444957 -1.160189 0.080662 0.586678 -1.459689 -2.431896 -0.841839 1.491718 0.068660 -0.286002 0.555106 2.444232 1.503515 1.207062 0.422861 0.592701 0.901012 0.393242 -0.995254 -0.291576 2.024938 -0.568350 0.255749 -0.956905 0.779043 0.624820 0.089173 -0.904049 1.710126 -0.748169 0.307002 -0.778156 -0.810268 0.390896 0.140994 -2.050929 0.093601 -0.990076 -0.576289 0.855318 -0.052042 -1.661919 0.390356 0.397923 0.511083 0.035633 0.638734 -0.937465 -0.263127 -0.078929 -2.379564 -1.874379 0.144023 -0.662720 -1.860798 0.934856 -0.400902 0.884875 1.792610 0.056269 -1.322680 -0.862373 1.210237 0.080423 -1.376042 -0.008541 -0.577650 0.257870 -0.272421 -0.183756 0.853268 -0.182365 0.434542 0.036346 -0.474369 -0.310026 -0.906286 -2.102198 -0.017912 -0.540212 -0.334554 1.685457 -0.173652 -1.594787 -0.573505 1.023645 -0.776907 1.707886 1.066492 -1.894562 -0.559674 -0.570523 -1.212164 0.923240 0.346712 0.641081 -0.548702 0.790012 -1.225349 1.020977 -1.186392 -0.621617 -0.175460 0.350649 0.167142 -0.172260 1.612696 1.606386 1.603462 -0.025208 1.242648 -0.577164 0.415895 0.995149 1.130621 -0.308448 0.566357 -1.706269 -0.707905 0.785810 0.618899 0.332110 1.441359 -0.517102
their -0.804192 0.788867 -1.094748 1.328942 -0.250259 -0.102001 2.139562 -1.337222 -0.266793 -0.052898 -0.210967 -0.352691 0.090520 0.288343 0.862878 1.346308 -0.128909 0.833926 1.484023 1.086172 -0.077842 1.342936 0.355808 1.532211 0.585401 2.529323 0.794986 -0.724591 1.833808 -1.365296 0.472965 -0.155743 -0.760087 -1.421478 0.052085 2.565350 0.229930 -1.241105 -0.791183 0.266302 0.377429 0.839420 -0.832048 1.662344 -0.439300 -0.531690 0.246096 1.678242 0.085539 -1.136796 -1.306415 0.359235 2.385371 -0.817817 -1.163129 1.050967 1.570230 0.470519 0.677695 -0.169890 1.220027 1.035930 1.077683 0.918410 0.765485 -0.279601 0.312215 -0.208156 0.702164 1.584027 0.118829 -0.606305 -1.610608 -0.981211 -0.718090 -1.088809 -2.048268 0.657585 1.245099 0.218693 1.752310 -0.858634 -0.959115 0.369799 -0.711288 -0.882756 1.042261 1.867425 1.437596 1.359379 -0.262965 -1.602417 -0.224726 -0.593695 -2.091347 0.451487 0.477767 0.023787 -0.039037 2.050951 1.380129 1.084382 -0.003038 -1.165573 -1.247552 1.053048 1.820997 0.696854 -0.355571 2.832386 -0.896448 0.137743 0.730351 -0.060384 1.583458 -1.961269 1.780394 0.573518 1.897151 -0.924390 0.306310 -0.478025 -0.379097 -2.474425 1.664379 0.174312 2.151507 -0.046535
would 0.425117 0.292331 1.199627 0.559026 -0.093965 -0.643063 0.536115 -1.379282 0.898838 1.209604 -0.692767 -1.703342 -2.202697 0.755913 0.336295 0.596782 0.124730 1.387261 -2.024710 -1.637418 -0.185484 0.456547 -1.001718 -0.704926 0.210457 -1.278014 1.349754 0.516267 -0.808512 -0.414943 -1.431741 0.198859 -1.633749 -1.020820 0.656215 -0.372451 0.331255 1.625657 2.350524 -1.628172 0.144810 -0.699551 -1.338933 -1.223776 -0.994467 -0.759923 0.629281 -0.357823 -1.549520 -0.110065 1.433653 0.099464 1.129261 0.714619 -2.560388 0.022983 -1.566541 0.960309 -0.076030 -0.689776 0.766672 -0.800241 -0.762759 1.129782 0.578048 1.027253 -0.317886 2.238379 -0.575814 -0.180791 -0.561062 0.770779 0.237999 0.095480 1.648196 2.212202 -0.575931 -1.672885 1.722537 0.249833 -0.378036 0.436250 1.813960 0.442321 -0.189143 1.708376 -0.411749 -0.478410 0.053021 -0.535267 -0.043915 -0.622370 -0.392845 0.534748 1.017620 0.322274 0.494007 -0.281743 -2.031187 0.196011 -0.955806 1.642727 0.348998 0.318508 1.730619 -0.814320 1.427404 0.454371 0.710948 -0.694511 -0.647952 -1.510717 0.251034 -0.631517 0.239718 -0.566077 -0.285164 0.490837 1.363025 -1.588345 1.380940 0.286891 -1.120776 0.932967 0.837096 1.664509 1.053918 -2.102070
them 0.207838 -1.961224 -1.461636 0.941587 -1.401364 0.024289 0.991564 -1.454142 0.712004 -1.869485 1.308528 -1.129446 -0.045138 2.662911 -0.332989 -1.805776 0.574195 0.636068 -1.961586 -0.285057 0.575296 0.506648 0.485827 1.101684 -1.304530 -0.284997 -0.376789 -0.802434 1.469586 1.777216 -1.306979 1.232490 0.697953 -0.386534 1.219072 0.767878 1.700974 2.124091 0.145230 -0.557741 0.078129 -0.853318 -0.059921 1.301138 1.321740 -0.842610 1.237548 -0.160888 0.248895 2.004155 0.252732 -0.778641 -0.261699 -0.380317 0.083475 1.595928 0.917989 1.293729 2.262269 -0.997206 0.414755 -1.359195 1.214851 -0.954427 -1.018622 -0.046055 -0.451777 -0.411009 0.176818 2.077869 1.138681 1.448489 -0.555106 -0.776790 0.801966 0.661172 0.722312 0.221882 -0.588205 1.121172 0.156002 -0.072344 -0.506658 -1.553898 0.105635 0.678234 -1.237485 0.020793 0.492643 -1.002457 -0.584623 0.195479 2.708998 -1.747015 0.293159 0.774423 0.764455 -0.474167 1.322994 -0.233536 0.734199 1.475647 0.515691 -0.295035 1.469440 -0.793597 -0.394221 -0.351489 1.449202 1.757183 1.061022 0.751080 -0.667040 0.578393 0.080385 -1.621972 -0.489326 2.044107 0.482116 -0.921206 0.335162 0.804568 -0.515834 -0.605205 0.551614 -0.656240 1.284440 -0.364335
been 0.847830 0.592142 -1.024783 2.000777 1.560632 -0.694587 -1.417637 -0.963059 -1.806388 1.020840 0.435170 1.205189 -2.075416 -0.632674 1.528072 1.484508 0.419598 0.158154 1.620910 -2.619430 -0.395141 0.541149 -0.020909 -0.235104 -0.052265 -0.569776 -0.610645 1.192660 1.794688 1.668950 -1.085937 0.188041 -1.912407 -3.705210 1.861184 0.480681 0.064030 0.109932 -0.060109 -1.166912 0.723625 -0.394786 -1.710318 0.554092 0.116943 -0.058403 0.543995 0.052628 1.922834 0.429400 2.875175 0.512863 0.751352 0.784675 2.279710 1.489037 -0.530048 0.072143 0.104056 -1.841025 0.428237 0.483142 0.056786 2.137203 -1.358460 0.901529 -0.322756 -0.784206 -1.078630 1.841570 -0.109516 0.354754 -1.933210 0.349816 -2.916502 -1.585873 2.450749 0.155436 -0.484764 3.133201 -0.305324 -2.075027 0.884183 -0.359392 1.435681 -0.712993 0.770855 -1.406662 1.491389 0.951711 -0.793877 1.228510 3.376887 1.654057 -0.851860 -0.710838 -0.058548 -2.347843 0.076231 -0.625427 0.234494 -0.540911 -0.819826 2.452817 -0.305812 -0.584485 1.325709 0.102891 0.657789 1.329922 -0.806665 -0.024073 1.412981 1.426626 0.298950 -0.154106 -0.007733 0.368300 -1.590074 -2.596411 1.511378 1.719963 0.344326 -2.373942 -0.969248 -1.499628 -1.615527 0.748063
do 0.922229 -0.312851 0.583779 -0.904314 -1.182388 -0.447818 0.647349 -1.003749 -0.905529 -1.855722 0.326977 -0.862388 -1.065591 -1.259255 -0.006923 2.079226 -0.024616 0.357810 0.236869 1.342819 0.750363 -0.627447 -2.279219 2.335182 0.698191 0.357508 -0.656197 -0.075367 -1.159017 -0.145683 -1.574061 0.780769 0.896970 -0.082136 -0.453852 1.091020 -0.466787 1.340187 -1.847267 3.294529 0.017324 0.552844 1.095118 -0.678782 -2.029325 -1.307915 -1.888894 -1.632900 0.790613 1.149750 0.952655 0.422283 0.387623 0.575869 -0.862315 1.526966 -0.917260 -0.879015 -0.526488 1.458958 -1.851545 0.427917 0.152589 2.344490 -0.063350 1.624375 0.697040 0.906212 -2.373719 2.551750 -0.948350 -0.628804 1.587738 0.173331 0.344620 0.780656 -1.658778 1.025994 -0.012932 0.790866 -0.674518 -0.049499 -1.126635 -1.267875 1.394032 0.229697 2.072903 -0.116942 0.923247 -1.221440 -1.539081 -1.046119 0.387263 1.685035 0.885171 -0.100445 -0.431457 -1.252344 -0.692852 -0.886728 -3.018639 0.746977 0.966785 -0.676491 1.436649 -1.747605 0.662492 -0.436208 -1.881651 0.476878 1.407728 -0.327490 0.168195 1.443441 0.397248 -0.995572 0.802631 0.626132 -0.158426 1.078640 0.017369 0.807693 -1.207211 1.905835 0.698596 0.169537 -0.566552 -1.564493
your 0.778085 1.165136 1.335997 -0.576303 -0.548932 -2.155416 0.422027 0.874773 -0.222889 2.007703 0.352158 0.256603 1.540196 -1.328512 1.027533 -0.700568 -1.136259 -0.690090 -1.323839 -0.579099 0.623258 0.569135 0.830703 1.356515 -1.335791 1.439396 -1.585320 -0.963099 -0.061798 -1.183812 0.422198 -0.559311 0.174837 1.251800 0.185753 2.648168 -1.201558 0.543222 0.553939 0.297341 -1.149756 1.956951 -0.352813 0.947712 -1.139569 -0.641366 0.417856 0.955540 -0.485645 0.625454 0.473150 0.506590 1.444296 -2.316887 -0.084228 0.191528 -0.264840 -1.103689 1.594871 -0.706907 -0.483392 0.462446 -0.624086 0.798391 0.996862 1.362320 0.097164 -0.158625 -0.392511 2.098019 -3.191452 0.418721 -0.416052 -0.927328 0.138260 0.001242 -0.387936 0.279910 1.204857 1.881637 0.579212 -0.928268 -0.851678 -1.348920 0.235607 -0.571745 -0.606109 -1.629698 0.278238 -1.007060 -0.674957 1.041082 0.640549 -2.197138 -0.445100 2.144047 -0.209592 -1.447499 -1.593878 -0.327478 2.059850 0.654962 1.371760 -1.353624 -1.465030 0.432396 1.259224 -0.216355 -0.703145 -1.486564 -0.224136 0.942929 -0.663972 0.184558 1.995714 1.132190 1.310386 0.044383 0.475339 -1.313135 -0.694538 -0.459275 -1.532220 1.423153 -0.581241 1.245205 1.752821 0.755356
now -1.808661 -0.204429 -0.178006 0.121616 0.597994 0.560931 0.971588 0.629432 -0.595990 -2.095792 1.475337 -0.410827 -1.013674 -1.218884 -0.672654 1.225946 0.663075 -1.012170 1.715462 -1.096610 2.027083 -0.180564 -0.387089 0.687262 0.536522 -0.632000 1.025477 -0.335729 0.716656 0.386556 0.158975 -0.420239 -0.462668 1.708563 0.853955 -1.735733 -0.444866 -3.102907 -0.799029 -0.041531 0.608905 0.640766 0.257062 0.490726 0.333736 0.296855 -0.435658 0.919124 -0.734097 -0.731022 -0.044190 0.241310 0.995377 -1.032870 -1.179996 -0.946944 -1.034188 -0.619282 -0.926144 0.571639 0.734482 2.658456 -1.469198 1.594691 -0.400526 -0.834730 0.143959 1.141230 0.054314 -0.433665 0.699537 -1.614937 -1.264378 -0.504026 -0.157479 2.329374 -1.584333 0.413397 -0.810446 0.445720 1.026839 -1.673574 1.673644 -0.726746 0.694031 1.623951 0.585044 0.069378 -0.666749 -0.115721 0.522030 1.549898 0.857726 -0.916594 -1.513407 0.881969 -0.980527 0.779994 0.633951 0.213146 -1.007058 0.904286 -0.021454 0.915621 -0.164561 -0.130413 -0.640078 -0.260766 -1.491805 0.059808 -0.703150 0.391318 0.466251 -1.049232 0.850104 1.124199 1.061518 1.209472 0.445210 -0.500271 -0.664377 0.054289 -0.954157 -1.021007 0.651727 1.445757 1.207672 0.222589
out 1.934796 -0.614029 0.206969 -2.352476 1.541494 -0.277444 -1.816064 0.514015 0.290440 -1.368870 -2.128575 -1.229467 0.125614 0.779634 1.101735 -3.537429 0.753230 -1.505956 -1.104118 0.830515 -0.417479 -1.335250 -2.532589 -0.174599 1.550951 1.699218 2.140568 -0.648256 -1.302350 -0.297333 -0.251758 0.824525 -0.508689 -0.307176 0.002300 0.853372 -0.550721 -0.260935 -1.574719 -0.122614 -0.103424 0.149468 0.233033 0.730999 0.424081 -0.526570 0.889247 -0.399123 0.682469 0.571249 2.045486 -0.180882 0.470140 -1.076463 0.155036 -0.391472 -0.738359 1.435250 0.009836 0.500002 -1.743563 -0.209443 -0.797753 -1.638964 0.526562 0.679574 1.174739 -2.818479 1.642115 0.301766 0.442572 0.727110 -0.746632 1.178119 2.291496 0.685931 0.991613 -0.099327 -0.776723 0.475283 2.068000 -2.288913 0.232091 0.593670 -1.235591 -0.595670 -1.451228 0.143358 1.004395 -0.992300 -1.173619 0.685335 -0.942945 0.402450 2.086345 -0.922094 0.276927 -2.058800 -1.237706 -1.893903 1.827240 -1.038173 -0.497451 -0.550518 -0.298180 -0.145862 0.343914 -0.974619 0.221107 -0.283252 -1.811891 -1.280555 1.325289 -2.369479 1.687726 0.465640 -0.713119 -0.995273 2.085644 -1.037135 0.304134 -1.321386 -1.319703 -2.377858 1.218214 -0.720680 -0.560100 1.472023
more -0.882122 1.133390 1.831293 -0.003570 0.517169 0.193369 -0.581400 0.519308 0.204291 -2.188757 0.133787 2.694451 0.605875 -2.723976 0.703024 1.050459 -0.641785 0.818638 0.570703 1.267746 0.135411 -0.501159 -0.268588 0.648071 -0.168888 -2.346289 -0.430386 0.415851 -0.121293 0.109366 0.770615 0.477906 -0.752874 -0.815113 -0.392504 0.562515 0.566316 0.885632 1.183666 -0.131675 0.535619 1.594476 -0.501568 0.980757 0.001003 1.285811 0.485385 -1.670821 -1.508049 0.923492 -1.216175 -0.859448 0.442121 1.196732 1.044122 0.463900 -1.186543 1.971792 0.429695 0.690797 1.378398 2.166009 -0.402123 -1.453002 0.599874 -0.967551 -0.049169 0.921556 0.852676 -0.524405 1.253687 0.973507 1.817992 1.781431 1.214312 1.242579 0.091942 0.931038 1.215802 1.189626 -0.491012 0.199326 0.258718 -0.344893 1.793708 0.059555 1.478689 -0.104308 -0.379375 -2.056947 -0.289737 1.389804 0.008494 -1.149346 -0.378933 1.437357 -0.899454 0.685624 -1.463045 -0.489608 -0.290943 -0.879615 -1.162625 -0.605180 -0.149037 0.597616 -2.092651 1.364856 -0.752059 1.618813 1.341381 -0.158679 1.868958 -0.136518 1.249239 -1.206827 0.481542 1.338737 2.091247 -1.756465 -0.704049 0.084535 1.692710 1.045822 -0.658151 0.332085 -1.274413 -0.375764
up 0.499528 1.473726 0.193856 -0.012680 -2.119025 -0.434412 2.009336 -0.400779 0.379043 -1.044953 -0.373327 -1.456253 0.648594 0.207652 -0.756288 -1.133376 1.350964 -0.964915 -0.008114 0.323438 -0.598881 1.303790 2.050453 -2.304436 -0.907487 2.209621 3.737268 0.194354 -0.188089 1.418974 -0.503237 0.549485 -1.081236 0.716206 1.063358 -0.615254 -1.311724 0.912067 -0.936004 1.742892 0.680381 1.028659 -2.680217 1.186365 0.495229 -2.844990 -0.248276 0.570754 0.532923 1.395285 1.395499 -0.081304 -0.686210 1.534775 -0.584110 0.273436 -0.730760 0.664766 -1.212311 2.113192 -1.689754 -0.102885 0.849163 -2.345816 1.164953 -0.065690 -1.176225 -1.738424 1.384401 -0.176076 -1.181749 1.172494 0.708877 0.064567 0.518778 0.902083 0.119327 0.604206 -0.522144 0.127950 0.887447 -1.053036 0.378621 -0.412984 -1.322224 1.170248 -1.573457 0.031831 0.198722 -1.738211 1.148682 1.912534 0.186908 -0.775283 0.338580 -1.595030 -0.966184 0.643969 0.459717 0.544144 -1.009757 -1.001471 0.262782 0.870344 -0.018821 -1.038922 -1.285903 -1.288495 -0.089458 1.195022 0.531000 -0.579296 2.122099 1.934246 -1.292854 0.445181 -0.168156 -2.181175 -1.810863 -0.870029 -0.345793 -0.014972 0.561577 -2.536386 1.454619 -0.298012 0.824539 -0.893788
man 0.473683 -0.847476 1.383008 1.412132 0.770056 -0.946437 -0.111899 1.138962 0.663832 -0.459692 0.814645 -1.014718 0.173431 -0.792137 -0.146943 0.948471 1.583065 -1.007457 -1.889071 -1.104979 -1.319281 0.564333 -1.872316 -1.362659 1.316651 -0.240919 -0.187435 0.592315 -0.844979 0.443592 0.615494 1.807192 -0.714149 0.959635 0.028417 0.251323 1.084705 1.830337 -1.204001 0.190777 0.716028 -0.168242 1.209013 -1.352984 -2.096884 -1.514292 0.899752 -0.482032 -1.647902 -2.333575 2.087576 -1.635204 0.634479 1.538550 -1.456261 0.743378 -0.555719 -0.419331 1.317890 -0.443565 1.769209 -0.120410 -0.202397 -1.102069 -0.776670 -0.396783 0.014467 -0.124421 0.117133 -2.650884 -0.597459 0.669768 1.806389 -0.176775 -1.561399 -0.162063 0.671081 1.747804 -1.200487 0.181513 -0.402106 -0.254078 0.055455 0.333415 0.534565 -0.135993 1.257470 -1.922831 -1.197575 1.507532 -2.735825 0.360354 -1.050423 -0.656978 -0.280501 -0.751103 -0.249306 -0.442809 -0.181593 1.292159 -0.434906 0.018976 -0.452744 -1.518104 -1.823748 -1.114051 -0.692860 -0.340794 -1.518170 0.827320 0.109678 1.897663 0.775139 -0.594090 2.260186 -0.231958 -0.657275 0.862649 -1.300152 0.842947 -1.701370 1.317507 2.786452 -1.589426 0.480985 -0.870361 3.025631 0.984181
into 0.786072 1.255485 -1.215559 0.342297 -0.209257 0.906753 0.101101 -1.149169 -1.379686 -1.066700 1.642674 0.811569 1.387492 -0.646370 2.486225 0.415287 1.664488 -1.222744 -1.720795 -0.070544 -0.444450 0.074020 0.862457 1.008104 -0.281473 -0.249914 1.062205 0.794530 0.308446 -1.124947 -0.810389 -0.060300 -0.329325 -1.479936 -0.671292 -0.226538 -0.456709 -0.506316 0.565665 0.277689 -0.312615 -0.432178 -1.844522 -0.730961 1.546161 1.167907 2.586610 -0.187389 2.385503 -0.415945 0.434288 -1.033868 1.136881 -0.886044 -0.403833 -0.596989 1.173019 -1.809188 -1.760149 -0.899736 -0.968457 -0.428363 -1.118222 -0.707270 -0.143371 2.171548 -0.315762 -2.102323 1.992424 -1.948725 -0.000368 0.666057 -0.199764 1.654369 -0.954703 0.290612 -2.520766 1.443809 0.533382 -0.717868 -1.045131 -0.794349 0.828417 -0.086717 2.028599 0.479177 -1.097231 -0.360766 0.937556 0.298520 1.440187 0.901809 0.869307 0.033198 -1.166187 -0.598878 0.096764 -0.383982 -0.624045 0.075024 -1.038683 0.278716 -1.055306 0.723318 1.986267 -0.186307 0.613848 -0.747512 -1.181021 0.007338 -0.798678 -0.451146 0.146996 -2.977524 -0.890935 -2.051116 0.744142 0.409665 2.618309 -0.910456 -2.191482 -3.277290 2.172787 -1.101455 1.174184 -1.731636 1.524325 1.809432
some 0.990333 -1.318693 -0.116718 0.375545 0.706049 0.459790 0.883083 -0.162765 0.247438 0.533548 0.653642 -1.262330 0.868235 -1.089647 1.494033 -0.170263 -0.096645 2.174196 1.356866 -0.937232 0.612404 -1.108039 -1.508341 -0.245967 -0.251463 1.498783 1.177731 0.751703 -0.035256 -0.094758 0.510036 -0.950532 -1.575062 -1.347542 0.743239 1.241784 -0.008887 0.321326 0.437148 -0.034802 0.078015 -1.166808 -0.547614 0.638136 -0.842288 -1.791369 1.272538 0.590683 -0.562772 -0.342490 2.936043 -0.048183 -0.845142 -1.742404 -0.948996 -0.442528 1.345405 -1.005475 -0.789498 -0.417078 1.663986 0.153200 -1.017079 -0.693694 0.744106 -2.557092 0.776542 -0.777031 -0.323257 -1.129340 -2.943996 0.101962 -2.275569 1.145338 1.354700 -1.507041 2.294174 -1.361915 0.858729 -0.423300 -0.761204 0.880336 -0.324090 1.239720 -1.830961 -1.462456 -2.073213 1.373275 -1.008641 0.705135 -0.607596 1.962204 -0.437681 -0.468497 -0.746844 -0.416610 1.024371 0.710659 -1.361189 -0.806988 -0.901869 -0.674176 -0.276652 0.348736 0.263761 -0.891819 -1.329359 0.696338 0.283415 0.218926 -0.043140 0.538239 1.753094 -0.852749 -0.003585 0.895699 0.372862 1.073796 1.796013 -0.978385 0.529468 0.551564 0.340132 -0.229098 1.190228 -1.506569 1.797802 1.842941
could -0.102273 0.043901 -0.132428 0.595843 -0.842726 -1.106756 -0.426137 -1.770859 0.811810 -3.384154 -4.200052 1.265069 -1.422787 -0.717133 -0.744386 1.498955 -0.694658 0.855320 1.203492 -1.902267 1.319409 -1.045262 -1.417216 0.112133 0.010396 1.257124 -0.346809 1.668644 0.126689 0.393910 1.301062 -1.994387 -2.502563 0.245182 -0.711907 -0.623931 -1.494529 2.400428 2.189327 0.171537 -1.068287 -0.708057 -0.062915 1.648888 -0.066752 0.246224 0.351518 -0.331226 0.133266 -0.773114 1.426029 0.242092 3.745198 -0.857466 -0.784262 -0.800710 0.810847 1.701309 0.663015 -0.579996 -1.231451 0.924059 0.569413 0.161536 -0.632907 -0.121155 0.316911 -0.843801 0.399053 0.503920 0.447606 0.793312 -0.227703 -1.175351 0.126041 1.474522 0.649879 -0.383673 1.756879 -1.045065 -0.043617 -0.455126 -0.002132 0.545816 -0.649721 0.278350 0.303033 -0.227491 -0.953774 0.654761 0.343576 1.038847 -1.665620 -0.694055 -0.638430 0.313206 0.327743 -1.431026 -0.783414 -0.818773 -1.595299 3.281307 -0.050270 -0.126482 2.148736 -0.839063 -0.151533 -1.558489 0.145162 0.202609 -0.223609 -0.152693 -0.103687 0.192682 0.334207 -1.658186 0.028609 2.049017 -0.593712 0.554814 0.637446 -0.382829 0.699728 1.348846 -1.121010 -1.298073 2.771029 -1.159084
has -0.504749 0.555100 -2.185030 -0.915786 1.380933 0.686665 3.133956 -0.789168 -0.568398 -0.654261 -0.977988 -0.002142 -0.491756 -1.563356 0.014804 -0.259395 -0.731569 1.463292 1.665425 0.103875 -0.230393 0.609701 -2.920627 -0.460797 0.147894 1.448255 0.777835 -0.572748 -0.617820 -0.985695 -1.300195 1.466094 -1.954697 -0.714484 1.019086 -0.585711 -0.267230 -0.022152 0.453484 0.857745 0.435885 -0.972960 -1.226686 -1.407654 -1.291113 0.464639 0.825851 0.562809 0.706991 -0.034366 1.006417 2.523833 0.240707 -0.629095 1.695791 3.264257 -2.355200 0.879210 -1.250584 -1.713671 -1.431886 0.021921 -0.524646 -0.371554 -0.945902 0.009589 0.458359 -0.236989 -0.070105 -0.194289 0.959266 3.551772 -0.833857 1.077060 -0.952443 1.044099 0.381027 0.419704 0.072479 0.623105 -0.063044 -0.816295 -0.389434 0.089626 1.011979 0.125540 1.159198 1.212765 1.169478 -0.394281 -0.229770 -2.210253 -0.659002 -1.083604 2.189819 -1.777428 3.053159 0.696817 0.393407 -1.136187 -2.152756 1.653031 -1.358219 -0.405266 0.287259 -1.286915 2.773263 0.052205 -0.745621 0.537747 1.428799 -0.885939 0.016252 -0.094358 1.150831 0.439381 -0.560329 -0.284517 0.543901 0.744907 0.694724 -0.649742 2.607240 -1.953951 -1.386600 0.034931 -1.828239 -1.405510
only -0.525340 -0.125595 -0.703871 -1.233076 0.927891 -0.238765 0.300835 0.985239 0.720270 0.096130 1.297217 0.546528 1.299904 0.764983 0.692337 2.573143 0.298915 0.064600 -0.456621 -2.004340 -1.511223 -0.943984 -2.186137 -0.679948 0.731636 1.359781 -1.668224 1.223480 0.281775 0.622294 1.502925 -0.160454 0.014589 -0.531540 -1.647204 -0.546997 -1.084664 -1.250835 0.038110 -1.258061 0.438708 0.705471 1.650539 -0.356183 0.894015 0.789443 -0.171460 -0.655643 0.374265 -1.685004 1.106921 -1.346745 1.519749 1.207548 -2.088360 -0.471274 0.158024 -0.097261 -0.595468 0.857440 -1.250571 1.593498 0.183459 1.100890 -0.245835 -1.217387 1.139027 0.266641 0.715453 0.419633 -2.038803 1.809620 -0.275052 1.374759 -1.757310 0.977266 -1.878009 0.162875 0.218590 -0.096541 -0.522431 0.126696 0.241165 0.842552 0.336531 -0.011305 -0.094258 0.518022 0.759929 1.423401 -0.697394 0.731946 -0.452160 -0.512243 -1.423937 -1.061684 0.703619 -1.025565 -0.355474 -1.709104 -0.700779 -0.155997 -0.631333 0.303131 1.720012 0.676999 0.422796 0.574974 -1.275816 0.096558 -0.881555 -0.553606 1.563330 -1.688820 1.154393 -2.011435 -0.585998 1.830410 0.067568 0.931262 0.858204 -0.510875 0.254881 2.351166 -0.859140 -0.419489 0.600016 0.405335
any -0.070942 0.243599 0.376602 -0.258390 -0.964181 0.706493 1.834844 -0.361244 -1.363212 -0.346539 2.118608 0.179384 -1.894848 -1.291060 -0.179350 0.350333 -1.625231 0.624243 0.260431 -1.405034 1.507911 -0.843045 -0.202528 -1.268969 -0.788894 0.254364 0.922816 -0.321048 -0.884801 -0.861224 0.625411 -2.087423 -2.336765 0.465244 -1.800085 -1.149268 -0.703656 -0.441747 -0.610286 -1.224148 -0.370042 -0.838904 -1.057765 -0.650240 -2.777022 -0.982798 -0.735269 1.426875 0.460799 -2.764642 1.123547 -0.333699 0.689633 -1.977620 1.760285 0.341482 1.159234 1.502138 1.652415 0.553562 -0.025041 1.127573 -0.765678 -1.780070 0.790837 -0.270476 0.688178 -2.214203 -0.007153 -0.890728 -0.926776 -0.008755 0.846840 -0.088154 0.975899 -0.092913 2.467653 1.450855 0.933791 -1.384118 0.694853 -1.465145 -0.038939 -0.477794 -0.028764 0.742484 0.239521 -0.660297 -0.624499 1.580025 -2.148038 -0.355362 1.276039 -3.100194 -1.385478 0.632339 1.199232 -1.666952 1.895606 -1.301100 -1.066061 0.349247 1.917680 -0.373270 -1.327807 0.225059 1.309411 1.830299 -1.185218 2.761303 -0.023940 -0.294976 1.362397 -0.768337 0.036285 -2.819444 0.755746 0.629969 1.153595 -1.559212 -0.422218 0.761318 0.673009 -0.594416 0.886934 0.181872 0.147727 -2.318208
very -0.195816 0.594250 -1.872600 0.583699 -0.069121 0.357618 0.060640 -0.854290 1.413623 -1.263932 -0.947756 0.261585 -0.083820 -2.023463 0.628753 1.003601 0.070064 0.019853 0.090846 -1.259860 -0.138904 0.388965 1.791424 -2.200888 0.854823 -1.211822 0.013147 -0.850292 1.741081 -0.561813 0.917867 0.551812 0.585978 0.360431 1.024380 0.518213 0.828498 0.259992 0.926285 0.172984 -1.974668 0.467292 1.738727 -0.236099 1.023460 -0.722152 -0.537490 -0.270732 1.622113 0.381985 0.227662 -0.157999 -0.002293 1.562018 -0.122473 0.142402 0.793798 2.325774 0.104863 0.019995 0.383729 0.473388 -0.575454 -2.070060 1.199433 1.469072 -2.260776 2.128101 0.245675 -0.061647 -3.196876 1.738099 0.844328 1.046410 -0.355932 1.466381 2.493826 1.076275 -1.876072 1.237462 -0.730475 2.707816 -0.058910 -0.904840 -1.196001 1.687711 -0.604765 -1.289114 0.774519 -0.263177 -1.569218 0.170499 -0.983781 -0.436915 -0.633173 -0.219485 -0.196919 -0.034575 -0.747300 -0.003452 0.547411 -0.811873 1.089849 1.135669 1.163855 0.471904 -2.161283 -0.674880 0.832785 0.673066 0.590373 -1.291066 0.050139 -0.194251 1.219941 -0.587729 2.627496 -0.151438 -0.302984 0.371009 0.165230 0.051169 -0.051745 -0.466946 0.271535 0.363744 -0.584266 -1.493145
like -1.140882 -0.671868 -2.050042 2.447201 -1.120251 0.418914 -1.094444 -0.305871 1.286816 -0.565534 0.116506 0.725656 -0.575659 -0.304603 0.673713 0.840739 -0.439373 -1.648957 -0.412517 -0.760650 0.124368 -0.013258 -1.064870 0.932416 -1.450958 -2.057416 -1.450920 -0.162536 0.129577 0.874402 0.645050 -0.098655 0.835469 0.943803 1.885243 0.366098 0.865871 -0.825182 -0.028947 -0.416615 -0.471863 1.716521 -2.052092 1.439400 -2.035493 -0.369588 -0.449615 1.805464 1.467168 -0.019041 -0.176940 0.262032 0.740999 -0.520676 -0.171575 -1.203102 -0.085850 1.934106 -1.089324 -1.483773 -0.042910 -0.064290 -2.723876 -0.869125 -0.744008 -0.711634 1.048432 1.759866 -0.095267 -1.093910 0.154733 -0.448991 1.215965 -1.158744 -0.716133 0.961075 0.970123 2.471391 1.104349 -1.088567 0.027615 1.613549 1.060929 0.658571 -0.025435 0.926595 0.191062 0.092791 1.553814 0.957389 -0.460105 0.583931 -0.443341 0.974310 1.289657 0.343091 -0.555472 -0.497674 0.270470 1.285734 -1.642314 -0.243586 0.261611 2.575116 1.091059 -1.071276 -0.336067 -0.377194 -1.150202 -0.744400 -1.120198 -0.206382 1.110728 1.478310 -1.243752 -0.572494 0.075593 -1.089391 1.279949 -0.957738 0.429106 -0.609184 -0.176259 -1.682941 2.105745 -0.112203 -0.100383 0.654151
did -0.759964 -1.264630 1.549441 -0.772019 0.482529 -0.312034 1.768610 0.194002 1.865908 -2.161906 1.617313 -1.616870 -1.909319 0.496611 -2.433277 2.628014 0.632924 0.012523 -0.822783 1.471826 1.407974 -0.751536 -1.699310 0.450729 -0.226797 1.189258 0.623502 0.834966 1.635161 -1.293412 -1.946640 -0.458274 -1.232744 -1.671959 1.203785 -0.817474 0.562909 0.442118 3.269683 1.975085 -0.473832 -1.924953 0.693286 -1.978594 -1.444913 0.034031 -0.667963 -1.219895 0.933166 -1.063705 -0.416230 -1.665081 2.506970 1.040627 -0.225712 1.404630 -0.621796 0.803362 -0.339079 0.359879 -1.719950 0.114188 -1.221988 1.166795 -0.297020 0.888480 0.295720 -0.241256 -0.086375 0.148392 0.208410 0.069602 -0.272553 -0.154890 2.324352 3.342197 -0.775662 0.587231 0.835669 0.056715 -0.132200 0.197515 -1.328030 1.210966 -1.506331 1.843139 2.100233 -1.492417 0.108528 -0.246631 0.317826 0.717619 1.658544 1.302169 0.947277 1.505810 1.605579 -1.073568 -2.345357 0.089226 -0.614622 2.422325 0.593237 -1.927265 -0.215899 0.845106 0.071823 -1.304850 -1.645580 0.696982 0.073967 -0.573604 -1.552409 1.588017 -0.044962 -1.072016 1.451267 0.612706 -0.426350 -0.695609 1.019917 -1.437092 -0.492662 0.408211 0.016246 -0.286073 0.160058 -0.676192
time -1.399126 -0.423166 0.737053 -1.224783 0.118582 0.364011 -1.003552 0.919230 0.593876 -0.162550 -0.055330 -0.186600 0.056100 0.255483 -0.569630 0.009224 0.517008 0.403285 1.479463 -1.256156 -1.752586 1.454900 1.031038 1.497613 0.903614 0.664021 1.915320 0.689352 1.626783 -0.387123 -0.292854 2.392780 -0.674651 1.177714 -0.012759 0.493053 0.036886 -1.346799 -2.127107 -0.951777 1.581672 -0.706531 -1.395665 0.282641 -0.320019 -0.021721 -2.664789 1.660265 -0.136924 2.377863 1.500924 -0.144102 2.512597 -0.106234 -1.550454 1.647774 0.274681 1.451978 1.372591 -2.348413 -1.631640 1.087694 0.879170 -0.133388 -2.177193 0.523942 1.097097 -1.496055 0.763308 -0.085005 -0.203241 0.310940 -0.152766 0.513473 1.589186 0.716551 0.161120 -0.516969 -0.300554 0.217110 0.494431 -0.269836 0.111680 1.501740 0.054914 0.652802 -0.196155 0.011965 -1.845787 -0.658431 2.356655 -0.382867 -0.666590 -0.212757 0.129899 0.353059 1.033711 0.975846 1.165540 -0.928633 -0.667420 -0.867408 1.217971 -0.099505 0.580650 1.525542 0.466792 0.740420 -0.089212 0.502952 0.409179 -0.408805 0.964410 0.954234 0.627223 0.707429 2.998428 1.388112 -0.394500 -0.259985 -0.634630 0.826691 0.547811 0.097486 1.241005 1.712235 -0.130989 -1.211895
its 1.295045 -1.056557 -1.255805 0.561547 0.103100 1.449031 0.364430 -0.720639 2.106197 1.050359 -0.011406 -1.520037 0.899859 -1.029058 0.244594 0.394128 -1.059761 0.867980 0.968675 -0.356619 -0.266669 0.955054 0.063554 0.310364 0.266281 0.642382 -0.192743 -0.433039 2.171714 1.544127 -1.535663 -0.992655 -0.607060 -0.040041 -0.930827 -1.158807 0.159366 -0.626280 0.201668 1.743050 1.435284 1.067533 0.465177 -1.202312 -0.987175 0.857168 0.432442 0.732681 -0.529331 1.925842 -0.144974 0.725511 0.391666 -1.325416 0.490552 1.634061 0.245603 -0.623063 0.455042 -0.127514 0.035575 -0.611578 0.563073 0.183792 -0.671314 1.218268 0.477396 0.932075 0.211611 -1.699685 -0.950431 -0.731762 0.348681 0.205095 -0.826397 0.561188 -2.665990 0.998646 -1.097562 -0.115236 1.113963 -1.417399 0.672790 -1.462897 0.849845 -1.015540 -1.461971 0.606229 0.942132 -1.961971 -1.420884 -1.356689 0.832186 -0.307071 0.022076 1.115572 -1.364102 0.137479 -0.329488 0.335071 0.858180 0.221116 0.998830 -0.885808 -0.386984 0.733555 0.711211 -0.104332 2.051903 1.116743 -0.287852 -0.380884 0.277140 -1.245622 1.737541 -2.321228 1.191000 -0.224351 2.585245 -1.226603 -0.054586 1.061506 -0.243780 -1.951407 -0.961695 0.706669 1.696072 0.903280
than -0.340857 0.295469 1.094435 1.851909 0.571484 0.455179 1.032398 0.440151 0.459677 -2.172946 0.159208 -0.026688 0.449939 1.601703 0.369888 -0.668674 -0.502071 -0.821449 -0.641672 -0.660018 3.104428 1.833258 -0.260973 1.074083 -0.574998 0.079329 0.329657 -1.484828 -1.695345 1.713244 -0.699607 -1.140343 0.069953 -1.904067 -1.562011 0.136976 0.722020 -1.029048 1.015871 0.586286 0.215274 -0.171596 1.014211 0.821701 0.773493 -0.194570 -1.950997 -0.814779 -1.621902 0.713647 -0.863800 0.157962 0.501346 0.934749 -0.709426 1.525460 -0.477839 -0.728948 -1.010525 -1.261365 -0.386508 -0.178363 1.580020 0.228255 0.012243 -0.933737 -0.614856 0.389760 0.763209 -1.872894 0.152684 0.656287 1.235941 -0.030838 -0.398961 -1.595500 2.428179 0.959478 0.310087 1.406626 1.140526 -0.705416 -2.588259 2.401177 1.395672 0.877743 1.387617 0.076356 1.793687 1.585261 -0.835412 0.597013 -1.720361 -1.281466 -0.611528 -0.493144 -1.342278 -1.479458 -3.052078 -1.544122 0.194448 -2.552837 0.076467 -0.865343 -1.358133 1.527483 1.311459 0.362315 0.098171 0.674578 1.203035 -0.312400 0.342133 -1.270546 -0.740786 0.118433 0.960532 1.278866 -0.107767 -1.122226 0.235058 2.848293 1.119635 -0.690264 0.618512 -0.707451 1.087815 -1.468217
other 1.084673 0.374072 2.560231 -0.629250 0.687690 2.067777 -0.100613 0.494621 0.746044 -0.182624 0.645774 -2.293912 0.165153 0.960551 -0.183562 1.031540 0.943917 0.252038 -0.683917 1.166618 -1.211886 0.511703 -0.609178 0.924708 -2.192659 1.666539 0.943921 0.381301 -0.831960 -1.064908 0.102209 -1.962604 -0.272626 -1.564589 -1.937582 -0.003315 2.386910 0.054288 -0.817030 0.840940 -0.143502 -0.688603 -0.298768 2.334338 1.627172 -0.298389 -0.760666 1.606571 -1.652915 0.590936 -1.120507 0.183171 -0.460105 -1.678264 0.875557 0.286939 -1.771254 1.865027 0.556278 -0.966626 -1.495313 -0.398862 -0.274311 1.326584 -0.630138 0.903601 1.720451 1.600538 -0.187372 1.475079 -0.744642 -0.324111 -0.451279 -0.511202 1.309792 0.439819 -1.074668 0.170798 1.404678 -0.064237 0.258807 -0.148254 1.093566 0.619168 0.035948 0.203559 0.589839 0.535513 -0.168233 1.101714 0.174184 -1.015474 1.271008 -1.252239 -2.454042 -0.861557 0.785739 -1.485076 1.500901 0.246396 1.441245 0.946303 0.171827 -0.561859 1.117252 -1.964468 -0.333933 0.599144 -0.679940 1.506108 2.031847 -0.274845 -1.547337 -2.374895 -1.108055 0.598761 0.733832 0.675934 2.215223 -0.355027 -0.818809 0.491040 1.959707 0.708081 2.898901 1.252119 0.497359 -0.540299
before 1.469206 -0.555908 0.925804 1.793478 1.280148 -1.623810 1.813150 0.411982 0.873002 -0.492307 0.882509 -0.858343 -0.172897 -1.254774 -0.254176 -1.304230 1.308215 -1.339945 0.241562 1.055837 1.064816 0.154529 -0.376677 -1.916079 -1.542227 1.888726 0.869914 -0.586452 3.668563 -0.462324 -0.740748 0.569663 0.015861 -0.767201 -0.020108 -0.492088 -0.901807 -0.451819 -0.381983 -1.493989 -2.421623 -0.854938 1.425066 0.103906 1.024612 -1.483892 2.191607 -0.272095 1.063375 -1.347046 -1.258099 -2.024374 -0.253001 -0.792813 -0.785098 -1.689132 -1.791582 -0.250728 0.793115 -0.244697 -0.510363 0.025880 -0.509812 0.739739 0.029566 -1.110461 -0.936236 -0.604490 1.280794 -1.480001 0.324386 1.111642 -0.656153 0.224113 0.671510 0.195028 0.969562 0.613326 0.190127 -0.972278 -0.555933 0.440809 0.462861 -0.019769 1.671428 0.076672 0.767363 -0.071512 0.773579 -0.148028 0.331959 0.282917 0.344722 1.330894 -0.120981 0.980424 1.779928 -0.637718 -1.436531 -0.934338 -0.283670 0.881612 1.454625 -0.256474 0.101907 -0.390869 0.520254 -0.610785 -0.981584 -0.302325 0.090492 2.686296 -0.725382 -0.610679 1.227287 0.227343 1.276917 -0.271729 1.231225 0.426965 -1.206858 1.459836 -0.186217 1.134273 1.615849 -0.352107 0.553666 -0.435555
about -0.763033 -0.621226 -0.603064 0.403771 -0.970732 0.379091 2.026941 0.845962 -1.939261 -0.901380 0.293480 -0.255545 -0.780091 -0.983613 1.808054 1.229006 4.671858 -0.526362 -0.252851 -0.881599 0.342935 0.062621 1.131006 2.209939 -1.243332 -0.161998 -0.081319 1.299360 0.032893 1.508202 -0.349428 -1.671201 0.741582 0.746716 0.820666 -0.861814 -0.698641 -1.267376 -0.955464 0.103305 -1.646266 1.533734 -0.545262 0.859940 -0.320294 -0.172562 0.041576 -1.148051 0.266406 1.049981 -0.718583 -0.810323 -1.768981 0.586054 0.434686 0.313880 -0.353732 -0.275353 -0.409107 0.663893 1.027408 -1.255938 0.477526 -1.245970 -1.175528 0.465133 2.791481 -0.874976 -0.637862 -0.585738 -1.110651 1.937660 0.445278 0.908118 -1.351078 -0.904328 0.593775 0.607205 -1.329196 0.511341 1.431025 1.255606 -0.623013 -1.790058 1.038380 0.100552 2.074470 -1.243250 1.687352 -1.326763 0.636042 -2.116467 -2.203606 1.331672 0.947218 0.092070 -0.015039 -0.717132 -1.557461 0.948358 -1.715522 -0.372184 0.403286 -1.379706 1.677661 -1.590285 -1.102126 1.394502 -0.587709 -1.069166 0.951247 -1.263405 -0.172267 -1.372135 -1.085277 -0.676345 -0.118583 -0.512185 -0.211780 -0.986452 1.083121 -0.866260 0.189650 1.295981 1.396996 0.077734 -0.388587 -1.641229
